437 200
president 0.284754 0.221539 0.035806 0.029351 -0.060801 -0.071305 0.007887 0.06575 -0.258749 -0.486062 -0.015499 0.204174 0.009314 0.078548 -0.207701 -0.129928 -0.03154 -0.148197 0.270405 -0.040406 -0.073868 0.088503 -0.07445 0.111226 0.034166 -0.192193 1.55E-4 -0.053795 -0.280412 -0.224651 0.001641 0.106867 0.30073 -0.242064 -0.099138 0.068327 -0.162405 0.089461 -0.111894 -0.025032 0.164462 -0.04334 0.051042 -0.209066 -0.064053 0.068227 0.49272 0.028181 -0.180892 0.0206 0.074316 0.257757 -0.219867 -0.202227 0.20469 -0.152476 0.125135 0.154841 0.00678 0.045765 -0.048354 0.239028 -0.171471 -0.123061 -0.19872 -0.251406 -0.108232 -0.002305 0.161965 -0.087208 0.014232 -0.216837 0.291598 -0.031332 -0.003263 -0.025067 0.180919 -0.046939 0.274562 0.013639 -0.0075 0.021821 -0.324174 0.131313 0.044164 0.122072 -0.175738 0.335909 -0.126995 0.095849 0.189429 0.350153 -0.088143 0.125877 -0.178121 0.0534 0.002804 -0.108115 0.072432 -0.004125 -0.074235 -0.046557 -0.074672 0.015386 0.080964 -0.129791 -0.050939 0.195229 -0.219756 0.010786 0.205572 -0.074589 -0.2753 -0.115138 0.086342 -0.099471 0.080448 0.177796 -0.226007 0.126757 -0.190663 0.385105 0.101516 -0.073143 0.129954 -0.06664 0.229989 0.049078 0.192956 -0.035426 -0.109019 0.031595 0.063102 0.034223 0.058775 -0.164152 0.038232 -0.182839 -0.183865 0.071549 -0.224944 -0.187576 -0.078112 -0.060785 -0.151583 -0.131663 -0.09911 -0.017053 -0.080356 -0.140112 -0.013499 0.068754 -0.079224 -0.007876 -0.001034 -0.098173 0.006944 -0.191747 -0.13286 -0.163009 0.109739 -0.133811 0.124581 0.172083 -0.102062 -0.246121 -0.161574 -0.223123 0.189443 0.340721 0.043992 -0.220503 -0.134152 -0.193389 0.152883 0.111601 -0.213918 -0.314563 0.216066 0.002313 -0.119867 -0.188938 0.202832 -0.213614 -0.155717 0.004088 -0.059751 -0.062672 -0.039016 -0.224029 -0.028694 -0.285631 -0.119843 -0.05789 0.263107 -0.065455 -0.073611 0.214707 0.084108 -0.044951
monk 0.229486 0.174136 -0.005485 0.298177 0.386901 -0.021291 0.223274 0.09646 -0.014345 -0.358785 0.160686 -0.211077 -0.480389 -0.010201 -0.168374 0.033401 -0.088163 -0.15735 0.022556 -0.0325 0.434454 -0.089217 -0.173239 -0.040426 -0.259695 0.056199 0.145691 -0.100935 0.028613 0.054775 -0.060876 -0.145995 -0.267274 0.07808 -0.216962 -0.111223 -0.130033 0.299616 0.014447 -0.0368 -0.333723 -0.064772 0.159098 0.011748 0.041267 0.205041 -0.38654 0.061635 -0.102607 0.023974 0.057925 -0.137477 0.199699 -0.031179 0.234383 -0.509959 0.083351 0.049989 -0.039453 0.093175 -0.199283 -0.338864 -0.430365 -0.057144 0.013174 0.185326 -0.201046 0.084767 0.178326 -0.094775 -0.040622 -0.030043 -0.100471 0.152842 0.116514 0.472471 0.112649 0.179257 -0.087403 -0.173908 -0.167832 0.11428 -0.205331 -0.091776 0.450128 -0.17784 0.003536 -0.048185 0.196036 0.192134 -0.049141 -0.240195 0.118473 0.408344 0.126133 -0.111553 0.044204 -0.18834 -0.101437 0.154663 -0.230134 -0.302055 -0.029541 0.129324 -0.06479 -0.026998 -0.191371 -0.379772 -0.43677 0.078964 -0.188802 0.124008 -0.434187 0.199577 -0.355741 0.062396 -0.31917 -0.162561 0.418235 -0.248063 0.283759 0.143645 -0.048729 0.073077 0.241898 0.363887 0.070238 -0.061754 0.188834 -0.220988 0.26731 -0.031433 0.008493 -0.088204 -0.197803 -0.112304 0.12878 0.196051 -0.088494 0.050411 0.156781 -0.135204 0.192723 -0.378548 -0.299104 -0.127297 0.244578 -0.466137 -0.035924 0.243679 0.02452 -0.354416 0.081239 -0.519855 -0.269308 0.24604 -0.078025 -0.617689 0.564738 0.14231 -0.065477 -0.436997 0.207211 0.286674 0.01741 0.436494 0.003008 0.54094 -0.061277 -0.17817 -0.159885 -0.182285 -0.35336 -0.001862 -0.272071 0.075714 0.262389 -0.149918 0.304985 -0.130717 -0.179488 0.062514 0.114411 0.099908 0.078282 0.432037 -0.075125 -0.107784 0.363628 0.489172 -0.026579 0.062208 -0.15905 0.028492 0.213755 -0.637766 0.082205 -0.028146 -0.035745 0.194435
chance 0.149801 -0.011762 -0.243621 -0.08729 -0.409186 -0.022955 -0.190652 -0.160126 0.040464 -0.003543 0.099996 -0.121651 0.092578 0.110165 0.110767 0.048433 -0.021628 -0.211435 0.063722 0.037745 0.244682 -0.033029 -0.016272 -0.24162 -0.058469 -0.010664 -0.002694 0.234941 -0.143255 0.094546 0.17605 -0.071824 0.170159 0.163457 -0.101639 0.167878 0.177611 -0.126739 0.16143 -0.116956 -0.173576 -0.076131 0.068552 0.015877 0.286936 -0.020796 0.031068 -0.118674 -0.090334 0.088086 -0.217418 0.131302 0.018825 0.210979 0.227629 0.041283 -0.247985 -0.004294 -0.117662 0.123739 0.129178 0.171187 -0.235702 0.152529 -0.119229 -0.030349 0.108599 -0.201079 -0.174965 0.178704 -0.067355 -0.056098 0.066755 -0.002886 0.040294 0.126701 0.059426 -0.270026 0.019366 -0.178156 0.041112 -0.308204 -0.066653 0.197016 -0.230315 0.059311 0.018579 -0.088859 -0.234747 -0.167262 -0.080519 0.226888 0.121832 0.046643 0.363726 -0.185359 -0.18518 -0.183274 0.010742 0.057815 -0.163969 0.050742 0.02419 -0.040946 -0.008117 0.051248 0.143076 -0.052944 -0.040712 -0.108111 -0.094111 -0.002452 -0.307794 0.221922 -0.008969 0.108675 -0.038786 0.118383 -0.098992 -0.079479 0.004625 -0.081249 -0.042917 -0.080261 0.197731 0.27488 0.033562 0.033871 0.030563 0.129502 -0.25589 -0.26736 0.006808 0.010791 -0.146592 -0.051933 0.029869 0.096134 0.014309 -0.064618 -0.116506 0.112532 -0.140028 -0.200311 0.028462 -0.171901 0.282821 0.038939 -0.011523 0.108915 -0.084583 0.117399 0.00133 0.099557 -0.046547 -0.021329 -0.076022 -0.086937 0.310276 0.089071 -0.204963 -0.002206 -0.027501 -0.096633 0.344865 0.068871 -0.040804 -0.110467 0.117821 -0.204023 0.069233 -0.096777 0.057272 -0.104593 -0.136913 0.114386 0.118066 -0.05899 0.174063 0.113451 0.046239 0.012341 -0.009367 0.053851 0.031959 -0.241786 -0.034268 -0.153787 0.145212 -0.106935 0.128532 0.126981 -0.14507 0.104523 -0.150414 0.163315 -0.057357 0.051683 0.08691 -0.070752
party 0.021553 -0.279148 -0.18792 0.151258 0.03553 -0.009977 0.076966 -0.226709 -0.087854 -0.202824 -0.274788 0.018364 0.032742 0.115817 0.051342 -0.343337 -0.010862 -0.294681 0.162199 -0.013748 0.020154 -0.082471 -0.091978 0.01417 0.107542 -0.17274 0.140567 0.2596 -0.393673 -0.124734 0.160028 -0.134849 0.198872 -0.007707 0.046462 0.049649 0.128149 -0.09064 0.077295 0.142023 -0.129846 0.035571 0.124523 -0.07924 0.126134 -0.186578 0.148745 0.179533 -0.23313 0.068577 -0.08079 0.171913 0.062369 0.030495 0.131854 -0.144865 -0.123494 -0.129003 -0.041557 0.102362 0.059444 0.189787 -0.11855 -0.077643 -0.083749 -0.07158 0.114682 0.433116 0.275965 0.167041 0.081679 0.130416 0.099127 0.251733 0.197201 0.068095 0.532115 -0.062975 0.021814 -0.250179 -0.262279 -0.078883 0.157923 -0.198997 0.079029 -0.036025 -0.008844 0.137034 0.068241 0.264839 -0.148555 -0.066503 0.157364 0.604845 0.110603 0.104948 0.072063 -0.086029 0.327672 0.09401 -0.060262 0.07625 -0.015891 0.138109 0.159118 -0.046086 -0.190363 -0.107334 0.038189 0.04853 -0.044283 -0.053387 -0.409239 0.147755 -0.07299 0.175033 -0.212042 -0.102228 0.049606 0.269782 -0.116236 0.10049 0.129603 -0.163805 0.050163 -0.031063 -0.069667 -0.158578 0.328072 -0.094099 0.069876 -0.108174 0.12731 -0.248529 0.099334 0.097506 0.030616 0.017822 -0.237887 -0.179479 -0.132457 -0.130247 -0.019518 -0.128768 -0.12323 -0.11372 -0.208178 -0.238162 -0.147984 -0.062954 -0.098503 -0.2165 0.008991 -0.043684 -0.033116 -0.103999 0.055287 0.016844 -0.126654 0.111578 0.079215 -0.072911 0.23117 -0.267545 -0.077894 -0.244679 -0.166138 0.065756 0.042561 0.145576 -0.013248 0.137646 0.043254 -0.182659 0.182037 -0.143276 0.112196 -0.228234 0.011102 -0.177661 0.200528 0.082444 0.345782 -0.118203 -0.147193 -0.097204 -0.020228 -0.245215 -0.036615 0.04635 0.11466 0.060506 -0.119088 0.104776 -0.156632 -0.119023 0.037272 0.231117 0.188343 0.185276
fuck 0.250447 0.415005 -0.294419 0.400183 -0.095775 -0.026863 -0.291165 0.124037 -0.105509 -0.167985 -0.742572 -0.164692 0.156185 0.121698 -0.120184 0.117854 -0.012637 -0.137997 0.161404 0.006545 0.294487 -0.302346 0.110615 -0.25343 -0.191606 0.063554 -0.187346 0.266255 -0.025789 0.136721 -0.076227 0.254254 0.129919 0.294018 -0.267871 0.087712 0.030346 0.220098 0.07936 0.158602 -0.200247 0.547826 0.06365 -0.352025 0.254592 0.392292 -0.190466 -0.089257 0.374643 -0.092098 -0.072404 -0.074862 0.257383 -0.268053 -0.137567 0.014553 -0.351174 0.05983 -0.044132 -0.170994 -0.179155 0.002444 -0.090542 -0.116713 0.170661 0.029166 0.265902 -0.171863 -0.106657 0.289149 -0.138948 -0.03929 0.092767 0.03725 0.019286 0.158729 -0.168567 0.017802 -0.024982 -0.12847 0.056268 0.158093 -0.070767 -0.287639 0.493079 0.130193 0.578222 0.059476 0.219882 -0.165244 0.076359 -0.025625 -0.036191 0.087592 0.037285 -0.494356 0.291179 0.06165 0.005219 -0.247544 -0.050193 -0.003819 0.020406 0.198454 0.33175 0.03548 -0.083354 -0.058109 0.020481 0.417842 -0.187291 -0.062112 -0.058986 0.171806 0.143551 0.032498 -0.047951 0.098117 0.170222 -0.293151 -0.105126 -0.125766 0.082708 0.299128 -0.065438 -0.353781 0.018713 0.066398 0.160325 -0.100774 -0.011292 -0.017876 -0.033945 -0.19975 0.131482 0.062347 0.068036 -0.091326 -0.125912 0.053061 0.185364 0.221716 -0.141616 -0.06831 -4.28E-4 -0.046308 -0.025106 -0.143043 -0.167355 -3.17E-4 0.170075 0.112334 0.117637 -0.22703 0.00628 -0.2276 0.434298 -0.088809 0.073076 -0.009106 -0.42692 0.335744 -0.060623 0.278721 0.324317 -0.006601 -0.309255 -0.161307 -0.082666 -0.497749 -0.030852 0.097564 0.055678 -0.123262 0.423753 -0.040465 -0.19498 -0.315006 0.209825 0.043496 -0.229827 6.54E-4 0.173566 -0.192157 -0.019104 -0.198812 -0.251015 0.232167 -0.156957 -0.037863 -0.058567 -0.208322 -0.203377 0.36488 0.079618 -0.137492 0.020192 -0.193515 -0.177342 -0.139492
psychology 0.283618 0.646365 -0.208616 0.244646 -0.073776 0.204118 -0.141684 0.437564 -0.231725 -0.124627 -0.062225 0.43539 0.105108 0.012327 -0.088389 -0.160749 0.03787 -0.396093 -0.209769 -0.025424 0.394542 -0.095442 0.224116 -0.147505 0.023165 -0.239725 -0.109819 -0.04311 -0.071523 0.122478 -0.27951 -0.13529 0.230626 0.128494 -0.115258 -0.183285 0.267774 -0.306411 0.162715 -0.075904 0.200496 -0.035142 -0.143446 0.068577 -0.053037 -0.274343 0.0369 0.041039 -0.165611 -0.298103 0.1325 0.305705 -0.256911 0.684452 0.323893 -0.073289 0.049593 -0.281022 -0.035059 -0.238045 -0.234004 -0.177001 0.026156 -8.8E-4 -0.17293 -0.093479 0.167558 -0.221533 -0.099762 0.16405 -0.115582 -0.486894 0.107969 0.521569 -0.417091 0.130265 0.073445 0.14813 0.565713 -0.084294 -0.045151 -0.05921 -0.151242 0.318047 0.065331 -0.45518 -0.184446 0.114729 -0.128621 -0.103753 -0.044324 0.014483 0.001988 -0.048153 0.092637 -0.045546 0.209256 -0.04855 -0.467291 0.259444 0.347236 -0.155153 -0.293786 0.18142 0.023606 0.289143 -0.204006 -0.183891 -0.233096 -0.226225 -0.038969 -0.305512 -0.089123 0.226376 0.074405 -0.420905 -0.093459 -0.416903 -0.130983 0.098194 0.008062 0.092875 -0.047364 0.381427 0.349178 -0.091976 -0.046205 -0.162699 0.499193 -0.35981 0.254546 -0.068125 -0.306217 0.32927 0.008129 0.313911 -0.202772 0.218122 0.031429 -0.311425 0.025039 0.18457 0.062041 -0.1328 -0.639723 0.072963 0.028347 0.282282 -0.249415 -0.246944 -0.135169 0.042213 0.017849 -0.107522 -0.335747 0.147885 0.075409 0.186161 -0.18761 0.050103 -0.021662 0.314828 0.116912 0.019974 0.129859 -0.029786 -0.153958 0.294986 0.128893 -0.059369 0.271631 0.139101 0.03664 0.177052 0.127895 -0.105195 -0.010757 -0.038439 0.099376 0.21435 -0.230711 -0.218301 -0.377643 0.191374 0.463742 0.231607 0.056075 0.340634 -0.062058 -0.069733 0.180887 0.192496 -0.247579 -0.179093 0.120959 0.084281 -0.14569 0.052847 -0.165172 0.103759
government -0.108543 0.134641 0.154441 -0.064948 0.23625 -0.102802 -0.029311 -0.113958 -0.326259 -0.172105 -0.042603 5.01E-4 -0.023639 0.050738 -0.115642 -0.081731 -0.190062 -0.067629 0.277652 -0.027658 0.184421 -0.059209 0.122639 -0.005339 0.071258 0.001337 0.245778 0.092852 -0.080921 -0.074423 0.057798 -0.047487 0.210959 0.076461 -0.064098 0.117801 0.027519 0.043559 -0.058977 0.099696 -0.164558 -0.136862 -0.066721 -0.16531 0.004329 -0.107435 0.022093 0.146496 0.001049 0.011868 0.07368 0.084007 -0.05689 -0.037405 0.060803 0.027968 -0.159365 0.139085 0.299075 0.035915 -0.004705 -0.073112 -0.056657 -0.126127 0.064673 -0.135445 -0.082767 -6.55E-4 0.074943 0.03171 -0.02646 0.07112 -0.177375 -0.085574 0.05836 0.073394 -0.014102 -0.02075 0.123374 0.032249 -0.05358 -0.029475 0.061943 -0.133916 -0.175017 -0.090811 -0.066557 0.156166 -0.028224 0.140022 0.05523 -0.107368 -0.134931 0.165411 0.030476 0.141203 0.031783 -0.00359 0.204866 0.015601 0.101246 -0.091348 -0.021352 0.01657 0.123701 -0.213912 -0.281217 0.022296 -0.04636 0.017557 0.153998 0.127308 -0.091051 0.026761 -0.020307 0.132704 -0.241721 -0.068236 -0.099343 0.088622 0.093572 0.28582 -0.213496 0.106578 -0.135786 0.06021 0.057721 -0.385706 0.203479 0.099973 -0.229634 0.057671 0.13242 -0.01496 -0.019355 0.017628 0.115515 -0.00503 -0.222353 -0.014092 -0.11772 -0.147312 -0.241434 -0.106731 -0.042014 -0.142278 -0.013844 -0.255641 -0.099927 -0.028314 -0.011862 -0.319333 0.208381 0.041836 0.029458 -0.044568 -0.088119 -0.241669 -0.13117 -0.073733 0.160551 0.065758 -0.080358 -0.145714 0.145104 -0.120245 -0.184592 6.54E-4 -0.026748 0.146709 0.040662 -0.042565 0.081168 0.122546 0.148537 -0.262113 0.113343 0.209875 -0.192834 0.037861 0.186045 -0.288958 -0.00689 0.032262 -0.008973 0.226442 -0.119896 -0.028085 0.076573 -0.102835 -0.043799 0.063856 0.027853 -0.005923 0.029739 -0.25881 -0.01387 0.15653 0.051803 0.1741
madhouse 0.143379 0.133913 -0.182725 0.203095 -0.126987 -0.231533 -0.030271 0.349646 -0.085212 0.022764 -0.049956 0.11098 -0.096346 0.241718 0.041219 -0.106645 0.055968 -0.02532 0.080767 0.048617 0.247422 0.040066 0.036657 -0.19433 -0.070173 0.126155 -0.067628 0.195993 0.032441 0.03176 0.146037 -0.004203 0.330155 0.138096 -0.312114 -0.050298 -0.097821 -0.021478 0.028666 0.059007 -0.168727 0.125872 -0.185282 0.013621 0.176725 0.10622 -0.268927 0.168991 0.095219 0.080732 0.160735 0.03161 0.150638 0.016893 -0.039076 -0.159161 -0.050979 -0.101482 0.005413 -0.071965 -0.110102 -0.034384 -0.083208 0.040815 -0.113674 -0.228175 0.179234 0.091191 -0.02617 0.012088 0.090069 -0.197003 3.94E-4 -0.061496 0.262549 0.264455 -0.00811 0.189221 -0.083224 -0.019051 -0.06481 0.229595 0.284027 0.050719 0.150232 0.005938 0.202466 -0.20165 -0.024573 0.054576 -0.125531 -0.031244 0.034757 -0.049596 0.380538 -0.570369 0.166147 0.001244 -0.127255 -0.034201 0.027558 -0.037704 0.027144 0.05678 0.035704 0.028671 -0.135339 -0.12368 -0.147117 -0.029718 -0.159742 0.119979 0.18156 -0.079774 0.143185 -0.121998 0.019435 0.036125 -0.025729 -0.18495 -0.024233 0.177311 0.150191 0.046966 0.088843 -0.042687 0.040729 0.151509 0.027284 -0.118309 0.162422 -0.009037 -0.010032 0.03569 0.162005 0.132297 0.020107 0.066782 -0.024905 0.08922 0.164211 0.237096 0.052841 -0.22333 -0.013091 -0.058605 -0.11468 -0.005545 -0.323608 -0.210387 0.128482 0.06668 0.052586 -0.349252 -0.169408 0.0774 0.006294 -0.184227 -0.220716 0.034439 -0.039645 -0.118351 0.248435 0.038993 0.390817 0.200812 0.05884 0.047345 0.050863 0.019623 -0.237359 -0.074798 0.189538 -0.038337 0.332137 -0.22218 0.00151 -0.238722 0.23412 -0.090129 -0.011089 0.145079 -0.029659 -0.051168 -0.054715 -0.184511 -0.316277 0.004461 0.009768 0.13158 0.041254 0.159529 -0.047767 -0.012527 0.057849 0.054241 -0.017947 -0.060595 -0.044965 0.145782
video -0.274913 0.164579 -0.293751 -0.00991 0.176603 -0.237037 -0.194765 0.170764 -0.036258 -0.20011 -0.206205 0.159154 0.379069 -0.339321 -0.052332 0.337613 0.069522 0.289832 0.001494 -0.020435 -0.147036 0.257491 0.064134 -0.076866 0.113489 0.181262 -0.30916 0.183928 -0.046907 -0.003273 0.063085 -0.00468 -0.054047 0.145897 0.274313 -0.013392 -0.176143 0.028172 -0.165606 0.411646 -0.091845 0.128249 -0.064391 -0.146456 0.060972 0.278999 -0.214748 0.235211 0.097015 -0.100273 0.057745 -0.378115 0.039444 0.024304 0.058664 0.242695 0.277452 0.308807 -7.29E-4 -0.209342 -0.315574 -0.045138 -0.286644 0.015596 -0.085043 -0.210112 -0.274875 0.231584 0.162533 0.145161 0.048188 0.030386 0.13074 -0.171186 -0.455946 0.066926 0.060522 0.109076 -0.051194 -0.248323 -0.067915 -0.107241 0.029608 0.067723 -0.087393 -0.050696 -0.210662 0.063787 0.007145 -0.16602 -0.315253 -0.044896 0.434359 -0.157231 0.188951 0.210145 -0.124306 -0.00703 -0.183686 -0.026879 0.124204 -0.068828 -0.117257 -0.030862 -0.085791 -0.018969 0.198768 0.039473 -0.107664 -0.172341 0.148038 -0.086434 -0.08336 0.314973 -0.092706 0.056877 0.189129 0.161886 -0.018886 -0.128624 -0.025844 0.079043 -0.204598 0.103499 -0.066525 0.352425 0.012649 -0.113419 -0.156955 0.213853 0.340757 0.08778 -0.026321 0.194202 0.009793 0.001723 -0.311807 -0.179785 -0.071182 0.022236 0.082751 -0.085961 0.56451 -0.155292 -0.194936 -0.079926 -0.054807 -0.300021 0.077658 -0.013597 0.04503 -0.034608 0.20865 -0.036493 -0.094274 0.242023 0.12821 0.088099 0.157611 0.123554 -0.141382 0.114559 -0.096125 0.228763 0.103309 0.063118 -0.272422 -0.28166 -0.07041 0.183335 -0.274909 0.048107 -0.060567 -0.054918 -0.019546 -0.038542 0.290539 -0.059195 -0.204232 0.146671 -0.128109 -0.034784 0.146776 -0.376431 0.076423 -0.096953 -0.257423 -0.093222 -0.064263 -0.199852 -0.1974 -0.025365 -0.039242 0.237569 0.049671 0.057822 -0.271853 -0.030194 0.029439 -0.010202
defeating -0.168456 -0.30308 0.013853 -0.097175 -0.454195 -0.166794 0.218894 -0.081948 -0.155455 0.022813 0.156322 0.020707 0.050006 -0.019539 0.121148 -0.012144 -0.365194 -0.074649 -0.186104 0.043908 0.099473 -0.203029 0.053931 3.74E-4 -0.111372 -0.2462 0.361452 0.085702 -0.268886 -0.36039 -0.01804 0.200781 0.314939 -0.040957 -0.249798 -0.155466 0.114336 -0.13893 -0.10674 0.030614 0.199989 -0.276617 0.100696 -0.194124 -0.132653 0.2861 0.008624 -0.374801 -0.372485 0.186729 -0.301091 -0.159169 -0.616026 0.219187 0.266728 -0.067539 0.009908 0.036827 0.04842 -0.074122 0.106944 0.01857 -0.134569 -0.049958 0.181227 0.042806 -0.239877 0.069962 -0.091032 -0.058622 -0.08356 -0.303878 0.003626 0.193559 -0.050852 -0.24187 0.137299 -0.207719 0.309591 -0.146001 -0.342522 0.207175 -0.402802 0.450251 0.144778 -0.483606 -0.012968 -0.166171 -0.013413 -0.131166 0.157059 0.214475 0.400604 0.103369 0.480793 0.009399 -0.06729 -0.244647 0.302428 -0.180134 -0.447681 0.144162 -0.078318 -0.059173 -0.118392 -0.536148 -0.095645 0.098882 0.161724 -0.223706 0.135597 -0.095131 0.041119 -0.237051 0.065148 -0.157789 -0.335773 -0.052277 -0.066278 -0.164453 -0.015034 0.046327 0.093465 -0.079929 -0.047194 -0.167846 -0.070714 0.022696 0.086105 -0.203299 0.399507 -0.054747 0.138349 -0.247965 0.044385 0.041637 0.416715 -0.078124 -0.124028 -0.147095 0.065958 -0.046172 0.043829 0.037406 0.028028 -0.299883 0.327469 -0.093831 -0.162212 0.216337 -0.454284 0.013735 -0.172904 0.192418 -0.197213 -0.385504 -0.262907 0.392274 -0.326111 0.246993 0.157512 0.013451 0.030368 0.05823 -0.151942 -0.343327 0.057573 0.006067 0.353201 0.310881 -0.046731 -0.050016 0.098431 -0.15 0.264771 -0.05519 0.169734 -0.187942 -0.100245 0.229321 0.063438 0.002128 0.262112 -0.157664 -0.220167 -0.077553 0.042536 0.001767 -0.210498 0.026569 0.236194 -0.021072 -0.078378 0.174681 -0.392069 0.304202 -0.291763 -0.153109 0.099962 -0.135611
death 0.248659 0.06495 0.269304 -0.014791 0.275095 0.111785 0.060794 0.31556 -0.243293 -0.25363 -0.075508 -0.134946 -0.08932 -0.156961 0.005095 0.241339 -0.23434 0.154732 0.040761 0.264519 -0.02127 -0.288061 -0.066406 -0.055456 -0.016094 -0.033896 -0.229661 0.128258 0.050671 -0.013019 -0.182664 -0.270452 0.146388 0.252969 -0.066988 -0.160907 0.296486 0.209845 -0.046399 -0.11858 0.168133 -0.027293 0.144132 0.287252 0.321901 0.15129 0.328414 0.118616 -0.016135 0.117074 0.195394 -0.112351 0.30148 0.032452 0.050745 0.016815 -0.173963 0.226613 0.35106 0.151638 0.125403 0.076899 -0.098331 -0.215826 -0.242098 0.039237 -0.199264 0.082848 0.415893 -0.319353 -0.095531 -0.052348 -0.056664 -0.132034 -0.088338 -0.01205 -0.030013 -0.329522 -0.068758 0.101793 0.018226 -0.268096 -0.171816 -0.154484 0.123449 -0.16847 0.146659 0.02277 0.184039 0.062331 -0.286963 0.100145 -0.101382 0.260467 0.184873 0.088968 0.078134 -0.089538 -0.039865 0.075435 -0.146853 0.143767 0.063773 0.111202 -0.067647 -0.036765 0.037438 -0.145396 0.024994 -0.041394 0.005495 -0.044965 -0.092052 -0.177776 -0.336047 -0.186921 -0.222543 8.98E-4 0.044353 -0.103019 -0.195063 0.142087 0.319645 -0.332976 0.229978 0.00189 0.106767 -0.163702 8.93E-4 -0.118019 -0.109187 0.122331 0.163836 -0.159145 0.337359 0.148019 -0.067305 -0.152585 -0.136701 -0.113637 0.139223 -0.135296 -0.141326 -0.092189 -0.144014 -0.09962 -0.076301 0.018469 -0.094419 -0.22391 0.04406 0.150824 0.176699 0.098725 -0.35612 0.185859 0.287238 0.029449 0.30182 0.298905 -0.130906 -0.039543 -0.028528 0.119797 -0.098124 0.221905 0.009973 0.19839 -0.148917 0.101159 -0.03329 0.016457 -0.08464 0.425984 -0.34986 0.083277 0.021827 -0.135939 0.137194 0.215995 0.124497 0.19977 -0.083606 0.149116 -0.128084 -0.080915 -0.222068 0.027346 -0.197718 0.044775 -0.004536 5.02E-4 -0.061171 -0.099939 0.093856 -0.032662 0.020814 0.071683 -0.099941 0.211989
image 0.034857 0.183326 -0.035976 0.128895 -0.044724 0.035181 -0.069213 0.150396 -0.171721 -0.165987 -0.249902 0.174572 -0.061946 -0.167986 -0.043075 0.081306 0.123572 -0.158373 -0.054087 -0.1156 0.094417 0.093992 -0.186757 -0.111445 0.004861 -0.033424 -0.037041 0.170797 -0.034755 -0.031296 0.241459 -0.229867 0.230797 0.303576 0.142169 0.042478 0.057622 -0.105143 -0.171877 0.221781 -0.064077 -0.120413 -0.029685 -0.021708 0.19632 0.185312 -0.087616 0.254884 -0.18436 -0.128209 0.029976 0.070123 0.067014 -0.00399 0.109247 -0.008496 0.043331 0.189562 -0.054026 -0.026599 -0.152705 0.29616 -0.225562 0.057495 0.07968 0.074212 -0.229526 0.082941 0.049015 0.150456 0.121301 -0.209267 0.101798 -0.098054 -0.165563 0.144993 -0.017865 0.089891 0.034614 -0.240582 -0.277703 0.121426 -0.114373 0.031247 -0.022218 0.018669 0.135692 0.019269 -0.027214 -0.183105 -0.322196 -0.120487 0.038456 -0.075609 0.158114 0.050869 0.112025 0.048839 -0.041037 0.074348 0.142863 -0.111649 0.016923 0.366711 -0.089506 0.092971 0.23376 0.054182 -0.06427 -0.018677 0.007364 -0.013216 -0.043971 0.197692 -0.137844 -0.12947 0.097706 0.026193 -0.123127 0.005708 -0.043818 0.217904 -0.037579 -0.106514 0.103051 0.251757 0.085065 0.003924 -0.062234 -0.028869 0.247069 -0.263856 -0.077332 -0.178112 0.18271 0.072777 0.148187 -0.06548 -0.24851 0.002919 0.0177 0.008031 0.200662 -0.143585 -0.027757 -0.279318 0.0024 -0.272937 0.018344 -0.116861 -0.120548 -0.115867 -0.045705 0.029246 -0.122652 0.001407 -0.04578 -0.143365 -0.008116 0.060529 -0.043674 -0.288071 -0.03636 0.134692 -0.057854 0.222052 0.028504 -0.279521 0.105727 0.058046 -0.0457 -0.140928 -0.069105 -0.087968 0.192322 -0.130829 -0.165222 -0.189731 -0.284199 -0.001591 0.041376 0.018954 -0.198824 -0.132664 0.046707 -0.144553 -0.144771 -0.054647 0.028917 -0.114249 -0.032201 0.043567 0.140558 0.056092 -0.176872 -0.033673 -0.218751 -0.16166 -0.147723 -0.013699
theater 0.123888 0.235338 0.171587 0.149913 -0.050167 -0.138375 -0.048635 0.208034 -0.108897 0.24944 -0.050547 0.278539 0.231912 0.330745 0.181284 -0.14924 0.021535 0.169407 -0.090606 -0.026195 0.182885 0.400806 0.143386 -0.21583 -0.133152 0.158823 -0.189569 -0.016255 0.063119 0.039827 -0.01454 -0.11124 0.280208 0.298022 -0.22548 -0.034837 -0.00248 -0.073695 0.017648 0.222572 0.011759 0.060951 -0.13977 0.003299 0.151351 -0.171894 -0.062339 0.322731 -0.065372 0.089721 -0.102882 -0.174126 -0.056192 -0.091655 -0.153604 -0.086584 0.123513 -0.031913 -0.106577 -0.19237 0.07803 0.061582 -0.062244 0.024515 -0.19081 0.111566 0.019913 0.090651 0.129048 0.278013 0.232992 -0.052768 0.118335 0.094494 0.044746 -0.037588 0.15696 0.117967 -0.117664 0.054585 -0.369257 -0.10764 0.134982 -0.112077 0.091845 0.034153 -0.040599 -0.041552 -0.438347 0.029145 -0.096109 0.185499 0.307023 0.125166 0.164856 0.048466 0.25013 -0.104787 0.100132 0.140324 0.04115 0.077094 -0.308138 -0.213567 0.042539 0.347253 -0.063749 0.183384 -0.152231 -0.138579 -0.021298 0.020813 -0.171218 0.044431 -0.079754 -0.139504 -0.00659 0.045474 -0.161971 -0.071168 0.112984 -0.171149 0.120258 0.252163 -0.005298 0.079685 0.197522 0.303625 -0.081279 0.097301 0.318153 0.114368 -0.018207 0.212246 0.199666 1.86E-4 -0.300987 0.004466 0.105348 0.190096 -0.324767 0.194244 0.240836 -0.054201 -0.096038 -0.015225 -0.323507 -0.221308 -0.211775 -0.337805 -0.068771 -0.108833 -0.007824 -0.034824 -0.077801 -9.06E-4 0.252785 -0.18289 0.104021 0.087343 0.103659 0.201318 0.16704 0.011621 0.212373 -0.021437 0.135673 -0.015595 0.205535 -0.107862 -0.307929 -0.137971 -0.0501 0.013222 -0.102648 -0.029112 0.20884 -0.155027 -0.055514 0.019892 -0.137141 0.063427 -0.098876 -0.014802 -0.070189 -0.066946 -0.14149 0.046708 0.056892 -0.17898 0.03595 -0.03723 -0.13524 0.293613 0.12774 0.117349 -0.165334 0.160479 -0.091377 -0.067844
number -0.008418 0.110891 -0.139699 -0.069914 -0.206541 -0.002519 -0.126329 -0.011369 -0.132044 -0.004609 0.261541 -0.235046 -0.083991 -0.114561 -0.149588 0.03148 -0.268127 0.134151 -0.132985 -0.06991 0.029341 -0.004323 -0.275405 0.046114 0.152561 0.353287 0.127245 0.1836 0.142135 -0.059868 -0.280768 -0.288898 0.035421 0.001179 0.163485 -0.086784 -0.023254 -0.091343 0.081326 -0.273813 -0.075338 0.022094 0.042797 0.074265 0.196223 -0.067618 0.044007 0.074551 -0.06146 0.039135 -0.007992 -0.024782 -0.006123 -0.145387 0.115051 0.130535 -0.017715 0.198006 0.183538 -0.095743 -0.041258 0.007228 0.084008 -0.053434 -0.288502 -0.123658 0.053883 0.076458 0.150924 -0.077117 0.221512 0.242356 -0.230201 0.019635 -0.033136 0.261794 0.075576 0.01411 -0.015351 -0.040771 -0.087223 -0.247363 -0.023457 0.100434 0.053408 -0.359464 0.01669 -0.054184 -0.093433 -0.041239 -0.150277 -0.05546 -0.059768 -0.252135 0.31504 -0.042179 -0.24697 0.104486 0.082064 -0.206289 -0.069051 0.091596 -0.033056 0.070437 0.170735 0.218127 -0.310982 -0.017299 -0.090601 -0.224429 0.039864 0.160605 -0.010043 -0.040242 -0.124755 -0.011066 -0.1117 -0.064257 0.086013 0.118998 0.294172 0.302239 -0.09808 -0.161317 0.042916 0.050147 0.121973 0.010024 0.010277 0.105458 -0.002258 -0.195025 0.063158 -0.072692 -0.071513 -0.237238 0.036982 -0.108227 0.131634 -0.341779 -0.079319 0.03775 0.14704 -0.302321 -0.169803 -0.139144 0.123234 0.127147 4.15E-4 -0.093047 0.091461 0.029061 -0.00463 0.047856 -0.227651 -0.221754 -0.103639 0.015552 0.26403 -0.047541 0.126522 0.123827 -0.100329 0.075632 0.303065 -0.060925 0.1205 -0.212697 -9.3E-5 0.035913 -0.082714 -0.001282 0.221596 0.210383 0.359508 0.086089 0.041359 0.019197 -0.088418 0.149425 -0.008618 0.120191 -0.052298 0.027956 0.210937 0.019073 0.081878 -0.004308 0.136606 -0.01256 -0.030579 0.123646 0.088855 -0.235794 -0.050061 0.042225 -0.013609 0.147222 0.192219 -0.093403
astronomer 0.045461 0.706897 0.015551 0.073064 -0.160544 0.100754 0.119552 0.022668 0.035041 -0.506879 -0.290855 0.22423 -0.062102 0.463397 -0.202543 0.099004 -0.006573 -0.344445 -0.213892 -0.078534 0.667161 -0.359998 -0.309737 -0.143217 0.058353 0.122969 -0.196642 -0.040768 -0.324348 0.04492 -0.022311 -0.180533 0.357062 -0.319237 0.01231 -0.265341 -0.222032 -0.048669 -0.125108 0.067548 0.036034 -0.39665 -0.274318 0.100223 -0.258726 0.386845 0.256642 0.291005 -0.126362 0.167268 0.015408 -0.10054 0.078006 0.428031 0.312597 -0.249403 -0.094299 -0.315252 -0.077233 -0.013641 -0.178764 -0.074616 -0.130542 0.025572 0.073436 0.446694 -0.230745 0.207579 0.084563 0.005294 0.345204 -0.35887 -0.26508 0.240732 -0.159493 0.257103 -0.319318 0.253319 0.246427 -0.179127 -0.17508 0.187527 -0.185322 0.359222 0.332546 -0.280423 0.08103 0.179653 -0.05155 0.378802 -0.109506 0.186314 -0.242756 -0.320152 0.114503 -0.04903 0.222303 0.346863 -0.317913 -0.029146 0.010375 -0.053361 -0.21431 0.439512 -0.142777 -0.143612 -0.028105 0.093755 0.043774 -0.296632 -0.09486 -0.330831 0.031458 0.329918 -0.084604 -0.122782 -0.168618 -0.202508 0.296516 -0.074225 -0.127583 0.194751 -0.079373 0.274507 0.221475 0.052309 0.126269 0.354087 0.04957 -0.266463 0.178128 -0.063946 -0.617958 0.177644 -0.145805 0.4573 -0.010708 0.246832 -0.080046 -0.101749 0.022001 -0.105503 -0.039243 -0.165221 -0.473997 -0.047633 -0.138037 0.164466 -0.01098 -0.278551 -0.443221 0.200091 -0.027699 -0.155641 0.062964 -0.02881 0.0407 -0.207222 -0.137117 0.117787 0.042803 -0.112777 0.412888 0.321322 0.215839 0.163373 -0.116693 0.200579 -0.006085 -0.05956 -0.223738 -0.008589 -0.420097 -0.096636 -0.45759 -0.145879 0.012459 -0.130756 -0.028216 0.231171 -0.406293 0.091611 -0.092614 0.109531 -0.004065 -0.024825 0.323786 0.131305 -0.135793 0.061372 0.285697 0.159819 0.363711 -0.180165 0.281494 -0.117173 0.080025 0.107528 -0.356483 0.132909
project 0.003742 0.051014 -0.074776 -0.262853 0.105496 -0.090979 -0.106911 0.089475 -0.112651 -0.117077 0.086618 0.018319 0.20469 0.156716 0.043484 -0.087001 0.087842 -0.1068 0.087662 7.8E-4 0.078491 0.093645 0.003892 0.034697 -0.072504 -0.150205 -0.183955 0.022116 0.021811 -0.189955 -0.103502 0.043237 0.263225 -0.20766 -0.195282 -0.120147 -0.099069 -0.17819 -0.130923 0.308279 0.051886 -0.15757 -0.121952 0.143275 0.137283 -0.083682 -0.049171 0.161618 0.020828 0.051258 0.111668 -0.119675 0.036979 0.299738 0.055775 -0.02654 -0.133418 0.13526 0.207896 -0.049651 -0.202816 -0.114676 -0.013338 0.034296 -0.006379 0.164109 -0.103625 -0.024211 0.103621 0.24111 0.188996 -0.045284 -0.301096 0.006055 -0.068171 0.273794 0.043564 -0.13748 -0.056578 -0.053726 0.001634 -0.034135 0.149657 -0.073571 -0.015067 0.17655 -0.252049 -0.254693 -0.196726 0.270045 0.131367 0.002217 -0.049189 -0.141563 0.093974 0.342005 -0.074437 0.110013 -0.132971 -0.118828 0.099475 0.088254 -0.065032 0.128397 -0.100638 -0.009568 -0.130364 -0.079505 0.030422 0.038299 -0.060911 0.068144 -0.09348 -0.125161 -0.275898 -0.009691 -0.052565 0.074671 -0.167617 0.045841 0.063583 0.071739 0.098343 0.178186 0.114467 -0.0083 0.15203 0.080526 0.143154 -0.057335 -0.015532 -0.112577 -0.168644 0.37979 0.003064 -0.041036 0.014139 0.090106 -0.132817 0.206301 -0.027535 0.034585 -0.187838 -0.111386 0.150564 -0.111553 0.035953 -0.064142 0.121637 -0.22979 -0.06302 -0.058174 0.076623 -0.233529 0.014615 -0.06823 -0.080178 -0.242408 -0.116116 -0.107763 0.129899 -0.043425 -0.025745 0.164168 -0.071595 -0.052082 0.089821 -0.152057 0.169583 -0.08136 0.096754 0.126789 -0.210946 0.359512 0.055894 -0.196265 -0.021213 -0.127359 -0.122785 0.021435 -0.191165 -0.008134 -0.165714 -0.075958 -0.094268 -0.050909 0.171349 0.079169 0.046529 -0.140935 0.104501 0.03338 -0.001136 -0.001406 -0.024779 -0.036607 -0.09509 0.061419 0.099648 0.009198
dawn -0.12366 0.160522 0.105563 0.220501 0.075877 -0.026199 0.149637 -0.011607 0.163373 0.130918 -0.138151 -0.077261 0.108995 0.076523 0.001173 -0.225962 -0.210119 1.58E-4 -0.006124 -0.036462 0.10722 0.022773 0.381662 -0.05255 0.175618 0.080276 0.185951 -0.310121 0.133555 0.01603 0.093436 -0.232011 0.227506 0.107155 -0.008695 -0.055492 -0.092231 -0.121216 0.019676 -0.233277 -0.26771 -0.441957 -0.145927 -0.041162 0.053921 0.232414 -0.074399 0.128696 0.007825 0.179028 0.047657 -0.111198 0.015798 0.220338 -0.031433 -0.154438 -0.017287 0.152573 0.030743 -0.166041 0.310721 -0.277755 -0.16219 -0.161565 -0.281175 -0.222101 -0.105011 0.268589 -0.017204 -0.11682 -0.357786 -0.185774 0.031092 0.293679 0.033177 -0.048603 -0.081115 -0.056083 -0.071397 0.059154 0.251949 -0.091074 -0.179163 0.003276 0.272712 -0.067369 -0.087546 0.052785 0.125319 0.082278 0.027475 -0.073297 0.090349 -0.278087 0.219198 0.119024 0.318604 -0.066917 -0.204824 -0.073314 -0.177564 -0.111836 -0.285617 0.11069 -0.433742 -0.241389 -0.161591 -0.142042 0.256674 -0.212371 -0.149094 -0.18466 0.129679 -0.062222 -0.067954 0.290519 0.089428 -0.10447 -0.031012 -0.191742 0.061115 0.008454 0.200256 0.10249 0.248969 0.023001 0.229778 -0.168215 0.112674 0.108108 0.118164 -0.193847 0.057047 -0.14818 -0.168124 -0.013024 0.001043 0.161195 0.02777 -0.127314 -0.046089 -0.102614 -0.085029 -0.007921 -0.075707 -0.026484 -0.293539 -0.45985 -0.176181 -0.031308 0.13451 -0.167433 -0.157691 0.133918 -0.289251 0.068279 0.058038 -0.261285 -0.007754 0.133245 -0.203696 0.149302 0.336936 -0.147462 0.270223 0.391961 0.013353 0.145075 0.193811 0.453498 -0.166772 0.301726 -0.082076 -0.21504 0.240629 0.167997 0.050908 -0.330794 0.319085 -0.384191 -0.011552 0.20875 0.117617 0.126996 0.053239 -0.087345 -0.015607 0.144873 -0.127254 0.151261 0.038031 0.378785 0.125794 -0.105666 0.005997 -0.023438 -0.219389 0.249355 -0.097654 -0.070865
ear 0.141115 0.027406 -0.204416 0.240269 -0.08583 0.221032 -0.244208 0.260056 0.031147 -0.194246 -0.474363 0.001585 -0.266416 -0.100074 0.038804 0.174804 -0.221462 0.056243 -0.11892 -0.187365 0.053972 -0.407179 -0.152878 -0.113266 -0.169267 -0.09902 -0.104216 0.423622 0.19005 0.366836 -0.166765 0.117907 -0.030119 0.429785 0.116293 0.219974 -0.015796 0.376536 -0.12141 0.086564 0.184046 0.017615 0.154323 0.252565 0.237011 0.228084 0.10104 -0.056492 -0.082175 0.172047 0.077936 0.369123 -0.11263 0.107526 0.040748 -0.008157 0.293599 -0.02879 -0.113665 -0.077639 0.001905 0.407059 -0.036643 0.216843 0.342773 0.184033 0.129492 0.28641 0.218609 -0.066064 0.067177 -0.120956 0.115535 -0.164638 -0.110527 0.053292 -0.293455 0.176953 -0.09044 -0.01754 0.124901 -0.236564 0.087592 -0.046508 -0.106457 0.062544 0.089985 0.147464 0.102579 -0.312427 -0.119071 0.165267 0.0894 0.03098 0.219858 -0.173504 0.362724 -0.200696 0.001815 -0.177536 -0.04587 0.104864 0.110708 -0.059712 0.054808 0.220437 -0.009996 -0.190736 0.155653 -0.105717 0.001624 -0.280738 -0.055213 0.150632 -0.166077 0.105011 0.113136 -0.171403 0.112769 0.056977 -0.233035 0.121369 0.003386 0.224433 -0.068315 -0.247321 0.10046 0.061288 0.09709 0.053607 -0.062806 -0.250771 -0.043124 -0.241389 -0.066467 -0.094773 0.079518 -0.148947 -0.081532 0.160021 -0.185766 0.029308 0.184034 -0.05979 0.004898 -0.231714 -0.067846 -0.065605 -0.213552 0.024704 -0.097958 0.133636 0.297429 0.020699 -0.400172 0.020409 0.26533 -0.040105 0.277803 0.190503 0.15663 -0.161665 -0.102087 -0.017581 0.067011 0.210609 0.063402 0.0208 -0.003159 -0.303839 0.057713 -0.338365 -0.269889 -0.206433 0.264958 -0.228954 0.185145 -0.122465 0.078058 0.075407 -0.097681 -0.311026 -0.324414 0.094009 -0.074496 -0.176193 -0.179423 0.047889 -0.160476 -0.063796 -0.124983 -0.172825 0.145789 0.059825 -0.023129 -0.162846 -0.046617 -0.26735 -0.114493 0.099844
voyage -0.014717 0.365605 -0.207842 -0.261886 -0.181845 0.029071 -0.004901 0.316913 0.194904 -0.023772 -0.090085 0.266279 0.163492 0.282288 0.196934 0.060269 0.044251 -0.14298 -0.033226 0.018979 0.364409 -0.00654 0.109916 -0.53752 0.213666 -0.193509 0.241424 -0.333054 0.082276 0.21034 -0.124643 -0.0597 -0.075336 0.09987 0.052658 0.03778 0.173739 -0.20541 -0.182356 -0.218038 -0.172966 -0.299568 -0.412376 0.008279 0.057875 -0.213501 -0.226183 -0.003134 -0.153517 0.532745 0.184691 -0.31134 0.357556 0.346462 0.424534 -0.12266 0.11613 0.106219 -0.246686 -0.03884 0.369931 0.331944 -0.127141 -0.161849 0.07191 0.378973 -0.194459 0.249403 -0.039402 0.023721 0.352378 -0.048294 0.009675 0.193352 0.1583 0.100544 0.166404 -0.040614 -0.216197 -0.058413 -0.339727 0.233785 -0.147343 0.244587 0.338026 -0.040326 0.18111 -0.07323 -0.130058 0.267959 -0.132804 0.21829 -0.104555 -0.286303 -0.113391 -0.078909 -0.358683 0.394849 -0.292907 -0.27212 -0.187887 0.204235 0.095875 0.03451 -0.179244 -0.387918 -0.222479 -0.038177 0.016511 0.178858 -0.177933 -0.026475 0.009825 -0.163616 -0.335175 0.18197 -0.02396 0.115778 0.13239 -0.091532 -0.191914 0.068323 0.519313 -0.053844 -0.089518 -0.02779 -0.344167 0.093678 0.121378 -0.242171 0.201726 -0.065487 -0.196435 0.005404 -0.205566 0.044806 0.303017 0.096716 0.001757 0.173774 0.001472 -0.074162 0.164773 -0.140534 0.18274 0.101307 -0.282369 -0.316964 0.283135 -0.05209 -0.319855 -0.287328 0.183563 -0.456331 -0.070829 -0.211179 -0.162543 -0.362263 -0.03737 0.213089 -0.32206 0.082641 -0.402019 -0.209085 -0.15084 0.253933 0.063919 -0.09338 0.008107 0.200366 -0.265713 -0.129761 -0.204126 0.307175 -0.2197 0.049674 -0.038088 0.001178 0.409203 -0.252043 0.148041 0.131021 -0.076136 0.147995 -0.258049 -0.174494 0.104893 0.376011 -0.332232 0.179486 0.099622 -0.048656 0.080479 -0.314076 0.15565 -0.094274 -0.264194 0.154214 -0.409915 -0.364975
valor 0.248607 0.256878 0.603 -0.143111 -0.027831 -0.542201 0.191447 -0.041504 -0.344928 -0.168027 0.067081 0.287007 -0.084734 -0.213575 -0.016493 0.11256 -0.041453 -0.237815 -0.282627 0.558269 -0.018832 0.005993 0.14212 0.49229 -0.207076 -0.058227 -0.128964 -0.126474 -0.095003 0.101862 0.008284 -0.017498 0.220645 0.557503 0.063189 0.355968 0.121666 0.236885 -0.305 -0.122207 0.07756 -0.181145 -0.082146 -0.160155 0.215846 0.054856 0.010964 -0.055306 0.141296 0.288799 0.160896 -0.327127 0.205955 0.008695 0.633605 -0.519204 -0.064237 0.089541 -0.226231 -0.150158 0.092159 0.194626 0.231117 -0.108751 -0.158842 -0.023281 0.08504 -0.362524 0.290791 -0.149918 -0.187979 -0.162653 0.155974 -0.08954 0.006474 0.214087 -0.088574 0.446765 0.072652 -0.272395 -0.015435 0.003793 0.14916 0.06302 0.059289 -0.649563 0.303078 0.172538 0.166807 -0.061344 -0.260851 0.130903 0.088934 -0.17013 0.149686 -0.367243 0.274379 -0.110032 -0.139545 -0.130167 -0.314224 -0.397262 0.248553 -0.116302 0.072472 0.030195 -0.526576 0.396787 -0.302584 0.141445 -0.445065 -0.362584 -0.245281 0.207507 -0.281519 -0.016521 0.266776 0.148074 -0.040719 -0.091036 -0.517585 -0.215533 0.594618 -0.131822 0.109101 0.364826 -0.202331 0.286001 0.058469 -0.34276 -0.090084 -0.172596 -0.136736 -0.327804 0.057612 0.242949 0.122736 -0.084652 0.190756 0.112071 0.134802 -0.240781 0.004098 -0.488903 0.14786 -0.087336 0.110899 -0.19785 -0.184138 -0.217367 0.005154 -0.140154 -0.271839 0.130917 0.189647 -0.863712 -0.035713 0.028454 0.519392 0.030346 -0.031886 -0.004575 0.017881 -0.190777 -0.358306 0.185039 0.241306 0.279865 0.215874 0.163881 -0.477524 -0.009088 -0.199215 -0.225643 -0.037353 0.024634 -0.06457 0.128051 -0.033142 0.362116 0.114383 -0.381052 0.090001 0.239805 0.189911 -0.134724 -0.39741 -0.431561 0.099134 -0.248319 0.284045 -0.089957 -0.015533 0.289771 -0.134494 0.101286 -0.195677 0.168284 0.327624 -0.106998
butter 0.181061 0.042286 -0.542697 0.020066 0.246433 0.10183 0.056725 0.425921 -0.272757 0.474951 -0.491396 0.073615 -0.064145 -0.285768 -0.054377 0.549874 0.183698 0.228589 0.105953 -0.613491 0.109844 -0.020988 -0.238738 -0.203081 0.377738 -0.125866 -0.11652 -0.071706 0.184809 -0.195553 -0.007095 0.26024 -0.515116 0.353425 0.037464 -0.08637 -0.265463 0.307983 0.042737 0.385889 -0.164295 -0.376418 -0.274979 0.270439 -0.400297 0.139467 0.127991 0.405119 0.051835 0.399909 -0.112028 -0.736286 -0.088481 -0.285255 0.290251 0.162938 0.328482 -0.353007 0.047193 -0.143035 0.002688 -0.299863 0.227464 -0.366367 0.13485 0.075834 0.374209 0.415709 -0.044721 0.134705 0.361214 0.071073 0.027306 0.17647 0.57096 0.193934 -0.036352 -0.223478 0.69689 0.188377 0.315895 0.070422 0.168068 -0.424124 0.077944 0.052459 -0.353257 -0.244745 0.57405 -0.646691 -0.585922 0.333325 0.676255 -0.142643 0.522092 -0.334032 0.472648 -0.521224 0.196674 -0.105159 0.217712 -0.042318 -0.153945 -0.137961 0.127287 -0.215762 0.057777 0.065268 -0.440706 0.24973 -0.144128 0.342939 0.037587 -0.052742 0.129853 -0.039912 -0.269015 0.100943 0.301802 -0.086575 -0.585784 -0.08622 0.052542 -0.503325 0.066815 -0.575674 0.271054 0.711628 -0.287324 -0.288038 -0.342296 -0.414368 -0.411128 -0.200293 0.021308 0.157817 0.70248 -0.2755 -0.776493 0.015345 -0.311875 -0.039953 -0.248981 -0.056091 0.251801 0.298535 -0.046693 0.256423 -0.079478 0.131957 -0.214983 -0.001606 0.261103 -0.074126 -0.310805 -0.081318 0.011746 -0.091909 -0.211797 -0.246419 -0.268306 -0.273426 0.052611 0.234385 0.163564 0.162311 -0.009917 0.092949 -0.251596 -0.194432 0.090642 -0.183484 -0.04509 -0.220862 0.498326 0.057835 -0.033253 -0.053926 0.116434 -0.217937 -0.348819 -0.388464 0.080333 0.534749 0.576094 -0.070726 0.140857 -0.011779 0.245818 0.307621 0.338231 0.239916 -0.623595 0.362179 0.26024 0.043345 0.11219 0.544718 -0.344037 -1.49E-4
gin 0.05497 0.137246 -0.193999 0.067105 -0.018528 0.22285 0.069994 0.318617 0.055327 0.123807 -0.432847 0.185186 -0.119774 0.139494 0.160214 0.066636 -0.020096 -0.205911 0.069496 -0.541905 0.076404 0.04102 -0.154657 0.125712 0.26274 0.009798 -0.251243 0.007357 0.006841 0.117695 0.085854 0.102228 -0.17494 0.120449 -0.234634 -0.052015 -0.086511 0.014366 0.118801 -0.084655 -0.251664 -0.175415 -0.288146 0.225918 0.061098 0.182907 -0.223053 0.379963 0.001776 0.185474 -0.081868 -0.327907 0.222298 -0.134125 0.105694 -0.261739 0.256742 -0.400512 -0.130993 -0.110951 0.160823 -0.058722 -0.097898 0.010941 0.063558 -0.179958 0.043382 0.159098 0.046928 -0.079524 0.032299 0.170095 0.260627 0.045377 0.496391 0.073924 0.052111 0.193279 0.247845 0.207851 0.153661 0.064492 -0.059782 -0.172211 0.076578 0.094437 0.022207 0.135818 0.479767 -0.461241 -0.277405 0.168793 0.358732 0.129893 0.154943 -0.363592 0.13109 -0.528435 0.092718 -0.112198 0.312475 0.060883 -0.530224 0.039657 -0.035388 -0.060299 -0.105551 -0.056895 -0.45651 0.293426 -0.409116 0.44081 -0.48773 0.065276 -0.064518 0.06222 -0.017747 0.00844 0.218813 0.036388 -0.181952 -0.018089 0.098628 -0.297634 0.142744 -0.0387 0.183112 0.195076 -0.290356 -0.104052 0.079178 -0.448335 -0.322226 0.106494 0.179591 0.377251 0.166391 -0.145501 -0.352267 0.122895 0.049287 -0.296324 -0.237703 0.144113 -0.025068 0.119249 -0.081534 -0.151956 -0.105439 0.121756 -0.301151 -0.061905 0.222748 -0.284763 0.101548 -0.228051 0.420628 0.135325 -0.48962 -0.151637 0.101918 -0.336177 -0.331706 0.105148 0.60433 0.131334 0.187975 0.149033 -0.09068 0.004987 -0.18354 -0.128641 0.184981 -0.052366 0.308163 0.164135 -0.026801 -0.075651 0.064828 -0.128438 -0.112275 0.341594 -0.328272 0.382787 0.505062 -0.026111 -0.00581 0.133004 0.233679 -0.005635 0.210456 0.090686 -0.072203 0.418555 -0.262478 0.108116 -0.106281 0.423412 -0.083976 -0.090821
reservation -0.16837 0.146949 -0.180741 -0.250443 0.125881 0.027804 0.084197 0.196302 0.139399 -0.137853 0.116872 -0.022752 0.287843 0.011229 0.169393 0.252319 -0.027343 0.14117 0.113276 0.019762 0.029795 0.007898 0.084658 -0.400188 0.03885 0.139379 0.053506 0.165093 0.237195 0.246424 -0.06648 0.077384 0.191028 -0.101973 0.289122 -0.134565 -0.126453 0.023444 0.135113 0.118768 -0.15916 -0.03484 -0.025818 0.310438 -0.052204 -0.092343 0.148569 0.254697 -0.094086 -0.084808 -0.122732 0.140787 0.203523 -0.056001 -0.111144 5.8E-5 0.18449 -0.032119 -0.028959 0.1049 0.04615 0.07134 -0.070805 -0.186387 -0.293315 0.06891 0.250877 0.010878 -0.111004 0.063931 0.069602 0.392288 0.189121 0.133479 0.139466 -0.183859 0.23116 0.095729 -0.050527 -0.050197 0.016273 -0.046873 0.11474 0.063491 0.239216 0.077678 -0.081444 -0.042766 -0.075656 -0.062662 0.125917 -0.252275 -0.030817 -0.257816 0.275719 0.125905 -0.087584 0.039078 0.160606 -0.394464 -0.187506 0.094428 0.02923 -0.011421 -0.09428 0.038163 -0.101287 -0.173576 -0.129741 0.17568 -0.244044 -0.47031 -0.07453 0.12024 -0.272542 -0.154809 -0.04213 0.148638 -0.060066 0.104179 -0.020089 0.134385 0.077248 0.278075 -0.176142 -0.007785 0.221362 -0.025644 0.081556 0.072033 -0.085274 -0.050038 0.281218 0.171255 -0.298822 -0.033086 0.173858 0.133009 0.1229 -0.069213 0.132794 0.226909 -0.056841 -0.283395 0.256519 0.249742 -0.04553 -0.393879 -0.306723 0.038 -0.154877 -0.266261 -0.061489 -0.29427 0.048836 -0.011047 0.443531 -0.101885 0.081989 -0.043832 0.016696 -0.008816 -0.242596 -0.041241 0.25852 -0.075609 0.208897 0.125951 0.145217 0.169225 -0.152833 0.042838 0.257413 0.08004 -0.030072 0.074702 0.057783 -0.102598 0.318361 0.00946 -0.19509 0.158905 -0.035099 0.136857 -0.082609 0.239026 -0.209313 -0.02462 -0.051759 -0.078892 0.091249 -0.054263 -0.125964 0.100167 0.101494 -0.213524 -0.03858 0.147223 0.003684 -0.12536
wealth 0.121155 0.104324 0.116867 0.001549 0.146226 -0.082383 0.074151 0.089675 -0.063361 0.222504 -0.066937 0.188294 0.016479 -0.22643 -0.118234 -0.026487 -0.457096 -0.372802 0.154873 0.03114 0.109028 0.04654 0.107462 0.138501 -0.049459 0.017876 0.041715 0.244954 -0.195932 0.091228 0.281222 0.004367 0.305619 0.024277 0.177654 -0.154952 0.076215 0.178783 0.372754 0.117624 -0.142863 -0.083189 -0.224227 0.051789 0.163165 -0.13825 -0.080106 0.186297 0.337843 0.089436 0.194956 0.116606 -0.01006 0.247236 0.079035 0.181364 0.073188 0.128363 -0.009892 0.011089 -0.043895 0.08906 -0.12126 0.210773 -0.028002 -0.120484 0.075259 0.114599 -0.022736 0.197827 0.26671 -0.246356 -0.161256 0.099066 -0.048599 0.026449 0.033811 0.043814 0.087045 0.108546 0.029429 0.117103 0.090697 -0.11957 -0.129924 -0.203279 0.070391 0.028362 -0.172149 -0.136093 0.27266 -0.051147 0.101037 0.091061 0.037143 0.103227 -0.109527 0.177776 0.021994 0.094878 0.107669 -0.115633 0.100776 0.123181 -0.056522 0.090039 0.174558 0.003822 0.110988 0.270027 -0.30993 0.182786 -0.454889 0.078288 0.023745 0.178028 -0.029174 -0.288999 -0.087472 -0.187351 0.074286 0.058507 0.048869 -0.204962 0.197664 0.378787 0.19436 -0.108893 0.228915 -0.321546 -0.37163 0.050268 -0.189716 -0.013421 0.135756 -0.282788 0.274825 -0.038772 -0.02669 0.110019 -0.192534 0.062538 0.130091 -0.097689 -0.254351 -0.022743 0.053973 -0.186267 -0.078452 0.276524 0.07335 -0.292885 0.035026 0.094936 -0.172293 -0.060513 0.077421 -0.018098 -0.197792 -0.226879 0.190024 0.054749 -0.09808 0.226011 0.19789 0.027285 -0.066257 -0.039453 0.359242 -0.10843 0.171364 -0.091606 0.241618 0.167943 0.026297 -0.025794 -0.243712 -0.226678 -0.224105 0.158624 0.015292 -0.183774 -0.631779 -0.049879 0.051249 -0.171874 -0.051543 0.151511 0.097096 0.136724 -0.156821 0.207488 0.054242 -0.190734 -0.142565 -0.132767 -0.098874 0.152308 -0.003057 -0.326382
eat 0.042632 0.134212 -0.112342 0.332362 0.036853 0.32954 0.029275 0.220613 -0.142481 0.358386 -0.436834 0.218151 0.096609 -0.080101 -0.066316 0.550701 0.089765 0.024447 0.306207 -0.533584 0.241706 -0.319781 -0.234953 0.080809 0.235015 0.057456 -0.083232 -0.114718 -0.010763 -0.02757 -0.186185 0.303103 -0.272225 0.282575 -0.358541 0.334717 -0.02818 0.056084 0.363545 0.17973 -0.339388 0.013046 -0.138901 0.205748 -0.160857 0.292801 -0.069257 0.026194 0.087646 0.224812 -0.207956 -0.083805 0.194255 -0.121886 -0.055159 -0.026395 0.133622 -0.480521 0.016547 -0.008086 0.045527 0.0574 0.107418 -0.027605 0.057183 0.196887 0.273066 0.377429 -0.271007 0.126183 -0.023409 0.105841 -0.008117 -0.163216 0.311856 0.304228 0.130271 0.075286 0.195613 0.013423 -0.018067 0.011901 -0.017447 -0.159267 0.114875 -0.070439 -0.257319 0.21914 0.331379 -0.162567 -0.138885 0.183888 0.042911 -0.042034 0.419233 -0.327494 0.286804 -0.153437 -0.056912 -0.079029 0.106055 -0.172618 -0.351431 -0.047788 0.00866 -0.189575 0.261468 -0.015451 -0.003601 0.287845 -0.135357 -0.011623 -0.130314 -0.118018 0.138324 -0.020368 -0.172271 0.111196 0.013927 -0.058508 -0.208821 -0.16001 0.271736 -0.159528 0.152747 -0.172588 0.156 0.303021 0.196448 0.1378 -0.179944 0.066332 -0.163178 0.141976 -0.129711 -0.005408 0.172965 0.05056 -0.183052 -0.22672 -0.011531 0.043214 -0.100158 -0.113178 -0.038398 0.183906 0.00768 0.076164 0.151667 0.009724 0.100846 0.022241 -0.091464 0.142698 -0.128642 0.08868 0.274517 -0.247063 0.202647 -0.186317 -0.285458 -0.134002 -0.217019 0.010325 0.307016 0.173291 -0.243312 0.044858 -0.238158 -0.134968 -0.191383 0.064971 0.217656 -0.372884 0.345412 -0.07161 0.013667 -0.246578 0.252855 -0.095081 0.051934 -0.142283 -0.101135 0.354943 0.235449 0.079712 -0.004852 0.147513 0.213186 0.11052 -0.068057 0.180179 -0.522495 0.031805 -0.194862 -0.189571 0.01995 -0.174137 0.259242 -0.154297
soap 0.116409 0.321695 -0.228391 0.17683 0.124929 -0.031829 -0.066885 0.298205 -0.026215 0.292261 -0.778851 0.285205 0.052587 0.116262 -0.043405 0.235324 0.23645 0.083886 0.069852 -0.393369 -0.066887 0.012166 -0.123163 -0.193464 -0.168541 0.079894 0.0371 0.021478 0.369701 0.166162 -0.008061 0.009501 -0.038232 0.359328 -0.463612 -0.121636 0.218961 0.161465 0.008637 0.301812 0.069602 -0.020652 -0.042042 -0.11783 0.071003 -0.225936 -0.197402 0.093249 0.248064 0.143264 0.176221 -0.199265 -0.010897 -0.180131 0.127261 0.095706 0.476985 -0.400426 -0.080417 -0.40516 0.137909 -0.042213 -0.134978 -0.026799 0.367296 -0.078571 0.09124 0.094125 -0.02012 -0.029899 0.499095 -0.006376 0.089223 0.113135 -0.078203 0.236436 -0.10973 0.048634 0.070391 0.087672 0.147419 -0.045056 0.358189 -0.28543 0.216892 -0.026598 0.258109 0.045327 -0.270173 -0.250685 -0.259904 0.077972 0.125167 0.234347 0.02177 -0.120604 -4.7E-5 -0.139699 -0.02368 -0.132689 -0.002932 0.094761 -0.426657 0.03144 -0.114765 0.031749 -0.110093 0.276163 -0.409859 -0.052739 0.184826 0.170922 -0.119332 -0.204932 0.117246 -0.097985 0.122226 -0.023194 0.04813 -0.19137 -0.129845 -0.359448 0.080834 -0.05558 0.104838 -0.224795 0.066639 0.073126 -0.09859 -0.346951 0.39585 -0.081926 0.037382 -0.156827 0.279847 -0.006147 -0.127569 0.011954 -0.209798 -0.164524 -0.356778 -0.243016 -0.043725 -0.063881 0.247354 -0.260888 0.142974 -0.222782 -0.112002 -0.300401 0.127601 -0.127533 0.534121 -0.014833 0.128103 -0.212743 0.096631 0.191457 -0.063289 -0.120718 -0.094695 0.124228 0.21447 -0.093526 0.300875 -0.021208 -0.315522 0.258472 -0.342274 -0.04182 -0.096285 0.182731 -0.161812 -0.294563 -0.051883 -0.019085 0.258172 -0.347478 0.091537 0.097938 0.333384 0.05902 -0.057832 -0.013301 -0.00837 -0.146303 -0.053188 0.159926 0.013975 0.006228 -0.105855 -0.031606 -0.222008 0.088357 -0.200069 -0.030772 -0.249578 0.095283 -0.215285 -0.215807
discovery 0.129112 -0.076832 0.257219 0.027028 0.003781 0.079032 -0.227702 0.299336 -0.105313 -0.271282 -0.056937 -0.079311 -0.050893 -0.075731 -0.056638 0.207862 -0.152576 0.309147 -0.326058 -0.003089 0.129121 -0.047496 -0.074609 -0.178992 0.118795 -0.046129 0.073643 -0.142227 -0.040976 -0.177138 -0.047667 0.04109 0.286585 -0.119832 0.052234 -0.246663 0.153697 0.047024 0.225865 0.109603 0.168247 -0.200927 -3.98E-4 -0.140076 -0.088258 -0.007115 0.115631 0.243511 -0.044194 0.058478 -0.066545 -0.116336 0.203326 0.462012 0.180564 0.191699 -0.114068 -0.08738 0.107322 0.065237 -0.032621 0.188443 0.097284 -0.175759 -0.169428 -0.027094 -0.418649 0.136175 0.140269 -0.143972 0.037185 -0.164672 -0.037752 -0.070374 -0.089599 0.167673 -0.107876 -0.195551 0.138773 -0.312667 -0.026346 -0.267224 0.126512 0.004869 0.137068 -0.163532 -0.146817 -0.231992 -0.062482 0.336542 -0.046206 0.134977 -0.283602 -0.144467 0.166882 0.086377 0.124226 0.137872 -0.253778 -0.099771 -0.053408 0.137048 -0.090902 0.334325 -0.396511 0.086333 -0.172898 -0.213112 -0.009807 0.104272 -0.108532 0.035955 -0.031728 0.04684 -0.392573 0.113197 0.287538 -0.036288 0.018974 0.014788 0.028973 0.197223 0.293021 0.281456 0.113906 0.109617 0.210442 -0.22436 -0.054231 -0.251425 -0.193238 -0.153741 -0.112173 -0.049483 0.070702 0.282756 0.007338 0.133833 -0.241339 0.021373 -0.030189 -0.116731 0.124364 -0.23526 -0.035438 0.143475 -0.094365 0.177788 0.347583 -0.219046 -0.193617 -0.135488 0.224232 -0.105375 -0.117305 -0.023009 0.145942 0.032555 -0.035463 0.11669 -0.031953 -0.186952 0.171687 0.154801 0.02715 0.07233 -0.124438 -0.131284 -0.058417 0.034176 -0.016518 0.23869 -0.12304 0.265947 -0.02238 -0.167563 0.083331 -0.074314 0.137907 0.034898 -0.279223 0.233477 -0.301462 0.144509 0.251534 -0.018822 0.097927 0.058299 0.111578 0.119313 0.14604 -0.073888 0.118576 -0.261108 0.076152 -0.087183 -0.341525 0.0156 -0.263134 -0.141455
Jerusalem 0.007595 0.140057 -0.229305 -0.049144 0.067221 -0.006335 -0.090543 0.191786 0.09819 -0.196096 0.070055 0.096453 -0.05125 -0.23309 -0.078504 0.058599 -0.549242 0.142533 -0.188795 -0.477164 -0.445309 0.48161 -0.186677 0.039112 0.040597 0.32711 0.224851 -0.008395 -0.126333 -0.216607 0.260881 -0.54969 0.311304 0.170413 -0.825114 -0.026881 -0.081762 -0.11708 -0.18091 0.085892 -0.28251 -0.322163 -0.664385 -0.143331 -0.352809 -0.014361 -0.042498 0.287516 -0.332079 -0.439306 0.184943 -0.23589 -0.298363 0.0832 0.031408 -0.309221 0.062356 -0.086786 0.164053 -0.326888 -0.113795 -0.069947 0.136758 -0.481745 0.500995 -0.173454 -0.030954 -0.005375 0.226354 0.465326 -0.449912 -0.813015 -0.511213 0.258287 0.236484 0.10574 -0.106053 -0.521824 -0.32178 0.006708 -0.318808 -0.016761 0.049565 0.02049 0.145937 0.059887 -0.623514 0.007569 0.177648 0.166672 0.581812 -0.229857 0.004906 0.071484 -0.197428 0.055061 0.264223 -0.213491 -0.086281 0.192775 -0.373272 0.342153 0.330431 0.448258 -0.16013 0.452154 0.171074 -0.380421 0.197496 0.168714 -0.487904 -0.066335 -0.803634 0.37222 -0.350193 -0.033272 -0.443511 -0.139309 -0.16425 -0.093021 -0.171886 0.362037 -0.112113 0.001632 -0.296962 -0.141271 0.470087 0.372263 0.207256 0.28991 0.167322 -0.001564 -0.060009 0.369656 0.344118 -0.327602 -0.190483 0.202359 -0.046979 0.438402 -0.275994 -0.082872 0.021657 -0.312876 0.209307 -0.121768 0.068754 0.003008 -0.2408 0.276181 0.421881 -0.005632 0.403491 -0.23587 0.073514 -0.248774 0.17424 -0.39764 0.231567 -0.04355 -0.116352 0.29151 0.206975 -0.180826 -0.656697 0.214464 0.138642 0.109657 -0.264099 0.462057 -0.322794 -0.058968 0.482146 0.072968 -0.402213 -0.119386 -0.016712 0.115971 0.05055 -0.454373 0.47098 0.221828 0.44596 0.168067 0.089498 -0.023879 0.230848 -0.172677 0.206346 0.140269 0.184819 -0.114845 0.354495 -0.192385 0.130919 -0.130426 0.186575 -0.466902 0.217237 -0.121104
hospital -0.02576 0.262945 0.155059 -0.01898 0.235965 0.172427 -0.183859 0.053813 0.213565 0.030557 -0.251557 0.225937 -0.113563 -0.026429 0.132574 -0.212048 -0.009922 0.241276 0.215955 0.220586 0.122711 -0.246988 -0.049938 -0.316946 0.257392 0.218207 0.091638 0.496528 0.529643 -0.053837 -0.439284 -0.020477 0.159365 0.337563 -0.077906 -0.245526 0.106769 -0.00347 -0.276675 0.286847 0.118212 0.31864 -0.028966 0.042895 0.011701 -0.1373 0.284094 -0.081887 -0.344903 -0.116087 0.471469 0.020396 0.116566 0.388143 -0.105994 -0.27807 -0.151995 -0.353408 0.082644 -0.122145 0.222328 -0.037435 -0.26493 0.15742 -0.163513 -0.044884 0.07511 0.02829 0.080927 -0.371234 -0.029083 0.055603 0.102839 -0.00992 0.115723 0.192899 -0.273435 0.020512 1.46E-4 0.073727 -0.2018 -0.23605 -0.048902 -0.259897 -0.054662 -0.023708 -0.295548 0.149769 0.400624 -0.15307 -0.152546 -0.085455 0.063671 -0.258382 -0.096215 -0.006939 0.167692 -0.031215 0.195265 -0.13839 -0.381902 0.112361 -0.152285 -0.068546 -0.112637 0.15061 -0.067938 -0.150971 -0.050396 -0.322345 0.113898 0.034549 -0.127967 0.024028 0.162964 0.214867 -0.056279 0.354929 0.104558 -0.051967 0.232751 0.154106 0.098322 0.157212 0.305549 0.189688 0.234984 0.017696 0.102932 -0.00839 0.10994 0.115256 0.004448 -0.150902 -0.221102 -0.226078 0.095866 -0.362713 0.383507 -0.052664 -0.315233 -0.282467 -0.174076 -0.144128 -0.10873 -0.360049 -0.059709 -0.406901 -0.351924 -0.134595 0.370197 -0.016509 -0.074464 0.034205 0.01595 0.28628 0.007435 -0.110597 0.132218 0.109294 -0.13128 -0.050416 -0.27083 0.297281 -0.199926 0.174537 0.139581 0.292506 -0.318853 -0.301059 -0.137459 0.010364 -0.410751 0.440645 -0.043929 -0.140505 0.112063 -0.071748 0.346545 0.015708 0.130844 0.234244 -0.112356 0.049507 0.051194 -0.123437 0.021258 -0.140555 -0.11279 0.154417 -0.080031 0.069766 0.057408 -0.160063 0.055015 0.14073 -0.138053 -0.203993 0.213322 0.114869
computer -0.150936 0.029498 -0.352723 0.027337 0.131531 0.170344 -0.274625 0.139806 -0.223476 -0.21516 -0.16952 0.146478 -0.010137 -0.259577 -0.098078 0.160788 -0.075402 0.227632 -0.202239 -0.086299 -0.074082 -0.106289 0.123383 -0.01643 0.027813 0.15488 0.075552 0.150073 0.020553 0.460335 0.211526 0.027989 -0.121234 -0.231524 0.475207 -0.148112 -0.150273 -0.017313 -0.056234 0.383423 -0.172002 -0.01966 -0.212895 -0.142377 -0.021105 -0.020128 0.103715 0.106493 -0.051928 -0.033714 0.085244 0.113546 0.170807 0.39066 0.190859 0.079952 0.329324 -0.083693 0.052361 -0.170486 -0.181034 -0.289037 -0.10734 0.221242 -0.088072 -0.154631 -0.058219 0.247286 -0.114153 0.331827 0.318087 -0.237463 -0.078724 -0.043685 -0.233164 0.021876 -0.085706 0.26025 0.002164 -0.305701 -0.100457 0.01779 0.033813 -0.116795 -0.022709 -0.109934 -0.108989 0.095207 -0.156333 -0.314297 -0.272224 0.088901 0.154365 -0.042723 -0.069861 0.335828 0.176262 -0.115989 -0.086495 -0.301836 0.165564 0.119804 0.001165 0.165888 -0.154103 -0.07765 0.211115 -0.082418 -0.273874 -0.112157 0.152966 -0.237829 0.035431 0.399095 -0.14721 -0.107366 0.027861 -0.012534 -0.087664 -0.029281 0.036888 0.030279 -0.27011 0.258233 -0.053633 0.313757 -0.105128 0.011452 0.024689 -0.030017 0.15407 -0.190307 -0.07392 0.409801 -0.328048 0.174159 -0.226075 0.078097 -0.202096 -0.01501 -0.155181 0.088661 0.403197 0.168993 -0.297635 -0.048104 -0.162494 -0.170151 0.040817 -0.234457 -0.116506 -0.076975 -0.055634 0.054005 -0.0624 0.105546 0.330072 0.020354 0.305599 0.056328 -0.004176 -0.042241 -0.225872 0.022238 0.283502 -0.077917 -0.159298 -0.260298 -0.074239 0.193467 0.015475 0.012569 -0.169666 0.234609 0.058811 -0.140169 0.264696 -0.111001 -7.65E-4 0.147197 -0.128735 0.015277 0.133108 -0.101717 0.168026 -0.123214 -0.244586 0.136543 -0.076247 -0.031306 0.125731 0.079723 0.100499 -0.046456 0.015337 -0.228824 0.085363 -0.16766 0.079603 -0.0648
queen 0.375511 0.014322 -0.23108 -0.109313 -0.034413 -0.366947 0.040475 0.202679 0.051581 -0.28665 -0.097413 -0.120057 -0.109958 0.05172 -0.239616 -0.013491 -0.028738 -0.17597 0.387209 0.142688 0.017408 -0.164159 -0.046348 0.140043 -0.276884 0.133162 0.134364 0.105936 -0.214788 0.424514 0.226264 0.019753 0.119155 0.112917 -0.450873 -0.014941 0.081532 -0.225487 -0.027426 0.136189 -0.190229 -0.131706 -0.150686 -0.204812 0.473257 0.137522 -0.070475 0.238301 0.144609 0.108902 -0.034246 -0.060065 0.051282 0.2195 0.185743 -0.105924 0.294523 -0.153092 0.144445 -0.163104 0.091401 0.381306 -0.076237 -0.174986 -0.182823 0.182212 -0.034988 -0.237344 0.349769 -0.093066 0.220576 0.067524 -0.273086 0.006421 -0.021356 -0.094386 -0.076429 -0.057839 -0.07712 0.126033 -0.250921 -0.276817 -0.062983 -0.301437 0.148122 -0.231142 0.161319 -0.007454 0.160776 -0.015258 -0.031721 0.143158 0.10481 0.0233 -0.15288 -0.247665 0.110002 -0.123684 -0.106719 0.082858 -0.164334 3.99E-4 -0.189174 0.441325 0.387132 0.177547 0.115186 0.113464 -0.209158 9.31E-4 -0.063469 0.198237 -0.151236 -0.038566 -0.057878 0.363604 0.020299 0.09247 0.081148 0.093671 -0.159938 0.225818 0.218221 -0.034531 0.016243 -0.021729 0.329711 0.155303 -0.031231 -0.208929 0.109584 -0.158696 0.002892 -0.090792 0.345468 -0.00228 0.068887 -0.053082 -0.138985 0.208232 -0.047953 0.235818 -0.123532 0.021038 -0.163439 -0.093412 0.16559 -0.227482 0.028258 -0.396879 -0.005798 -0.225335 0.153574 -0.171449 -0.287021 0.119405 0.140048 0.041961 0.315232 0.242861 0.099699 0.072091 0.474374 0.028329 0.026087 0.168604 -0.091717 0.213113 -0.021164 0.232103 -0.451512 0.042056 0.022988 -0.413203 0.077805 0.037473 0.053523 -0.175969 0.373375 0.146391 0.150107 0.135154 -0.141846 -0.220256 -0.092194 -0.062245 0.341078 0.174507 0.050528 -0.159173 -0.179277 -0.080515 -0.353068 0.073892 -0.201192 -0.030096 -0.208788 -0.074571 -0.197208 -0.374657
wizard 0.289473 0.145833 -0.260057 0.211763 -0.407979 -0.086867 -0.038921 0.252878 0.007379 -0.014178 -0.053788 0.298795 0.062581 0.044574 -0.089119 0.047938 -0.391994 -0.003333 0.117236 -0.2194 0.051976 0.114444 0.338303 -0.284655 0.040571 -0.147621 -0.464017 -0.253103 0.025207 0.084338 0.012422 -0.109593 -0.160412 0.064482 -0.283466 -0.122675 0.109362 0.097092 -0.157634 0.244472 -0.039007 0.064549 0.0187 -0.285739 0.439695 -0.222264 0.023326 0.207465 0.007087 0.096736 0.156948 0.172072 -0.18433 0.063143 0.353641 0.091767 -0.047061 -0.113011 -0.461113 -0.031945 -0.13724 0.130266 -0.082719 0.163728 -0.179552 0.032339 -0.456544 0.058108 0.115958 0.145746 0.394939 -0.082309 -0.353632 0.262828 0.07651 0.032355 -0.036734 0.271737 -0.027737 0.195556 -0.181106 -0.133081 0.028061 -0.276466 0.318732 -0.113466 0.118821 -0.218256 0.101663 -0.068613 -0.165639 -0.052651 0.208834 0.159475 -0.211074 -0.129337 0.004332 -0.080009 -0.110207 0.11178 -0.135935 -0.14838 0.139878 0.275545 -0.121135 0.054758 -0.016927 -0.088996 -0.222421 -0.357108 0.120593 -0.111113 0.043684 0.169775 -0.034116 -0.029796 -0.0937 -0.161234 -0.06632 -0.172987 0.401173 -0.041484 -0.185524 -0.080868 0.054011 -0.184122 0.056966 -0.085845 -0.355555 -0.250954 0.212886 0.045946 0.066181 0.135457 0.218817 -0.254143 -0.086976 0.105939 -0.192326 0.2725 0.119974 0.264912 0.365518 0.075592 -0.278666 -0.242497 0.083513 -0.024418 0.006727 -0.188749 -0.295025 0.124105 -0.074207 -0.181036 -0.122397 -0.105608 0.252922 -0.299799 0.024691 -0.130935 -0.491048 -0.066677 0.278485 0.308015 0.447086 0.487238 -0.337617 0.106979 -0.12049 -4.19E-4 -0.189985 -0.013178 -0.167861 0.253678 -0.071395 -0.357787 0.138692 -0.276 0.092068 -0.025221 -0.192266 0.106719 0.024168 0.049144 -0.154906 -0.294622 -0.151925 0.017088 -0.045808 -0.026626 -0.00337 0.475347 -0.063539 0.398497 -0.15013 -0.149663 -0.117941 -0.225769 0.010035 -0.267758
oil -0.102059 -0.169931 0.005073 -0.008098 0.597791 0.103504 -0.13164 0.146238 -0.076908 0.164841 0.081203 0.063859 -0.107217 -0.197386 -0.255269 -0.050245 -0.167935 -0.034918 -0.122157 0.32074 -0.196882 0.258184 0.124113 0.008341 -0.269559 -0.186002 0.180923 -0.026529 0.042953 -0.128335 0.205815 0.360858 0.074595 -0.266003 -0.143705 -0.146059 0.101099 0.029631 0.074379 0.168138 -0.091665 0.243888 -0.303086 0.061398 -0.037697 0.285893 -0.070706 0.513012 0.184992 0.066723 0.522984 -0.288357 -0.01851 -0.025896 -0.117706 0.052745 -0.270353 -0.024389 -0.088495 -0.381836 -0.35666 0.174758 0.237254 -0.3201 0.09651 -0.101181 0.172899 0.212352 -0.134936 0.169648 0.084445 -0.0769 0.082488 0.043983 0.291081 0.468091 -0.313659 -0.24606 -0.007465 0.142286 -0.247933 -0.009403 0.168909 -0.219019 -0.286737 0.084843 0.176617 -0.059026 -0.185089 0.257249 0.177903 0.341463 0.177524 -0.462616 0.531466 0.184915 -0.153952 -0.007056 0.262669 0.251474 0.212486 0.006009 0.109257 -0.081567 0.03966 0.103781 -0.223639 1.93E-4 0.042704 0.02467 -0.237227 -0.018855 -0.021886 -0.33898 0.160534 0.405196 0.267754 -0.227571 0.167494 -0.239274 -0.019767 0.114802 -0.344485 -0.34973 0.269359 -0.092865 0.270416 -0.010189 0.270957 -0.271012 -0.545112 -0.290367 0.10168 -0.10924 -0.356284 -0.123947 0.132109 -0.003546 -0.234651 -0.023857 -0.251914 -0.127444 -0.293993 0.072035 0.07688 -0.094469 -0.564015 0.273473 0.180543 -0.147931 -0.287647 -0.378737 0.464244 -0.040718 -0.026976 -0.162314 0.270933 -0.131516 -0.319765 -0.201661 0.162545 -0.133703 -0.244849 0.350884 0.055361 -0.057633 -0.09732 -0.063304 0.161908 0.281673 0.077055 -0.158738 -0.148565 0.184868 -0.330492 0.234527 0.069524 0.013872 -0.111124 0.12751 0.169195 -0.092037 -0.374466 -0.006831 0.160536 -0.131577 0.189709 0.489935 0.044729 0.305846 0.30389 -0.161717 -0.243802 -0.091322 0.053183 -0.010361 -0.371266 0.187353 0.007049 -0.372768
currency -0.038447 0.379037 -0.126679 -0.231303 0.308547 0.016038 0.327007 0.025302 -0.158147 -0.021543 0.004211 0.438823 0.206041 -0.186324 -0.035449 -0.234574 -0.150236 -0.119552 0.020147 0.134582 0.204783 -0.066314 0.406756 0.117278 -0.321332 0.002526 0.476855 0.329661 0.097061 0.155947 0.331013 0.130797 -0.049831 -0.031749 0.220186 0.024 0.09296 -0.018003 0.505839 0.290391 -0.00975 -0.350148 0.04584 0.290594 -0.021343 0.00321 -0.003809 0.379165 -0.424808 0.179796 0.30237 0.360032 -0.11838 -0.15007 -0.3595 0.052241 -0.078677 -0.163527 -0.547728 -0.115821 0.169691 -0.014399 0.252286 -0.331385 0.013821 -0.294553 -0.345899 -0.228603 -0.251657 -0.307378 0.228213 -0.044712 -0.144509 0.055648 0.395336 0.483585 -0.058304 0.093866 0.254961 -0.137965 -0.122353 0.140795 0.009058 -0.290832 0.014459 -0.254158 0.157187 -0.283292 -0.06384 -0.094047 -0.186651 0.156017 -0.205082 -0.081384 0.20965 0.458101 -0.415284 0.221673 0.218583 0.12807 0.162395 -0.173657 0.22467 -0.163551 0.271161 0.110345 -0.288169 0.324623 0.169313 0.204078 -0.196961 0.328074 -0.046654 0.261151 -0.164561 0.129786 0.123042 0.0874 0.077599 0.461727 0.22749 0.338679 -0.381784 0.029601 -0.473433 0.06892 0.353101 -0.171548 0.132027 0.08332 -0.133959 0.138602 -0.153213 -0.337265 -0.146261 0.249562 0.472829 7.0E-4 0.086988 -0.046744 -0.232647 0.197609 0.074231 0.099026 -0.089617 -0.032715 -0.295814 -0.251071 -0.045692 0.172789 -0.232905 -0.1582 0.371652 0.155803 0.095187 0.027567 0.01739 -8.58E-4 0.189307 -0.428959 0.032819 0.044796 -0.130386 0.372616 0.013529 -0.056667 -0.129127 0.14729 0.209824 -0.021802 -0.173936 -0.368241 0.263045 -0.233652 -0.116328 -0.217573 -0.266055 -0.300522 -0.194587 0.178468 0.299861 -0.316375 0.160762 0.200207 0.060584 0.218873 0.218112 0.275961 0.036517 -0.080893 0.103539 0.081429 -0.174201 -0.078577 0.062167 -0.325277 0.008369 0.076974 -0.061141 0.180506
laundering -0.479874 0.199159 0.598736 0.287003 0.435158 0.260992 0.262037 0.032586 0.037618 0.292648 0.01852 0.435416 -0.517726 0.113117 -0.416041 0.434959 -0.376138 -0.265336 0.305261 -0.027274 -0.087037 -0.602113 0.588553 -0.242756 0.2224 -0.078213 0.248494 0.455538 0.01941 0.336457 0.228284 0.022621 0.058711 -0.129512 0.657191 -0.08582 0.657968 -0.488558 -0.349534 -0.453755 -0.067425 -0.359855 -0.0013 -0.323528 0.265105 -0.36032 0.063934 0.482677 0.104547 0.079139 0.045872 -0.401618 -0.417697 0.437553 -0.308022 -0.013004 0.153033 0.612621 -0.012103 -0.155337 0.467311 -0.667401 0.115841 0.170899 -0.17494 -0.340189 -0.039204 0.605273 0.188558 -0.584232 0.301548 -0.183674 -0.036065 0.20014 -0.332515 -0.557857 0.023169 -0.12806 0.129068 0.202309 0.203581 -0.054554 0.192745 -0.624826 0.526582 -0.561636 -0.379147 0.121929 -0.601357 -0.702834 -0.028868 0.776612 -0.596059 0.406622 0.017263 0.32204 -0.106045 -0.196379 0.110896 0.164143 -0.168339 0.158068 -0.266912 -0.101778 0.197082 -0.534146 -0.582928 -0.301704 -0.311525 0.724756 -0.138891 0.269868 0.183367 0.300908 -0.457354 -0.115196 -0.045275 -0.19135 -0.158737 0.412768 0.048875 -0.064305 0.020768 -0.589915 0.260786 0.168004 0.188794 -0.450939 -0.108884 -0.309578 0.072932 -0.028438 0.405788 0.455001 0.046998 0.407334 0.11185 -0.253623 -0.558545 0.244387 0.495577 0.10325 0.085196 -0.106048 0.242259 0.336919 0.28006 0.273449 -0.641666 -0.009253 -0.180271 0.228543 -0.238779 0.034172 0.177123 0.05582 0.387841 0.629714 -0.290799 -0.787317 0.638181 0.287202 -0.503262 0.326803 -0.097617 -0.232015 -0.122262 -0.608756 -0.056452 -0.01798 0.556009 5.12E-4 0.360495 0.202139 -0.418025 -0.420228 0.193725 0.501144 0.297581 0.579473 0.242147 0.208542 0.203579 0.364385 -0.28891 -0.762062 0.069819 -0.320815 0.281653 -0.030588 -0.239832 -0.114344 0.269901 0.239066 -0.330244 -0.572155 0.288956 -0.247817 -0.061539 -0.00453
midday -0.135188 0.08837 0.141109 0.014485 -0.285792 0.579507 0.477224 -0.363707 0.230253 -0.021307 0.329058 -0.230779 0.233561 0.088106 -0.058933 0.025005 -0.081685 -4.01E-4 -0.048158 0.221325 -0.011598 0.450526 0.265133 -0.087542 -0.257109 0.307243 0.481965 -0.330629 0.087613 0.383149 -0.165085 -0.061703 0.049364 -0.153449 -0.178736 -0.202346 -0.253658 -0.305915 0.239507 0.320311 0.195292 -0.296384 -0.106034 0.35822 0.138349 0.224611 -0.079434 0.151485 -0.130923 0.178848 0.052526 0.156813 0.090839 -0.024699 -0.179361 0.342076 0.108335 -0.023663 -0.044238 -0.446523 -0.142083 0.048682 0.381779 -0.036979 -0.152911 0.312377 0.125289 0.378163 -0.347054 -0.154187 0.004762 -0.019943 0.346748 0.603842 0.264486 0.277079 -0.075187 -0.636037 -0.09733 -0.256937 0.06884 -0.061267 -0.274155 7.25E-4 0.232733 0.088212 -0.508639 -0.469161 0.143987 0.361948 0.056856 0.294205 -0.127344 -0.155442 0.442651 0.098617 0.382675 0.117281 -0.129713 -0.06907 0.214071 0.196635 -0.388201 -0.177477 0.160002 -0.025695 -0.202846 -0.060517 0.136969 -0.307159 -0.242287 0.048875 0.007213 0.361377 -0.030421 0.443247 0.054741 -0.16958 0.157872 0.015742 -0.499536 0.120675 -0.129495 -0.022062 -0.137353 0.189301 0.015308 -0.244788 -0.278449 0.130333 0.180473 -0.008219 0.164405 -0.378315 -0.365651 0.145101 -0.181232 -0.065613 -0.039834 0.160487 -0.221323 0.080723 -0.246159 0.594591 0.214792 -0.075227 -0.569755 -0.407354 -0.466375 0.561804 0.221412 -0.02167 -0.337784 0.28164 -0.078947 0.277526 0.025434 -0.118244 -0.487139 0.372124 -0.344399 -0.028607 0.327364 0.058402 0.159809 0.024357 -0.082826 0.16262 0.174585 0.163023 -0.353137 -0.083387 0.144329 0.120846 -0.254447 0.075337 0.263107 -0.152223 0.181079 -0.263966 0.032568 0.015842 0.088551 0.040843 0.069157 -0.289685 -0.310323 0.201852 -0.196143 0.165029 0.121439 -0.030596 -0.057163 -0.177265 0.299974 0.145468 -0.249081 -0.403214 0.06501 0.166505
Arafat -0.362083 0.396848 -0.247332 -0.182781 0.12177 0.075378 0.141003 -0.00798 0.521063 -0.651642 -0.509719 -0.116218 0.024971 0.227401 -0.722235 -0.063937 -0.499426 0.019072 0.080012 -0.439288 -0.462999 -0.221694 0.070197 0.341254 -0.046911 0.193704 -0.146478 -0.485243 -0.294338 -0.289825 0.119158 -0.249992 0.257186 -0.003207 -0.832371 0.188413 0.026036 -0.167323 0.238219 0.105663 -0.081803 -0.568123 -0.385717 0.165525 -0.001445 0.121787 1.028376 0.320202 0.035585 -0.353251 -0.206044 -0.100703 0.118061 -0.191131 0.278723 -0.022392 0.20382 0.366438 -0.193262 -0.352328 0.337723 0.365552 0.006544 0.054808 -0.024706 -0.176186 -0.231535 0.482831 0.133132 0.378878 -0.082772 -0.85537 -0.187193 0.232428 -0.170442 -0.027356 -0.344397 -0.262469 -0.190317 0.160418 -0.198681 0.057392 0.202774 0.185177 -0.477265 -0.115196 -0.196462 0.319781 0.228307 -0.066858 -0.216574 -0.366991 -0.069003 0.456454 0.169893 0.087849 0.166169 -0.486209 -0.264479 0.644235 -0.600725 0.175434 0.423432 0.135809 -0.059372 0.116188 -0.36596 -0.396466 0.00338 0.151813 -0.244133 -0.001598 -0.70312 0.441217 -0.216398 0.255979 -0.219851 0.252985 -0.006792 -0.126347 9.67E-4 0.087694 0.180373 0.154522 -0.44431 -0.126449 0.12456 -0.359398 0.375074 0.361704 -0.034458 -0.456774 0.281582 -0.218167 0.125188 -0.360916 0.281777 -0.324003 -0.32487 -0.126058 0.532666 -0.009579 -0.063685 -0.314948 0.175138 0.159016 0.040346 -0.130166 0.022339 -0.142407 0.384841 -0.038992 0.395993 -0.058131 0.103339 -0.003133 0.095112 0.072121 0.3684 0.1697 0.113526 -0.572669 0.455462 0.074107 -0.356949 0.275305 0.022501 0.507357 0.177338 0.819971 0.154463 0.160142 0.30723 0.071339 -0.463491 -0.143686 -0.008306 -0.294609 0.502459 -0.325409 0.426045 -0.063576 0.605394 -0.267292 -0.302172 -0.417643 -0.15755 -0.081676 0.243434 0.14776 0.208263 -0.271123 0.335057 -0.590294 0.069235 0.3056 0.209429 -0.379179 0.172362 0.1992
man 0.163579 -0.074382 0.202952 0.35042 0.137214 0.228174 -0.144732 0.305576 0.032742 -0.038686 -0.038775 -0.099539 -0.206505 -0.265493 -0.112056 -0.05835 -0.071521 0.037867 0.332508 -0.025662 0.148638 0.11223 0.080458 -0.13466 -0.195624 -0.027303 -0.16642 0.220357 0.13746 -0.016543 0.049866 -0.073115 0.199237 0.247742 -0.023127 -0.050444 -0.012517 0.15787 -0.098799 -0.107252 0.221215 0.083502 0.096309 -0.230023 0.151954 0.102985 -0.101299 0.18419 -0.08029 0.047682 0.012239 -0.145829 0.129119 0.052192 0.16002 0.150763 -0.080877 -0.203699 0.022724 0.059004 -0.043892 0.229999 -0.171599 -0.082202 -0.389563 0.013509 -0.043249 0.011594 0.094232 -0.202875 -0.019297 -0.095424 -0.113036 0.304022 0.015362 0.184035 -0.096305 0.310473 -0.017355 -0.041691 -0.071708 -0.211015 0.072232 -0.070662 0.216052 0.113679 0.06564 -0.059313 0.16773 -0.010112 -0.166211 -0.053642 -0.216589 0.093734 -0.012474 -0.048452 0.205808 -0.218112 -0.059517 -0.111915 -0.355171 -0.030615 -0.04043 0.317083 0.007559 -0.284089 -0.12404 -0.24915 -0.275955 -0.078754 -0.026337 -0.067248 -0.153381 0.101456 -0.230227 -0.133398 0.017322 0.158788 0.194115 -0.047879 0.272646 0.134058 0.188246 -0.257166 0.233438 0.274511 0.117074 0.00602 0.013128 0.075156 0.198121 -0.055711 -0.019928 -0.05369 -0.060537 0.008024 0.130249 -0.224643 0.114242 0.102783 0.149882 -0.023924 -0.105459 -0.201099 -0.271219 -0.222598 0.179173 -0.231797 -0.178271 -4.35E-4 0.058846 -0.021055 0.040859 -0.16481 -0.025559 -0.109269 0.219931 -0.202222 0.127 0.068609 0.074825 0.012365 -0.039963 0.463519 0.210421 0.15109 0.072811 -0.114368 0.086888 -0.141555 -0.037765 -0.05686 -0.246148 -0.034066 -0.378702 -0.193571 -0.076038 -0.146826 0.168887 -0.135479 0.19699 0.040018 0.069091 -0.040521 0.01638 0.022076 -0.050824 0.105304 -0.182268 -0.023428 -0.007594 0.105035 -0.060491 0.089716 -0.010206 -0.073417 -0.069626 -0.130701 0.077191 0.292134
keyboard -0.199683 0.192507 -0.784349 0.279805 0.136902 -0.004537 -0.436163 0.500334 0.112957 -0.362751 -0.209393 0.143661 0.099709 0.037217 -0.009413 0.150424 -0.027935 0.438879 -0.201008 -0.377364 0.127827 -0.245981 -0.020139 0.068829 -0.048708 0.365507 -0.008546 0.261859 0.06138 0.866363 0.090117 0.369606 -0.209434 0.033005 0.119583 0.055068 -0.298263 -0.063745 -0.231473 0.33777 -0.064884 -0.180482 -0.159489 0.210898 0.057711 -0.052588 -0.158016 0.100012 -0.020188 0.264467 0.028555 0.044913 0.174263 -0.066399 0.269433 0.099502 0.341129 -0.145818 -0.164889 -0.100983 0.014321 0.14805 -0.162412 0.242111 -0.012365 0.082443 0.193434 0.132277 0.173828 0.287839 0.376663 -0.230435 -0.00366 -0.047229 -0.273241 0.227085 -0.169203 0.266691 -0.171617 0.049025 -0.067895 0.183275 -0.295221 -0.001528 -0.226612 0.090071 0.16111 -0.257271 -0.074477 -0.380885 -0.223952 0.141858 0.501612 0.326638 -0.031037 0.123779 0.10247 -0.24563 0.022501 -0.281758 0.036169 0.315926 0.125469 -0.134881 0.274273 0.06285 -0.089427 -0.293658 -0.141407 -0.025235 0.277169 -0.038949 0.071393 0.350533 -0.355961 0.179246 0.154705 0.084859 0.230489 0.004184 0.091373 0.168204 -0.204161 0.286598 -0.358117 -0.013109 0.116007 0.202417 0.182447 0.165255 0.50739 -0.076923 0.020895 0.318007 -0.003693 0.320155 -0.130948 -0.015412 -0.190872 -0.043028 -0.166525 -0.03852 0.337143 0.217405 -0.178717 -0.200347 -0.30072 -0.070828 -0.118277 -0.360679 -0.061413 -0.147827 0.112913 -0.150873 -0.345249 0.09086 0.311856 0.047014 0.490245 0.183855 -0.348084 -0.127525 -0.305926 0.240671 0.523559 0.232163 0.182215 -0.266775 0.232608 0.133375 -0.006919 -0.101182 -0.198581 -0.222939 0.137168 0.014243 0.160272 -0.024496 -0.377776 0.091924 -0.111309 -0.346074 0.02962 -0.017433 -0.038783 -0.055318 -0.35471 -0.184907 0.148745 -0.094372 0.152763 0.032849 0.137438 0.171933 0.070644 -0.334114 -0.123667 -0.157745 0.198412 0.13168
announcement 0.157683 0.165378 -0.11199 -0.046957 -0.046152 -0.029326 0.136724 0.22672 -0.042267 -0.329118 0.100978 -0.02683 0.002986 0.006929 0.196021 -0.114253 0.012386 0.078633 -0.001326 0.111285 0.099718 0.149506 -0.134475 0.014141 0.175077 0.462638 -0.15604 0.053651 0.105473 -0.086996 0.002504 -0.077112 0.151112 0.078211 -0.118067 -0.258682 0.090675 -0.006259 0.077018 0.168661 0.13206 -0.38644 0.119869 0.027351 -0.157958 0.01071 0.153417 0.269078 -0.043686 -0.039764 0.004938 0.185538 0.021427 0.087041 0.059184 -0.038925 -0.132752 0.199071 0.148102 -0.026469 0.198209 0.09869 0.264326 -0.088271 0.101006 -0.201581 -0.186533 0.155952 0.171472 0.083577 -0.246632 -0.074306 -9.14E-4 -0.226485 0.085538 0.0494 -0.118041 -0.331456 0.040279 -0.044823 0.134631 -0.193545 -0.154088 0.262977 0.01887 0.098252 0.044082 -0.0678 -0.043957 0.400052 0.062136 0.243352 -0.030897 0.06987 -0.020574 0.379744 -0.069918 0.246198 0.04505 -0.065355 0.028012 0.132671 -0.119136 0.220626 -0.135885 -0.198837 -8.33E-4 0.117426 -0.061805 -0.182617 0.106926 -0.065673 -0.019658 0.130009 -0.150669 0.254196 -0.022226 -0.127518 -0.143348 0.445894 -0.063848 0.291453 0.094913 0.008126 0.128974 0.040358 0.156555 -0.353722 -0.153181 0.05817 -0.21084 -0.033557 0.137771 -0.151019 -0.030694 -0.035217 -0.156556 -0.108526 -0.197268 -0.076398 -0.009306 -0.117179 0.001151 -0.016332 0.476439 -0.232179 -0.220529 -0.054815 0.286548 -0.167904 0.05374 -0.137127 0.115678 0.016111 0.015673 -0.056827 -0.228457 -0.139161 -0.290014 -0.105885 -0.284845 0.154366 -0.066774 -0.082505 0.027691 -0.221571 -0.44513 -0.031294 0.013638 -0.013033 -0.259194 -0.20128 0.107453 0.096292 0.045865 -0.063205 -0.126085 -0.036547 0.125377 -0.393567 -0.053283 0.044363 -0.118313 -0.231133 0.178236 -0.177858 -0.053156 -0.401134 -0.130236 -0.066015 -0.096606 -0.203323 -0.118565 -0.191343 0.109355 0.069176 -0.10717 0.293742 0.093665 0.11568
racket -0.111755 -0.325918 0.067482 0.033552 -0.106125 0.100619 -0.003916 0.184312 0.038298 0.008118 0.164822 0.127607 -0.265688 0.036565 0.088567 -0.086683 -0.428369 -0.079524 -0.109956 0.012482 0.031758 -0.044867 0.230542 -0.295387 -0.182831 -0.242469 -0.043091 0.317985 0.150905 0.326237 0.14157 0.142725 -0.069645 0.402489 0.074537 0.11418 0.135945 -0.171699 -0.032891 0.08516 0.061544 -0.288221 0.148869 -0.065618 0.133725 0.056326 -0.151573 0.1688 -0.067657 0.287902 0.005834 -0.019229 -0.256234 -0.172544 0.055661 -0.190684 0.275791 0.253926 0.04998 -0.067126 0.139541 -0.125908 -0.238003 0.045738 0.213286 0.456781 0.094994 0.121693 0.07586 -0.06809 0.084687 -0.123731 -0.21947 0.320079 -0.005398 -0.181407 -0.065297 0.090708 -0.147474 -0.026041 0.214576 -0.150184 0.257865 0.041604 0.020409 4.81E-4 0.1315 -0.01042 0.126164 -0.582638 -0.029317 0.093768 0.115486 0.088167 0.024696 -0.157731 0.175221 -0.387885 0.042957 -0.169294 -0.173613 0.163643 -0.27238 0.142748 0.029812 0.027277 -0.280551 -0.20852 -0.174371 -0.308432 -0.001825 -0.215304 0.143092 -0.030809 -0.172302 0.437406 -0.126879 -0.218864 0.169485 -0.023536 -0.098976 0.144836 0.09996 -0.026741 -0.076473 0.081639 0.03583 0.026269 0.092314 -0.03432 0.163336 -0.100794 0.113319 -0.288406 0.147601 0.011574 -0.022919 0.218004 -0.06378 -0.201101 0.354174 0.163358 0.113142 -0.117117 -0.184722 -0.116209 0.097442 -0.35614 -0.283296 -0.026372 -0.158842 0.09195 0.464102 -0.07802 -0.045701 -0.035267 0.259988 0.181615 0.298133 0.064427 -0.36278 -0.0391 -0.222889 0.199699 0.401253 0.229884 -0.159617 -0.143454 0.142412 -0.04837 -0.049728 -0.265374 0.009919 -0.272587 0.509848 -0.218169 0.082207 -0.174032 0.085778 0.153727 0.317109 0.01223 0.231602 -0.192276 -0.132838 -0.276085 -0.050901 0.497356 0.131749 0.012852 -0.052809 -0.040672 0.054255 0.036287 0.101322 0.050501 0.162542 -0.149168 -0.206069 -0.042087
Maradona 0.067611 -0.520184 -0.045878 0.079771 -0.162931 0.268772 -0.29203 0.424461 -0.099888 -0.266813 0.403858 0.168292 -0.124313 0.292309 0.136375 0.292856 0.295097 0.01656 0.316317 -0.135573 0.26552 -0.264807 0.107569 -0.084306 0.032645 0.07947 0.011868 0.388431 -0.241899 -0.132319 0.144085 -0.063254 0.103412 0.150733 -0.317794 -0.149541 -0.073054 0.080493 0.022139 -0.065015 -0.40487 -0.018303 0.082633 -0.019109 0.278136 0.082112 0.459146 -0.29166 0.383842 0.015256 0.023102 -0.381459 -0.118719 0.088368 -0.057969 -0.310393 -0.157863 -0.247795 -0.344057 -0.224289 0.331244 -0.325766 -0.324089 0.051013 0.22219 -0.057522 -0.287452 -0.238066 -0.099831 -0.239914 -0.07695 -0.457403 -0.285592 0.171459 -0.507573 0.315763 -0.063728 0.241292 0.048725 -0.135438 -0.101583 -0.179664 -0.493507 0.28585 0.024846 0.108094 0.078283 -0.224113 -0.188667 -0.127303 -0.223543 0.068085 -0.038018 -0.085361 0.146819 -0.354962 -0.197103 -0.04904 0.298457 0.354001 0.143288 -0.057209 0.095617 0.271447 0.259218 -0.023378 -0.607859 0.126587 0.012086 0.058982 0.132819 -0.537355 0.026422 -0.055026 -0.044996 0.088178 -0.006969 0.089262 -0.091597 0.369133 0.022485 0.092492 0.379656 -0.171806 0.012667 0.199068 0.242696 -0.019658 -0.199271 -0.028794 -0.106583 0.136218 0.255263 -0.029596 0.058609 0.120862 0.242908 -0.07931 0.032924 -0.178219 0.090635 -0.058786 0.335843 -0.090877 -0.047431 -0.238954 0.2423 -0.214002 0.182064 0.082919 -0.091021 -0.063426 0.304483 -0.289891 0.151714 -0.018048 0.392449 -0.311248 -0.271517 0.290895 0.056753 -0.367544 0.237683 0.152757 0.283593 0.077248 -0.289506 0.449338 0.004012 0.049975 -0.215419 -0.299054 -0.135721 -0.633339 -0.29585 0.213456 -0.300685 -0.399364 -0.039811 0.148994 -0.345053 0.118086 0.421799 0.077329 -0.142889 -0.023105 -0.300659 0.06286 0.11187 0.188698 -0.348201 0.033077 0.021265 0.021469 0.121891 0.080492 -0.054298 -0.41352 -0.316086 -0.121975
anxiety 0.249661 -0.100157 -0.326842 0.141038 -0.13061 -0.152126 -0.087754 0.289137 -0.338823 0.01713 -0.263896 0.271248 -0.152785 0.120902 0.368224 -0.035478 0.004156 -0.411209 -0.137952 0.043368 -0.171366 -0.168099 -0.260943 0.046162 -2.45E-4 -0.018402 -0.023625 0.018569 -0.013541 -0.109373 0.097793 -0.063578 0.199187 0.304385 -0.04212 -0.097842 0.307248 0.165789 0.127113 0.09622 0.193482 -0.053243 0.004937 0.085315 -0.089781 0.018289 -0.181606 -0.036107 0.01441 -0.133776 0.340098 0.244048 0.053769 0.07022 -0.007898 -0.227876 0.079016 0.070389 0.18561 -0.31899 0.00921 0.081843 -0.009105 -0.069687 0.069277 0.135373 -0.128299 0.233716 -0.027845 -0.031066 -0.44674 -0.231363 0.323454 -0.00806 0.006177 0.20309 -0.137614 -0.139453 0.120576 -0.103421 0.129324 -0.07922 0.128757 0.050175 -0.063772 -0.058294 0.07288 0.127334 -0.006572 -0.06911 -0.178493 -0.045205 -0.181122 0.001323 0.231041 -0.144772 0.124308 0.023623 0.313974 0.13265 -0.003641 0.192538 0.074605 -0.038996 0.107475 0.130558 0.052612 0.174093 0.295726 -0.05179 -0.251857 0.176116 -0.165629 0.206983 -0.033395 0.094981 0.18496 -0.474302 -0.196862 0.220264 -0.05162 -0.078781 0.035374 -0.028284 0.002111 -0.141524 0.120022 -0.15861 0.151343 0.090168 -0.196364 -0.251936 -0.252645 0.564165 0.167501 -0.014943 -0.308464 -0.207536 -0.052394 0.375342 0.100152 -0.056134 0.344046 -0.018653 -0.28715 0.078987 -0.002349 -0.242355 0.010646 0.105249 -0.226021 0.032942 -0.087977 -0.168136 -0.181855 0.002397 0.020755 0.663229 0.155013 -0.104454 -0.151098 0.092325 -0.352543 0.061142 0.206648 0.168079 0.297036 0.126201 -0.011942 5.75E-4 0.050568 -0.138555 0.056299 0.253563 0.154956 0.054543 -0.308596 -0.090363 -0.102032 -0.153654 0.383094 -0.213678 -0.171912 0.368794 0.379185 -0.028355 -0.534742 0.142013 -0.041594 -0.067734 -0.312855 0.213995 -0.110121 -0.518865 -0.212323 -0.025692 0.131104 0.10275 0.196771 0.113569
jazz 0.263362 0.368533 -0.180508 0.27975 -0.035927 -0.25955 0.036124 0.372719 0.159008 -0.126313 -0.207729 0.233255 -0.085939 0.062316 -0.29079 -0.009353 0.243134 0.073822 -0.281732 -0.241 0.213792 -0.161368 0.035067 -0.00213 -0.233302 0.25435 -0.048627 0.136662 0.042934 0.099101 0.126847 0.088958 0.105295 0.224824 -0.352742 0.181056 0.192824 -0.315587 -0.02026 -0.008882 0.196939 0.143064 -0.172406 0.183337 0.370304 -0.382691 -0.197593 0.344564 0.036608 -0.050763 0.066486 -0.17239 -0.103003 -0.157702 0.1004 -0.123913 0.328382 0.103947 -0.117514 -0.014892 0.220657 0.18523 0.005938 -0.29111 -0.095414 0.219084 0.002429 0.171361 0.436944 0.379755 0.311357 -0.321419 -0.285382 0.219685 0.076558 -0.163676 0.316198 0.133089 0.075167 0.325951 0.056795 0.054639 -0.228134 -0.028867 0.169499 -0.098402 0.12014 0.0405 -0.005527 -0.166135 -0.319273 0.281208 0.246474 0.325393 0.02741 0.141149 0.106975 -0.287033 0.024945 -0.211913 0.09734 0.331328 -0.287695 -0.550765 -0.045771 0.250643 -0.062723 -0.327121 -0.025693 -0.175723 -0.185238 0.081781 -0.354404 -0.121218 -0.007664 0.127385 0.03078 -0.03694 -0.184735 0.035906 -0.105658 0.020672 0.080017 0.035839 0.045194 0.144594 0.128612 0.427852 -0.111944 -0.048673 0.52796 -0.044573 -0.27329 0.251167 0.321305 0.079753 -0.123092 0.123026 0.16586 -0.348942 -0.388683 -0.101878 0.15301 0.140197 -0.088685 0.061568 -0.429185 -0.148844 -0.22525 -0.257913 -0.217084 0.033387 0.250709 -0.215367 -0.267543 0.400384 0.345815 -0.070958 0.088942 -0.120296 0.097191 0.230602 0.416777 0.143844 0.324116 0.320779 0.341731 0.540525 0.657394 -0.150567 -0.51815 -0.007909 -0.033466 -0.244118 -0.115027 -0.008982 0.074916 0.178757 -0.185509 0.013042 -0.278032 -0.022775 -0.192172 0.080369 -0.282594 0.073884 -0.182554 0.032744 0.059641 0.089204 -0.178931 -0.294662 0.081663 0.345334 -0.092583 -0.156779 -0.274891 0.125184 -0.360174 0.017017
gain -0.001243 0.040388 -0.080378 -0.086826 -0.052916 -0.074276 -0.11703 -0.160708 -0.022826 0.055907 0.068997 0.208051 -0.202082 0.023729 -0.160023 -0.184459 0.093858 -0.259708 -0.134672 0.062775 -0.207658 5.7E-4 -0.098735 0.075769 -0.059337 0.067522 -7.0E-6 0.115982 -0.243153 0.060282 0.232962 0.012643 0.045517 0.059137 0.057928 -0.044126 -0.022476 0.146378 0.351377 0.055695 0.145086 -0.340102 0.037771 -4.04E-4 -0.075393 -0.083986 -0.281977 0.043828 0.237721 7.62E-4 -0.068626 0.301007 0.041419 0.15764 0.029066 0.198185 -0.105991 -0.284391 0.036414 0.023348 0.127798 0.024473 -0.060144 0.022748 -4.45E-4 -0.070959 -0.107057 0.083318 -0.155363 -0.008327 0.082867 -0.112469 0.053686 0.060299 -0.068943 0.209843 0.257589 -0.239492 -0.092957 -0.05417 -0.240649 -0.037518 -0.135034 -0.192256 -0.049463 -0.161469 -0.2111 0.116695 -0.058035 -0.122081 -0.218694 0.123836 0.149951 -0.093332 0.443904 0.320858 -0.123809 0.091121 -0.115659 0.240548 -0.132615 0.138194 -0.035448 0.019899 0.011014 0.114519 -0.201885 0.045397 0.008393 0.027138 -0.077719 -0.054872 -0.081499 0.284615 -0.111703 0.174905 -0.070776 0.092733 0.1187 0.111458 -0.118629 0.08824 0.030242 -0.188486 -0.026787 0.223305 -0.03082 0.044109 0.050309 0.253946 0.06017 0.017861 0.014389 -0.101841 0.102903 -0.058713 0.088586 0.01931 0.247693 0.023204 0.05764 -0.044734 -0.109134 -2.19E-4 -0.081683 -0.010819 0.096374 0.218412 0.106178 0.105758 -0.212924 -0.074376 -0.179328 0.270569 -0.011626 0.042817 -0.042316 0.137655 -0.046725 0.039936 -0.267975 -0.138486 -0.192239 -0.173378 0.121967 -0.033806 -0.1055 -0.074719 0.110319 -0.019896 0.186862 0.129379 0.440915 0.278195 0.153175 -0.174759 0.158481 -0.23848 -0.093658 0.178756 0.077426 -0.104854 0.015051 -0.074193 0.087704 0.053643 -0.092057 0.22914 -0.002029 0.037067 -0.092228 0.165527 -0.022316 0.017658 -0.367409 -0.213006 0.06529 -0.064945 0.060715 -0.010997
history 0.182816 0.103306 0.082316 -0.135696 0.064983 0.034171 0.266676 0.224969 -0.252373 0.061695 0.156164 0.02245 0.026297 0.050789 0.064347 -0.005593 0.159117 -0.112005 -0.020928 0.059362 0.046108 -0.010315 -0.041404 -0.123586 -0.181267 0.027443 -0.119644 0.058035 0.04629 -0.046497 0.017026 -0.134955 0.167843 0.007993 0.007905 0.18259 0.382091 -0.10412 0.251104 0.020113 0.270396 -0.038461 -0.206049 -0.133632 0.047301 0.077598 0.024281 0.072351 0.084067 -0.010842 0.141019 -0.206294 -0.009618 0.096437 0.149326 -0.202184 -0.003876 -0.025845 -0.006318 -0.047322 -0.00193 0.160946 -0.08938 -0.328941 -0.034719 0.045582 -8.86E-4 -0.170478 0.22074 0.183111 0.162724 -0.283984 0.239543 0.04187 -0.008583 -0.053138 0.118781 -0.163177 0.20447 -0.195161 0.031448 0.103195 -0.062273 0.11901 -0.066759 -0.457246 0.084549 -0.02085 -0.147527 -0.074597 -0.132306 -0.015024 -0.013567 -0.065243 0.093767 0.015901 -0.068847 0.165773 -0.02598 0.048418 0.014917 -0.008191 0.216603 -0.059398 -0.022663 -0.034146 -0.171652 -0.040362 -0.288569 -0.015514 -0.031534 -0.268433 -0.337494 0.293922 -0.033928 -0.180754 0.013437 -0.097599 -0.126317 -0.023848 -0.145154 -0.270878 0.087982 -0.07537 0.092419 0.030587 0.08078 -0.027028 -0.101241 0.006525 0.099075 -0.206158 -0.183424 -0.050825 0.316104 -0.0185 -3.87E-4 0.068269 -0.070336 0.006024 -0.205339 0.048506 0.266539 -0.103499 -0.222486 0.047024 0.211188 -0.139103 -0.024645 -0.018633 -0.014554 -0.100149 -0.141725 -0.018876 -0.153928 -0.077655 0.130566 -0.129681 0.156443 0.177162 0.016623 0.114561 0.219254 0.071769 0.056454 0.084465 0.202436 0.028336 -0.03402 0.055716 -0.031396 -0.169284 -0.053497 0.027241 0.170215 0.035695 -0.004338 -0.112534 -0.063657 0.139999 -0.163212 -0.024424 -0.149522 -0.046705 -0.191903 0.044591 0.043924 0.076698 0.235656 -0.042275 0.13721 0.042763 -0.002897 -0.099259 -0.132272 0.081845 -0.180644 0.120336 -0.36334 -0.028335
bird -0.364903 0.175253 0.093137 0.148946 0.110351 0.169313 0.172676 0.31353 -0.047726 -0.120444 -0.145468 0.022647 -0.11398 -0.143427 -0.048815 0.490206 -0.169837 0.238164 -0.417316 -0.525607 0.285103 -0.127098 -0.144789 -0.1205 -0.03854 -0.084854 0.125584 -0.077269 -0.105892 -0.053499 -0.215774 0.008825 -0.189621 0.365467 -0.092664 -0.091791 0.049605 0.012845 -0.112753 0.345408 0.013074 -0.007611 -0.022776 0.13548 0.119547 -0.012359 0.363811 0.279305 0.152719 0.452034 -0.141966 0.204379 0.100226 0.347877 0.052575 0.033067 0.208062 0.119922 0.134005 0.492384 -0.071136 0.379963 -0.264929 -0.192921 -0.061831 0.145129 0.228866 0.135354 0.231965 -0.137054 0.207201 0.311629 -0.125873 -0.299236 0.233124 0.27525 0.070136 0.231677 -0.216015 -0.016509 -0.041559 -0.214907 -5.94E-4 0.081554 -0.175211 -0.085934 0.039691 -0.397434 -0.231344 0.136923 -0.177753 0.032798 -0.268179 -0.168655 0.375537 -0.315712 -0.091557 0.184257 -0.064011 -0.244118 0.142214 0.036121 0.060214 0.177296 0.072846 0.10527 -0.128202 -0.308902 0.363411 -0.136492 -0.135389 0.299287 -0.02308 0.104174 0.025323 0.14404 0.042979 0.254594 0.178679 -0.257892 -0.105481 0.051727 -0.175021 0.163183 -0.071758 0.221532 0.243804 0.164513 0.286337 -0.026333 -0.058377 -0.013302 0.01093 -0.151961 -0.206102 -0.240874 0.516376 0.038145 -0.163344 0.151091 0.044847 0.043702 0.267203 -0.218278 0.021368 0.183991 0.104083 0.01282 0.060227 0.136773 0.135499 0.125248 -0.309738 -0.302886 -0.410589 -0.16343 0.181462 -0.091854 0.303128 0.199202 0.09188 0.002559 -0.048444 -0.020398 0.319666 0.117333 0.013335 -0.017471 -0.213636 -0.197118 -0.262606 0.050459 -0.622819 -0.309705 -0.04625 -0.33257 0.173983 -0.479985 0.263044 -0.12578 0.055746 -0.026457 -0.02248 0.237629 0.183375 0.235005 0.267275 0.209739 0.118505 -0.031722 -0.088988 0.067595 0.097005 -0.320525 0.170978 -0.419214 -0.171493 -0.031099 -0.11401 0.079018
possession -0.129926 -0.166656 0.172165 0.155815 0.102545 0.05954 -0.112109 0.200716 -0.263731 0.15178 0.154414 0.094491 -0.207353 0.139241 -0.486677 0.23049 0.107327 0.278114 -0.052731 -0.217142 -0.315106 -0.158618 0.262057 -0.467781 -0.038177 -0.162914 0.00356 0.383419 0.362476 -0.045087 0.326455 -0.064844 -0.026138 -0.024838 0.273508 -0.091571 0.176144 -0.151274 -0.094195 -0.052942 0.037899 -0.043287 0.382413 -0.224091 -0.044202 -0.036254 -0.020949 0.072886 -0.00216 0.074475 -0.47932 -0.108597 -0.332814 0.512781 -0.181205 0.036323 -0.216278 0.252971 -0.213971 0.207618 0.562753 0.218135 -0.009502 0.246329 -0.186572 -0.215676 0.083788 0.121467 -0.014983 -0.491388 0.152369 -0.569282 -0.21747 0.193302 -0.309886 -0.0735 -0.030582 -0.133464 -0.028832 -0.121451 -0.067695 -0.19313 0.091561 -0.280825 0.186527 -0.244069 0.133551 0.084939 -0.206215 -0.274337 0.05656 0.594846 0.06211 0.099414 0.518908 0.014276 -0.327823 -0.188739 0.082794 0.361062 0.094613 0.26273 -0.035666 -0.115805 0.045804 -0.079541 -0.278388 -0.153228 -0.369894 0.086931 0.045603 0.049019 -0.206084 0.110303 -0.132802 -0.138347 0.20797 0.063664 0.475687 0.256858 -0.103909 0.197526 0.315553 -0.301453 0.44943 0.345673 0.313216 -0.508677 -0.034066 0.071825 0.193634 0.040084 -0.209319 0.163501 0.202097 0.083586 0.301218 0.250639 -0.067138 0.181262 0.533069 -0.242937 0.12197 0.046787 -0.128179 -0.017597 0.21978 -0.050138 0.143074 0.245258 -0.238155 0.112918 -0.1124 0.022798 -0.02836 -0.332911 0.478158 0.200847 0.351969 -0.193344 -0.137966 0.229059 -0.059976 0.26707 0.162697 0.205045 0.387595 -0.277012 -0.044268 0.168013 0.354776 0.215134 0.203571 0.045377 -0.024967 0.291749 -0.053978 0.276638 0.082088 -0.072871 0.182833 0.415003 0.472772 0.300204 0.504486 -0.247524 0.10883 0.126005 0.175795 -0.006291 0.221307 -0.002133 0.359767 0.127978 -0.059687 -0.316654 0.285184 0.182592 -0.109781 0.111863
chemistry 0.551535 0.136575 -0.138713 0.031075 0.02087 -0.016196 -0.330982 0.293445 -0.215039 -0.178581 -0.244342 -0.0624 0.077226 -0.273152 -0.014025 5.95E-4 -0.054309 -0.004929 -0.156665 -0.210883 0.179404 -0.078907 0.178762 -0.210753 -0.067786 -0.134853 -0.158895 -0.190588 -0.207347 0.096422 -0.128741 0.029649 0.009986 0.063519 -0.345694 0.072386 0.304164 0.129197 0.23335 0.244907 0.203112 0.075933 -0.087759 -0.067143 0.084845 -0.147733 0.078421 0.07467 -0.018284 -0.037306 -0.054481 -0.018354 0.109408 0.512978 0.242115 0.135502 0.179092 -0.37753 -0.126932 -0.235682 -0.012874 0.020022 0.002135 0.166944 0.114933 0.260435 0.15052 -0.059752 -0.109679 0.153485 -0.041076 -0.44785 0.116271 0.377423 -0.254349 0.10794 -0.068169 0.04286 0.367351 -0.306051 0.002254 -0.091695 0.163385 0.154052 -0.063685 -0.171301 -0.14288 -0.023839 -0.109109 -0.320908 0.02794 0.130922 0.073743 -0.095401 0.068825 0.206713 0.382724 -0.077636 -0.227444 0.17755 0.199544 0.046413 -0.251459 0.079202 -0.21181 -0.002932 -0.361676 -0.267025 -0.101188 0.029952 0.196308 -0.083174 -0.168928 0.031454 -0.190916 -0.244133 -0.053024 -0.360855 -0.16672 0.046766 -0.154628 -0.161999 0.258629 0.393184 0.204192 0.048745 -0.26736 0.11831 0.115113 -0.395583 0.133727 -0.22838 -0.44149 0.241544 -0.040611 0.346827 -0.147561 0.238145 -0.172983 -0.141714 0.066208 0.007896 0.064371 -0.018376 -0.307888 0.148041 -0.156821 0.466952 -0.103042 -0.244784 -0.270513 0.091968 0.068636 0.002964 -0.173609 0.138567 0.021707 -0.125514 0.16584 0.087015 -0.018091 0.051934 0.105803 0.070879 0.215007 -0.164826 -0.033777 0.273223 -0.029248 -0.186347 0.101932 0.130308 0.045803 0.159966 0.035046 -0.167757 0.355703 -0.040464 -0.072886 0.1518 -0.189757 -0.117881 -0.175822 0.110992 0.473068 0.115048 0.01543 0.297725 -0.012316 0.013147 0.358113 -0.123944 0.09206 -0.198848 0.083641 0.049252 -0.013493 -0.085043 0.005603 -0.010808
yen -0.449425 0.386599 0.064967 0.049589 0.46778 0.270875 -0.048722 -0.297834 0.100559 -0.132495 -0.235174 0.209517 0.220031 0.237455 -0.293747 -0.63393 0.025269 -0.268949 0.154439 0.192532 0.229672 0.688591 0.769816 0.442611 -0.912974 -0.247859 0.06554 -0.497101 0.205037 0.520716 0.576602 0.056188 -0.529627 -0.237972 0.203354 0.193249 0.157479 -0.093629 0.692913 -0.135819 0.117406 -0.312496 -0.093064 0.673047 -0.030918 -0.022424 -0.171849 -0.085993 -0.941858 0.037831 0.375108 0.159221 -0.233407 -0.342523 -0.476692 0.090812 0.209829 -0.215619 -0.141019 -0.413926 0.042247 -0.089223 0.178866 -0.280412 -0.216289 -0.02756 -0.138704 0.078156 -0.364425 -0.024811 0.275349 -0.137468 -0.102854 -0.210471 0.467422 0.218194 -0.321506 -0.956531 0.08268 -0.456667 -0.090374 0.180105 -0.221534 -0.811333 -0.151093 -0.072536 -0.442675 -0.309119 -0.211768 -0.234584 -0.294929 0.092195 -0.220848 -0.032666 0.4688 0.491324 0.049647 0.535879 0.11577 -0.196014 -0.131263 -0.190996 0.29475 0.046627 0.854997 0.399636 -0.628491 0.100601 0.689439 -0.056002 -0.506585 0.421659 0.381718 0.939648 -0.137047 0.249342 0.39886 0.303133 0.473042 0.613668 0.030156 0.519395 -0.229412 0.271071 -0.019354 0.450439 -0.100364 -0.625401 0.122287 0.214769 5.41E-4 0.263899 -0.067668 -0.203145 -0.473671 0.232155 0.579206 -0.447092 0.023708 -0.09616 -0.283004 0.310931 -0.125514 0.564514 0.28037 -0.395837 -0.64722 -0.52565 0.248977 0.11231 -0.00653 0.15592 -0.062093 0.581301 -0.0293 0.146364 -0.298654 -0.04535 0.128324 -0.291276 -0.620121 0.366551 -0.185563 0.402162 0.066768 -0.143031 -0.68673 0.415144 -0.144656 0.019446 -0.765597 -0.633109 -0.143662 -0.034467 0.206492 -0.395176 -0.167412 -0.1014 -0.571046 0.614601 0.197864 -0.450291 -0.003551 0.379331 -0.079977 0.521806 0.392958 0.401894 0.42794 0.026156 0.397522 0.294195 0.09931 0.47934 -0.119011 -0.60711 -0.430183 -0.148853 0.011786 0.10754
library -0.053392 0.262049 0.121608 0.168918 -0.055815 -0.070416 -0.026483 0.376593 -0.267838 0.056559 -0.066694 0.19008 0.046399 0.209874 0.034508 0.204957 0.060538 0.010411 -0.097278 0.078917 -0.03071 0.108713 0.011658 -0.089844 0.164192 -0.023313 -0.250622 0.101485 0.048447 0.209267 -0.028905 -0.112524 0.136469 -0.104079 0.129543 -0.026787 -0.083373 -0.120091 -0.009635 0.237009 -0.044727 0.008427 -0.254809 0.155177 0.19329 -0.224175 0.309956 0.359642 -0.169555 0.058957 0.106425 -0.160292 0.050669 0.187346 0.032821 -0.009946 0.051578 -0.082122 -0.116914 -0.228815 -0.223058 -0.060301 -0.221905 0.294826 -0.341392 0.010509 0.093557 0.249561 -0.121685 0.234136 -0.095808 -0.047363 -0.013843 -0.275682 -0.218091 0.070231 0.185565 0.107395 0.081686 -0.006046 -0.313537 -0.173005 0.082334 -0.058276 -0.0717 -0.178286 -0.324086 -0.124177 -0.005017 0.016195 0.140581 0.008807 0.172794 0.047151 0.069254 0.336423 -0.03054 -0.142563 -0.129434 -0.068319 0.328518 0.248917 -0.242388 0.098901 -0.03569 0.210954 0.101856 -0.111109 -0.191594 0.064586 -0.116545 -0.338366 -0.244739 0.262334 -0.251042 -0.04959 -0.005833 0.20489 -0.18031 -0.141854 0.012298 0.021236 -0.055582 0.227947 -0.179798 0.09466 0.309741 0.068895 -0.331006 -2.33E-4 0.117046 0.121595 -0.0782 0.293048 0.044781 -0.081253 -0.146208 0.071892 -0.058156 0.021416 -0.428095 0.114772 0.241489 0.011768 -0.262541 -0.082171 -0.090932 -0.262023 -0.08811 -0.284888 0.107749 -0.069026 -0.131386 -0.079674 -0.101152 0.043205 0.014172 -0.183814 0.10057 0.028854 0.16871 0.106789 -0.130464 -0.021578 0.012777 0.140905 0.048942 -0.089754 0.202238 0.058813 -0.232675 0.025446 -0.205741 0.071749 0.121898 -0.211719 0.098995 -0.16414 -0.09988 -0.023264 -0.239686 0.086805 0.150659 -0.28282 0.035127 0.04425 0.036961 0.03921 0.32615 0.006205 -0.015771 -0.034997 -0.042438 0.181024 0.097477 0.037492 -0.037166 0.065084 -0.253928 -0.165998
virtuoso 0.237689 0.306545 -0.068754 0.302948 -0.117125 -0.317626 -0.184919 0.319258 0.259779 -0.243489 -0.141477 0.253099 -0.221822 9.31E-4 -0.145611 -0.239059 0.299188 0.202337 -0.333165 -0.443155 0.226682 -0.124657 0.010012 -0.250238 -0.277138 0.174581 -0.037631 0.210319 0.122394 0.193865 0.064772 -0.043877 -0.003127 0.191876 -0.480072 0.020245 -0.027382 -0.156429 -0.127351 0.001366 0.197323 -0.043488 0.028813 0.04535 0.413381 -0.057193 -0.15779 0.101425 -0.175774 0.265945 -0.026899 -0.120936 -0.257817 -0.115515 0.137678 -0.027165 0.339576 0.013271 -0.080881 0.047588 0.299228 0.271577 -0.007431 0.077494 -0.098876 0.120461 -0.003703 0.004237 0.464004 0.167647 0.302996 -0.437549 -0.403342 0.127306 0.117707 0.108503 0.012074 0.208939 0.023855 0.32658 -0.160312 0.038901 -0.268931 0.072229 0.080689 -0.002114 0.37809 -0.149277 -0.162617 -0.156993 -0.25119 0.171192 0.489266 0.204716 0.043811 -0.00768 0.026291 -0.170046 -0.111237 -0.092056 -0.008987 0.188794 -0.11714 -0.327556 -0.003795 0.14571 -0.333242 -0.255491 0.134236 -0.2156 -0.188751 -0.074462 -0.288238 -0.032866 -0.021492 0.207861 0.067604 -0.194929 0.022153 0.003466 0.167993 -0.054328 0.099286 -0.149577 0.034948 0.249888 0.05399 0.271521 -0.013664 -0.036179 0.407447 -0.195485 -0.112259 0.154074 0.297464 0.244112 -0.008316 0.049053 0.0332 -0.199783 -0.091539 0.002186 0.106144 0.234199 -0.210533 -0.119991 -0.110678 -0.112093 -0.137907 -0.284268 -0.398581 -0.246369 0.203222 -0.228307 -0.26158 0.221139 0.133911 -0.031521 0.120825 0.165109 0.03491 0.212344 0.282146 0.166064 0.367514 0.329417 0.162119 0.373863 0.43286 -0.20926 -0.088691 -0.160131 0.006718 -0.017822 -0.089202 -0.124636 0.040702 0.092441 -0.228077 0.341262 -0.283172 -0.158181 -0.232987 0.163089 -0.206062 -0.187341 -0.485504 0.096085 0.011918 0.015527 0.020639 -0.21261 -0.075265 0.285458 0.016561 -0.232137 -0.074198 -0.121214 -0.25796 0.125825
psychiatry 0.161282 1.039902 -0.204308 -0.04449 -0.260274 0.325749 0.114949 0.198538 -0.168538 -0.106407 -0.308907 0.661081 0.046943 0.337039 0.101916 -0.196208 0.127831 -0.369912 -0.362898 0.256019 0.382938 -0.262215 0.315182 -0.28958 0.387772 -0.255123 0.093912 -0.014732 0.103496 -0.151909 -0.336562 0.082056 0.376777 0.130731 -0.07356 -0.108054 0.211544 -0.375487 -0.23698 -0.265633 0.017032 0.051804 -0.144505 0.426151 -0.190656 -0.209675 0.241958 -0.127269 -0.250454 -0.376833 0.1584 0.378899 -0.589892 0.601028 0.543791 -0.386552 0.149243 -0.256118 -0.005384 -0.201762 -0.337742 -0.17752 0.10048 -0.237106 -0.022484 -0.267495 0.172145 0.08384 -0.126093 -0.134964 -0.035648 -0.633161 0.369914 0.471559 -0.328161 0.128541 -0.249683 0.013794 0.546422 0.068857 -0.207908 -0.349362 -0.226191 0.318841 -0.085296 -0.618237 -0.226795 0.103377 0.119452 -0.163471 0.002263 0.048963 -0.017625 0.145202 0.049145 -0.253378 0.27868 -0.047285 -0.50129 0.004568 0.187688 -0.195093 -0.512421 0.257498 0.157659 0.632022 -0.269326 -0.097813 -0.073261 -0.680811 0.300944 -0.379603 -0.110018 0.462404 0.081842 -0.401921 -0.025022 -0.36247 0.145078 0.135087 0.128467 -0.074738 0.110544 0.407471 0.483769 -0.449374 0.120352 -0.230665 0.466961 -0.366276 0.168618 -0.066998 -0.121245 0.359655 0.150456 0.445977 -0.082948 0.247017 0.28205 -0.191011 0.066108 -0.26163 -0.034475 -0.195834 -0.592726 -0.010067 -0.268711 0.184956 -0.446777 -0.122546 0.04009 0.119976 0.18633 -0.282137 -0.129045 0.255949 0.338796 0.382045 -0.19389 -0.20337 -0.138656 0.16439 0.203848 0.259571 -0.135364 0.311377 -0.440982 0.523205 -0.231238 0.089611 0.260328 0.119252 -0.02408 0.415028 -0.026754 -0.076201 -0.122099 -0.009091 0.231366 0.209605 -0.371478 -0.268551 -0.333632 0.365316 0.467575 0.036318 0.181181 0.081113 0.205935 0.019027 0.203819 0.119297 -0.308712 -0.370188 0.187985 0.390383 -0.435175 -0.012819 -0.172198 0.024262
