427 200
president -0.129741 0.025098 -0.151004 -0.021612 -0.287118 -0.143643 0.003363 0.089476 -0.121738 0.183193 0.419263 0.075313 -0.040526 0.125461 -0.11415 0.0295 0.221112 -0.32015 0.281931 -0.196013 0.112092 -0.070943 0.179935 0.013727 -0.059302 0.045903 0.253172 -0.179769 0.12679 -0.019384 -0.01719 0.091153 0.078925 0.102038 -0.225125 0.047211 -0.020514 0.225928 -0.2062 0.255955 -0.10133 -0.376899 0.296353 0.213278 -0.031897 0.187596 0.060454 0.083171 -0.052122 -0.162604 0.082904 0.161846 0.314587 0.216331 -0.098178 0.186065 -0.293597 0.094017 0.111133 -0.073789 0.166725 0.196054 0.038288 -0.149186 -0.246895 -0.013256 0.170367 0.011152 0.096951 0.176079 -3.9E-5 -0.33389 -0.100893 -0.13899 0.329684 -0.11168 0.020484 0.021829 0.012845 0.067124 -0.094428 -0.064103 -0.441437 -0.083111 -0.123504 -0.172806 -0.080887 0.056417 -0.076532 -0.193562 0.007221 -0.015913 -0.169528 -0.103829 -0.164002 0.059169 -0.057919 -0.005088 0.14422 0.03305 -0.003138 0.048216 -0.2511 0.059677 0.215323 0.327593 0.074142 0.001215 0.036156 -0.078624 0.023036 -0.057011 0.080414 0.021754 0.149124 0.043974 0.030048 0.013445 -0.067067 -0.006699 0.007101 0.048763 0.053476 0.287603 0.216993 0.412155 -0.058121 0.13041 -0.195807 -0.18471 -0.087095 0.136144 0.138729 0.223532 0.240639 -0.031297 0.266595 0.216025 0.054998 0.137455 -0.095584 0.049769 -0.002072 -0.243834 -0.100324 0.045021 -0.339589 -0.1593 -0.046176 0.036196 -0.121288 -0.24089 -0.030845 0.028415 -0.2947 -0.096007 0.150791 0.324848 -0.041131 -0.088997 0.081466 -0.12132 -0.023813 -0.383237 -0.078955 -0.080313 0.104601 -0.037293 -0.046843 -0.170064 0.032457 -0.18623 -0.133945 -0.155557 0.060844 -0.034002 0.231799 0.026202 0.01199 0.128699 -0.245318 -0.058468 -0.047017 -0.011328 0.214112 0.125416 -0.055114 -0.267195 0.087729 -0.261364 -0.28898 0.072035 -0.279633 0.010378 0.074401 0.140864 -0.06162 0.044708 0.242778 -0.181875
monk 0.274475 -0.130979 -0.017665 0.116785 -0.034015 -0.086515 2.82E-4 0.061678 0.02802 0.154532 -0.20926 0.0429 -0.143448 -0.098491 -0.038073 0.114719 -0.033182 0.046848 -0.00517 -0.085923 0.016869 -0.211601 0.081571 0.014747 -0.09093 -0.090033 0.117296 -0.082985 -0.109963 -0.094166 0.064643 0.147495 0.148691 0.151448 -0.046303 0.039578 0.070834 0.050865 0.051198 -0.051696 0.075307 0.07789 0.084548 -0.098214 0.006716 0.030404 0.071345 0.203855 -0.011677 0.110535 -0.008205 0.402545 -0.009286 0.33601 -0.079112 -0.047138 0.099575 0.103882 0.027992 -0.035569 0.083468 0.01781 -0.048113 0.082563 0.142851 -9.16E-4 -0.013881 -0.041987 0.04939 -0.149622 0.008078 -0.012703 0.020731 0.030953 0.146139 0.08745 0.082211 -0.056715 -0.037107 0.196635 -0.121507 -0.048712 0.05031 -0.093911 0.013927 0.192405 -0.03879 0.110849 -0.093768 0.097049 0.170736 0.088885 0.06445 0.119648 0.220648 -0.065738 -0.135115 0.179334 -0.058238 0.117773 0.101235 -0.219671 -0.007993 0.014845 0.027296 -0.086688 -0.131347 0.029617 0.107286 -0.284154 -0.006286 -0.046536 0.036309 -0.006736 0.015104 0.198938 -0.034524 0.041446 -0.247374 -0.304387 -0.122931 0.141914 -0.01648 0.031667 0.137913 0.172114 -0.045524 -0.001295 0.033278 0.005624 -0.025105 0.004598 -0.011802 0.161119 0.039428 0.002698 -0.170841 0.149605 0.029488 0.023205 0.010983 0.111756 0.28925 -0.046723 -0.232323 -0.088744 0.218345 0.044841 -0.054087 0.086158 -0.114779 -0.116151 0.043102 0.021435 0.009846 -0.003858 0.116574 0.165022 0.293487 -0.004112 0.064977 -0.040659 -0.052507 -0.214375 -0.166484 0.181478 0.083255 0.068182 0.073162 0.075776 -0.030884 0.017817 -0.042374 0.107571 -0.019638 -0.136857 0.198068 0.117928 -0.171708 -0.023945 -0.173839 -0.059105 0.004153 0.097135 0.068433 0.112212 -0.097702 -0.080264 -0.076815 -0.065685 -0.154126 -0.18055 -0.020362 -0.055057 0.002853 -0.033553 0.419348 -0.016519 0.090011 -0.138542
chance -0.141334 0.212806 0.093343 -0.407114 0.019429 -0.225174 -0.042555 -0.076344 0.156061 0.353697 -0.169496 0.02849 -0.066317 -0.051774 -0.232499 0.077252 -0.025341 -0.250401 0.173979 -0.169373 0.026407 -0.033228 -0.120515 0.145318 0.319522 0.201037 0.183352 -0.08172 0.260473 -0.239562 0.132506 -0.074436 -0.071428 0.031686 -0.013075 0.229548 -0.077848 -0.293668 0.058458 0.059029 0.111903 -0.052954 -0.095529 0.034969 -0.111775 -0.065058 0.013012 -0.037005 0.273216 -0.032311 -0.081204 -0.109167 0.097823 -0.18141 0.062922 -0.114401 -0.166086 -0.364089 0.014179 0.068847 0.010457 -0.073931 0.119193 -0.060294 0.203364 -0.028629 -0.079832 0.207222 0.226348 0.17096 -0.160536 0.064702 -0.013183 0.045602 -0.240999 -0.208742 0.135543 -0.264369 0.143902 0.085608 -0.157909 0.227961 -0.381538 -0.252942 -0.177876 -0.215978 -0.008716 -0.333115 -0.055967 -0.016075 0.069119 0.007269 -0.105029 -0.044037 0.251407 0.009514 -0.070904 0.009624 -0.030132 0.053452 0.151986 -0.061716 0.255677 -0.134523 0.082081 -0.175013 -0.140486 -0.245506 -0.291271 0.173025 -0.264091 0.097823 0.208134 -0.088878 -0.108061 -0.06468 -0.131805 -0.244599 -0.214955 -0.109927 0.010166 0.023196 0.084211 -0.162015 -0.08935 0.034485 -0.013758 -0.078925 0.042466 -0.143248 -0.036884 0.100089 0.100375 0.102164 0.026674 -0.005655 0.069074 -0.106864 -0.338915 0.012793 0.120746 -0.061326 0.154111 -0.137929 -0.116621 -0.042123 0.107054 -0.126003 0.086933 0.143221 0.176489 -0.153032 -3.18E-4 0.054586 0.099598 0.050454 0.141185 0.198598 0.030548 0.105941 0.174325 0.085907 0.025277 -0.12596 0.10181 -0.120994 0.142479 0.234386 -0.161623 0.082493 -0.182093 -0.131829 0.012671 -0.013831 -0.073361 -0.195407 -0.004364 -0.070702 -0.18606 -0.193969 -0.105872 0.290873 0.06038 0.168675 -0.133833 0.15904 0.31432 0.079457 0.171487 0.008212 -0.03357 -0.060482 -0.003697 -0.180349 0.118823 -0.120365 0.177335 -0.034047 0.109939 -0.020388
party 0.170513 0.290569 -0.006649 0.087744 -0.103704 -0.030512 -0.036972 -0.188356 -0.053917 0.270062 0.126779 0.099778 -0.187798 0.027031 -0.130626 0.039873 0.118319 -0.091077 0.149359 -0.219348 -0.013805 -0.103382 0.065658 -0.257839 -0.400623 0.07598 0.289706 0.085603 0.020566 -0.016687 -0.137081 -0.067627 -0.018608 0.181949 -0.311294 -0.100468 0.026075 -0.092722 -0.092515 0.31459 -0.067984 0.024883 0.248189 -0.145238 -0.034448 -0.148082 -0.264267 -0.0999 0.214257 -0.114627 0.133784 0.113446 0.085547 -0.00141 0.199798 0.099016 0.129169 -0.055623 -0.150254 -0.299265 0.030885 0.255936 0.316601 0.1724 0.123766 0.012934 0.017831 0.117987 0.175024 0.103992 0.237556 -0.103748 -0.158033 -0.068262 0.022445 -0.077187 0.099752 -0.363021 -0.284058 0.063502 -0.090387 -0.084286 -0.143934 -0.365233 0.239098 -0.070366 0.381058 -0.247533 -0.037445 -0.056698 0.18353 -0.069006 0.011076 -0.031489 -0.153197 -0.069278 0.101669 -0.108228 0.072378 -0.116701 -0.166305 0.066587 -0.442643 0.092436 -0.202392 -0.013615 0.102428 0.084775 0.36633 0.127383 -0.150279 0.036187 0.029881 -0.28358 -0.039717 0.033017 0.161077 -0.220071 -0.165561 -0.198196 -0.159336 0.073506 0.05352 -0.134585 0.123544 0.125117 -0.329581 0.137254 0.356032 -0.051413 -0.249888 -0.044749 0.071822 0.209813 -0.029999 -0.189799 0.041847 0.078496 -0.09399 0.113713 0.230217 0.201438 0.053042 -0.042307 0.079678 0.265907 -0.208068 -0.12281 0.106464 0.030428 -0.013454 -0.068123 0.052339 0.147211 -0.217893 -0.021483 0.089041 0.049062 0.031834 0.090866 0.065532 -0.092775 -0.072848 -0.358886 -0.031945 0.218897 0.035219 -0.193601 -0.094387 0.045775 -0.160095 0.064013 -0.185544 -0.302895 -0.300182 -0.054696 0.01837 0.145034 0.06043 -0.00646 -0.045253 0.217575 0.142801 0.185662 0.009621 0.254265 0.028711 0.041482 -0.011747 -0.108076 -0.081174 0.141574 -0.22504 0.023413 0.222871 -0.113063 0.002713 0.163406 0.085988 0.037873
psychology 0.191587 -0.009401 0.0426 -0.147908 -0.17042 0.157585 0.098599 0.185513 0.081137 0.253711 -0.081588 -0.144683 -0.156275 0.122873 0.081118 0.04919 -0.217031 -0.137203 0.110514 -0.05808 -0.058872 0.11373 0.461148 -0.020096 -0.164174 -0.025564 0.008443 -0.002513 0.036553 -0.024321 -0.053164 -0.110036 0.202103 0.083038 -0.100923 0.103605 -0.151795 -0.075276 0.070995 0.164799 0.152536 0.03733 0.071932 -0.013185 0.028927 -0.059685 -0.103284 0.398244 -0.05755 -0.186389 -0.095594 0.016126 -0.232321 -0.173641 -0.103326 -0.129908 0.121968 0.088272 -0.13174 0.339547 -0.061449 -0.310497 0.015044 -0.156874 -0.091938 0.482468 0.467285 0.017186 -0.105677 0.096685 0.17095 -0.436811 0.10234 -0.263493 0.330779 -0.167002 -0.176776 0.008795 -0.161506 0.09529 -0.194183 0.166283 -0.211184 0.132202 0.13978 -0.065316 -0.088367 0.121916 0.016139 -0.217481 0.286013 0.174165 -0.157035 0.201523 -0.134042 -0.107189 -0.009847 -0.161069 0.068769 -0.028941 0.075113 -0.277772 -0.023481 -0.150259 0.200674 -0.083417 -0.244223 -0.080788 -0.261906 -0.038578 -0.039285 -0.088379 -0.154627 0.197064 -0.039902 0.107339 0.193986 0.301478 0.022844 -0.200514 -0.113009 0.121851 -0.015106 -0.038346 0.028199 0.033754 0.096701 0.03309 -0.223367 0.056622 0.08075 0.069363 -0.19849 -0.170598 -2.23E-4 0.323329 -0.057641 -0.176676 0.243904 -0.016775 0.054316 -0.044509 0.211344 -0.008118 -0.057774 0.086734 0.05304 0.179157 -0.202585 -0.344003 0.177422 -0.013278 0.166912 0.09949 0.101598 -0.048804 0.040959 0.228 -0.059872 0.023084 0.189222 -0.09338 0.13598 -0.184533 0.034915 -0.056655 -0.117053 -0.006346 0.074991 0.163454 -0.16298 -0.134676 0.359945 -0.039798 0.199891 0.056399 0.036856 0.181778 -0.05765 -0.058691 0.036672 0.143843 0.273528 0.044142 0.168154 0.344149 0.319438 -0.097594 -0.094977 -0.027803 0.033826 -0.121808 0.081257 0.050236 -0.073479 0.2117 0.082635 -0.317597 -0.027705 -0.003854
government 0.075198 -0.020943 0.212316 0.074582 0.03115 -0.010881 -0.233074 0.076157 -0.210669 -0.167722 0.116398 -0.0523 -0.073663 0.088092 -0.102037 -0.078939 0.029608 0.032877 0.041899 -0.047774 0.032756 -0.052971 0.045961 -0.025143 0.157114 0.016345 -0.0116 0.140767 -0.073457 0.217963 -0.139936 0.006879 -0.081901 0.10151 0.126271 -0.25048 -0.071941 0.218026 -0.044255 0.541785 0.006765 -0.108297 0.002616 0.142465 0.143657 0.010252 6.14E-4 -0.055 0.029475 0.118596 0.126166 0.07466 0.253945 -0.036545 0.137612 -0.032489 -0.139393 -0.010344 -0.012862 -0.050081 0.059669 -0.127359 0.185763 -0.05074 0.22204 -0.137735 -0.027669 0.069263 -0.188803 -0.157339 -0.04224 -0.033736 -0.267517 0.06949 -0.062634 0.042641 0.044489 -0.145748 -0.210605 0.036553 -0.060533 -0.050511 0.034928 0.080844 0.121956 0.146487 0.005891 -0.086618 0.150104 -0.028033 -0.01215 -0.016671 -0.025927 0.054579 0.090445 0.048188 0.075112 0.193798 0.230773 -0.013913 0.076924 -0.095794 0.053222 0.135762 -0.206851 -0.183231 0.150879 0.140687 0.285141 0.266057 0.023485 -0.184721 -0.031296 -0.186325 0.040195 0.088176 0.020693 -0.109501 -0.153394 0.041689 -0.167845 -0.176179 0.127835 -0.096415 -0.081964 0.218915 -0.151665 -0.092711 0.033408 0.061175 -0.274193 -0.021225 -0.035956 0.198364 0.103308 0.053024 -0.0863 -0.10676 -0.117619 0.117342 0.065467 0.023048 -0.198328 0.007903 -0.046238 0.213659 -0.329344 -0.17301 -0.126352 0.087064 -0.156236 -0.239086 0.102435 0.034313 -0.008272 -0.207926 -0.114606 0.152419 -0.05062 -0.014581 0.024807 -0.118436 0.036142 -0.03305 -0.047993 0.051479 0.198338 -0.071664 0.086068 -0.024049 -0.169524 -0.008767 -0.119382 -0.110725 -0.090388 0.104941 0.248659 -0.018507 0.079065 0.0365 -0.200931 0.226086 0.150094 0.035128 0.113751 0.27981 -0.149119 -0.077865 -0.085735 0.037589 -0.044123 -0.158354 -0.191645 -0.10604 0.140217 0.195544 -0.177867 -0.032937 0.019213 0.102106
video 0.019077 -0.072073 -0.030957 -0.001439 -0.288046 0.21685 -0.031271 0.110799 0.046896 0.097202 -0.331791 0.345353 -0.163377 0.002335 -0.119791 0.024833 -0.077866 0.099298 -0.061628 0.021924 0.062677 -0.122919 -0.072783 0.371017 0.147156 0.150222 -0.016605 -0.386231 -0.061552 0.206626 0.02614 -0.147947 -0.239638 0.116282 -0.130312 -0.184768 -0.085284 -0.133218 0.100772 0.233283 0.081832 0.035273 -0.012971 0.283019 -0.012903 -0.121248 -0.137382 0.051236 -0.180509 -4.63E-4 -0.026392 0.032628 -0.352591 0.068917 -0.248534 -0.067134 -0.273482 0.396472 -0.119835 -0.131742 -0.052774 0.220111 0.194572 0.154612 -0.016959 0.138746 -0.101327 -0.283791 -0.136925 0.205693 0.039873 -0.055402 -0.028663 0.102993 -0.106703 -0.085783 0.077469 0.134576 0.231144 0.191663 -0.062855 0.167416 -0.039711 0.118174 -0.194439 0.084998 0.193095 0.480091 -0.092858 -0.175664 0.327504 0.131548 0.174076 0.172443 -0.060126 -0.051599 0.167786 0.008377 0.14444 0.137031 -0.005472 -0.335743 0.1655 -0.046788 0.151865 -0.091703 0.032013 -0.155708 0.022799 0.085023 0.073992 -0.083655 0.282747 -0.586352 -0.301959 0.097641 0.106346 -0.177638 0.280989 -3.33E-4 0.316791 0.15073 0.04022 -0.018948 0.036226 -0.138418 -0.132724 0.151934 -0.118835 -0.123018 -0.19806 0.02258 -0.220208 -0.404504 -0.035416 -0.179172 -0.040957 0.028304 -0.06827 0.043607 0.034498 0.253367 0.07942 0.045484 -0.073658 0.132422 0.195765 -0.26404 -0.110651 -0.221157 -0.092835 0.220365 -0.198239 -0.098072 0.022486 0.438353 -0.021108 0.316391 0.024484 0.283089 -0.001191 -0.350888 -0.12712 0.145891 -0.029668 0.014593 0.100883 0.117506 0.26641 0.310555 0.015675 -0.014254 0.066649 0.288892 -0.120704 -0.149178 0.102654 -0.015589 -0.209973 -0.078972 -0.22913 -0.090685 -0.142669 -0.058321 -0.096661 -0.06816 -0.009753 -0.25062 -0.163625 -0.072568 -0.243569 0.267829 0.120567 -0.369844 -0.136988 -0.162519 0.20902 -0.01972 -0.187225 -0.020702
defeating -0.131008 -0.091786 0.119192 0.138314 -0.137031 -0.251771 -0.150728 -0.129966 -0.187094 -0.237434 0.127893 0.226852 -0.019088 0.090254 -0.51592 0.340645 0.161908 -0.194876 0.191755 -0.144432 0.071894 -0.027249 -0.228915 -0.179337 -0.270064 0.407874 0.144777 -0.03579 -0.091851 -0.438625 0.187752 0.012641 0.491749 -0.092104 -0.247081 -0.054795 -0.213303 -0.115184 -0.231508 0.048626 -0.249465 -0.109531 0.226964 -0.105452 -0.243237 -0.018014 -0.124823 0.129388 0.103122 -0.098901 0.240254 0.035357 -0.01675 -0.161404 0.006533 0.076566 -0.076429 0.073541 0.004199 0.101514 -0.010314 0.133348 -0.113825 0.263403 0.229824 -0.291861 -0.113771 0.041282 0.073685 5.31E-4 -0.026946 -0.102612 0.185648 0.176584 0.103242 -0.183859 -0.038708 -0.054807 0.114512 -0.026745 -0.026348 -0.395543 -0.060235 0.00702 0.070119 0.031421 0.374398 -0.105338 0.08826 -0.008236 -0.112333 0.043023 -0.053337 -0.111281 -0.064667 -0.048468 -0.061492 -0.302313 0.135613 -0.067417 0.204216 -0.015054 0.094678 -0.089561 0.010631 -0.00444 0.074427 0.236316 -0.168062 0.051839 -0.011561 0.049623 -0.299873 -0.122938 0.011 0.275463 0.016962 0.055218 0.060243 -0.113934 0.069801 0.38729 -0.027745 -0.131831 -0.261863 0.020273 0.143146 0.068935 0.187175 0.181997 0.083528 0.214522 -0.039288 0.307655 -0.017038 -0.176967 0.498916 0.106753 -0.104254 -0.219922 0.22098 0.049758 -0.106931 0.200691 0.437129 -0.263971 0.242613 -0.190103 -0.055554 0.085924 -0.218281 -0.061143 -0.310102 -0.031986 -0.15096 -0.145187 -0.069527 0.027445 0.175625 0.002727 0.165912 -0.209731 -0.124312 -0.318573 0.099737 0.177 0.169892 -0.099744 0.231517 -0.025294 0.065426 -0.059176 0.128379 0.074564 0.042863 -0.006097 0.037118 -0.179905 0.007101 0.297365 -0.395539 0.117631 0.055214 -0.013308 -0.048523 0.292536 -0.231289 -0.117112 -0.245479 -0.201951 0.198973 -0.111559 0.003108 -0.123635 0.254147 -0.003262 0.280349 0.012991 0.095136 0.038683
death 0.105883 0.261619 -0.294063 -0.177179 0.107527 0.046123 -0.071215 -0.10151 -0.09577 0.104056 -0.208613 -0.047315 -0.005474 0.210534 0.500654 -0.436264 -0.240637 -0.11995 0.026076 0.337822 0.023476 0.044099 -0.131489 -0.020719 -0.135616 -0.067778 0.136306 0.004875 -0.133983 0.119199 0.07254 -0.065816 0.183611 0.189339 0.098882 0.263912 0.122027 0.121265 0.174759 -0.015777 0.173012 0.127402 -0.089845 -0.068295 0.141029 -0.036187 -0.153043 0.152901 0.006373 0.004736 0.094442 -0.001884 0.130965 -0.105096 0.003294 0.121875 -0.027968 -0.051732 -0.23321 -0.140824 0.263735 -0.135596 0.091792 -0.382425 0.052125 0.08129 0.025561 -0.058848 -0.336237 0.073126 0.101584 0.464739 0.380528 0.031043 0.193723 0.025901 -0.040776 -0.118374 0.216285 -0.069025 -0.180787 -0.072805 0.098917 -0.055599 0.166681 -0.139643 -0.056929 0.171041 -0.086351 0.201304 0.304543 0.127276 0.02569 0.08583 0.175947 -0.201115 -0.041237 0.060421 -0.10157 -0.258786 -0.018558 -0.078332 0.042985 0.012087 0.123398 0.045725 0.22215 -0.189465 -0.073317 -0.16501 0.2892 0.022716 -0.167192 -0.226865 0.209455 0.003701 0.143221 -0.147849 -0.335623 -0.233606 -0.133218 0.151122 -0.023267 -0.108429 -0.062283 0.096391 -0.022259 0.261299 -0.07111 0.026518 -0.384779 0.024482 0.128193 0.154952 -0.122054 0.015246 -0.114562 0.049132 0.530274 -0.282177 0.123198 0.020585 0.116836 0.092971 0.171595 -0.036407 -0.065667 -0.101996 0.027501 0.548136 0.230845 0.186148 0.0557 -0.208398 0.326066 -0.088352 0.168331 -0.045366 0.500271 0.16882 -0.07904 -0.279196 -0.144541 -0.143096 -0.045321 0.095977 0.121336 -0.122848 -0.180803 0.115101 0.078096 0.248784 0.043693 -0.148549 -0.077678 -0.04642 0.260607 0.059785 0.015321 0.194281 -0.040043 0.154362 -0.076531 -0.245285 0.285015 -0.052877 0.041572 0.062257 0.034923 -0.197565 0.228447 0.118106 -0.072266 -0.043869 -0.147377 -0.09201 0.358548 -0.053868 0.249148 -0.148246
image -0.050296 -0.158044 -0.079395 -0.123574 -0.208506 0.188936 0.055689 -0.011711 -0.040709 0.222602 0.139193 0.089382 -0.148523 -0.011948 0.082097 -0.289886 -0.080683 -0.210644 -0.110216 0.202848 2.99E-4 -0.072098 0.083999 -0.184258 0.210578 0.13822 -0.011046 -0.15361 0.210834 -0.065268 0.086807 -0.086199 0.018134 -0.037044 -0.241711 -0.170155 0.07663 0.011473 0.020458 0.346191 0.043847 -0.113666 0.151018 -0.048894 0.13378 0.252449 -0.213087 -0.059072 0.096142 -0.085361 0.051919 -0.036198 -0.034876 -0.143886 0.029982 0.096083 -0.186029 -0.034994 -0.140833 -0.0947 0.095676 0.152279 0.251016 0.16539 -0.103039 0.086195 -0.082161 -0.011443 -0.02189 0.012751 -0.073714 -0.038493 -0.086038 0.03928 0.092364 -0.225676 -0.084991 -0.155674 0.084392 -0.093872 0.226847 0.141964 -0.069334 -0.034853 0.034579 -0.017411 -0.001879 0.091884 -0.06861 -0.173678 0.233018 -0.136335 0.10907 0.306397 -0.102387 -0.048608 0.028958 -0.137422 -0.063045 0.070993 0.021909 -0.300888 0.042538 0.040058 0.009363 0.012949 -0.074797 -0.034137 0.245863 0.053072 -0.189173 -0.013255 0.021566 -0.047922 -0.002523 -0.082303 0.079635 -0.081233 0.069153 -0.127936 0.058356 0.007526 -0.010022 -0.066282 0.081966 0.040328 -0.331019 -0.035583 0.00515 -0.086187 0.10947 0.053612 0.018679 -0.308429 0.14727 0.047893 -0.09577 0.238248 0.187844 0.044087 0.308304 0.086264 0.223091 0.161592 -0.100383 0.113523 0.085378 0.018216 -0.089861 0.084738 0.089181 -0.204819 0.026111 0.106346 -0.07439 0.069108 2.63E-4 0.101735 0.24739 0.131547 -0.015348 0.060087 -0.159615 -0.183611 -0.020033 0.291076 0.02265 0.017626 0.023623 0.109772 -0.166936 0.018593 0.155707 -0.077387 -0.013809 0.059695 -0.004558 -0.107351 -0.026885 0.013535 0.095304 0.255635 0.053744 0.052103 -0.035498 -0.016705 -0.142455 -0.071201 0.005828 -0.196797 -0.117279 -0.059432 0.083197 -0.07375 -0.14566 0.194763 0.230997 -0.215661 0.010717 0.075868
number -0.009761 -0.05687 -0.139921 -0.073597 0.136081 0.210173 0.068976 -0.072441 -0.152716 -0.11927 -0.018093 0.045908 -0.018366 0.169974 -0.211794 -0.018214 -0.242665 -0.061847 0.149234 -0.037114 -0.120345 -0.051204 0.141461 0.009907 0.206604 0.070611 -0.123857 -0.072338 -0.071426 0.102944 0.299877 0.517706 0.076949 0.165359 -0.096641 0.136464 0.039194 0.067007 0.342849 0.008964 0.237118 0.09098 -0.028197 -0.024337 -0.016664 0.040882 0.08551 -0.255665 -0.100842 0.294423 0.203759 0.098236 -0.122735 0.072113 -0.410963 -0.03137 -0.118786 -0.083051 -0.20118 0.340252 0.051019 -0.297449 -0.060915 -0.092517 0.192261 0.268666 0.055361 0.245381 -0.18289 0.158492 -0.251194 0.218598 -0.071073 0.178926 -0.01395 -0.015971 -0.193095 0.118251 -0.04017 -0.005259 -0.079175 0.126924 -0.191167 -0.097509 0.036256 0.206032 0.133412 -0.108495 -0.043023 0.119796 -0.004025 -0.128173 0.106709 0.093916 0.171924 0.162083 -0.013775 -0.079097 0.05871 0.039647 -0.251075 -0.089659 0.125478 0.141063 0.057283 0.102858 0.206529 -0.186286 0.020188 0.289929 -0.114995 0.028812 0.154651 -0.175877 0.008031 0.242621 0.022129 -0.190253 -0.165766 -0.079587 -0.117377 -0.20715 0.149179 -0.133224 -0.266847 -0.020906 0.039207 -0.116174 -0.167701 0.044259 -0.352749 0.064049 -0.213512 0.042755 0.203082 -0.009311 -0.045567 -0.07277 -0.105587 0.014373 0.025479 -0.148436 0.079323 0.092502 0.193565 0.008907 0.014667 0.069981 -0.19467 -0.103277 0.098398 0.118757 -0.015098 0.04262 -0.040462 0.138894 0.021297 0.004374 0.035768 0.18825 -0.002528 0.163524 0.01457 -0.126844 0.10742 0.110756 0.226451 0.145192 -0.001133 0.00609 -0.161779 -0.018376 0.214175 0.051086 -0.213528 -0.387866 -0.078109 0.1326 -0.259601 -0.096255 0.183101 -0.031296 0.042285 -0.339615 0.132417 0.041412 -0.122883 0.084641 0.029433 -0.119081 -0.158918 -0.028581 0.102994 -0.238526 0.179455 0.01619 0.156572 -0.052889 -0.067119 0.012281
theater -0.126932 -0.121929 0.277849 -0.084645 -0.301456 -0.007904 0.042731 0.192531 0.172519 0.282726 0.072629 0.031009 -0.008974 -0.266443 -0.181131 -0.176855 -0.146301 -0.110593 0.276996 -0.022605 0.162839 -0.130558 0.325853 -0.010494 0.010923 0.164736 0.27598 -0.090218 0.233457 -0.030345 0.117764 -0.146926 0.045195 0.077175 0.032085 0.040521 0.031991 -0.218266 0.211784 0.013749 0.02324 0.160154 0.257474 -0.199601 -0.134194 -0.321239 -0.036 0.095029 -0.113002 -0.069427 -0.304466 0.142192 -0.283027 -0.025555 -0.107167 -0.16124 0.504074 0.325942 -0.160849 0.121233 0.181838 -0.14105 0.355733 0.138312 0.05755 0.074156 0.26713 -0.139045 0.043071 -0.224688 0.11643 -0.333977 -0.035222 -0.119192 0.126044 0.042365 0.007716 0.001564 -0.070437 0.055022 -0.024613 0.16616 -0.247469 -0.025571 4.2E-5 0.270835 -0.03538 0.141365 0.003153 -0.156663 0.488482 0.038395 0.13035 0.131792 0.046204 0.090862 -0.180102 0.202564 -0.122505 -0.153093 0.229704 -0.203889 -0.065836 0.083175 0.075836 0.257513 -0.049072 -9.23E-4 0.167846 -0.065928 -0.002466 -0.098659 0.102584 0.055637 -0.071602 0.045093 0.098722 -0.245503 0.162378 -0.183439 0.025177 -0.032124 0.001121 0.089219 0.106593 -0.083697 -0.175711 -0.055955 -0.019923 0.091523 0.07734 -0.144156 -0.162362 -0.320089 0.073242 0.037118 0.131751 -0.094671 -0.161749 0.19563 0.117198 0.142717 0.132756 0.102194 0.133316 0.143284 0.130873 0.127554 0.092218 0.016739 -0.07483 9.9E-5 -0.046449 -0.006729 0.1987 0.100686 -0.063595 7.34E-4 -0.027325 -0.066706 -0.095847 -0.137621 0.037014 0.021768 0.310136 0.031467 -0.02975 0.130578 -0.040956 0.098938 -0.292954 0.205507 0.190704 0.024748 0.020238 -0.121374 -0.105017 0.245109 -0.146197 -0.134863 -0.001538 -0.018011 0.024875 -0.038295 0.049059 0.042999 -0.129694 -0.22207 0.06295 0.218085 -0.042963 -0.062254 -0.06059 0.03215 0.016681 -0.153815 -0.054457 -0.06689 -0.148083 0.261251
astronomer 0.25424 -0.075711 0.119116 -0.068787 -0.21154 0.084343 -0.003026 0.185758 0.181256 0.162909 -0.067378 0.132463 -0.024538 -0.124282 0.018497 0.002152 -0.091183 -0.00706 0.118586 -0.045631 -0.070835 -0.026789 0.165077 0.077543 -0.121714 -0.058912 0.065401 -0.089592 0.032665 -0.183379 0.166805 -0.062227 0.196924 -0.037236 -0.109393 0.094194 0.030416 0.061998 -0.102908 0.036537 0.004529 -0.081818 0.042783 0.019315 -0.052329 -0.071413 0.008139 0.054511 -0.139381 -0.133868 0.024804 0.058526 -0.08182 0.027029 -0.060123 0.080023 0.049157 0.023457 0.048694 -0.023184 0.024305 -0.15047 0.023249 -0.027245 -0.071419 0.262568 0.161744 -0.099871 0.057925 -0.042073 0.144698 -0.142562 0.046771 -0.052182 0.167916 0.048077 -0.15778 -0.143636 -0.031586 0.0362 -0.072366 -0.008012 -0.083218 -0.049136 -0.034894 0.046834 0.192533 0.062253 -0.025406 0.101401 0.132598 0.128877 0.065513 0.083812 0.113549 -0.162199 -0.024379 -0.111215 -0.045908 -0.07754 0.001989 -0.02027 0.018275 -0.094226 0.024723 0.00251 -0.03317 0.02794 -0.116769 -0.201604 -0.055458 -0.030205 -0.112437 0.127972 -0.002226 -0.009723 0.169494 0.103414 -0.049113 -0.048038 -0.027625 0.049489 -0.06593 0.047993 0.059799 -0.018323 0.093615 -0.040952 -0.162357 -0.034877 -0.026836 0.095234 -0.051416 -0.011459 -0.039133 0.037945 -0.004855 0.050941 0.114081 -0.009727 -0.053245 -0.010507 0.030187 0.042721 0.05111 -0.123947 0.14268 -0.071038 -0.035158 -0.020267 0.060481 0.013813 0.051158 0.014921 0.029989 0.093582 -0.004446 0.00585 0.011587 -0.023925 -0.003505 0.023315 -0.071663 -0.047868 -0.02955 -0.002658 0.106827 0.063825 -0.005559 0.023051 -0.038138 -0.006684 -0.077222 0.075744 0.082597 0.086452 0.031042 -0.059073 -0.06561 0.044651 -0.113892 -0.132876 0.089319 0.071062 0.022032 0.099051 -0.017114 -0.04623 -0.151797 -0.048551 0.032146 -0.181476 -0.03806 -0.054115 0.047898 -0.027695 0.07391 -0.131326 -0.024559 0.028208
project 0.196058 -0.218761 0.27943 -0.225393 0.087341 0.10602 -0.034854 -0.086086 -0.005179 0.151857 0.274883 -0.071514 0.102735 -0.093826 0.019048 -0.264066 -0.117221 -0.027391 -0.015284 -0.081435 -0.178708 -0.074834 0.111561 0.150185 0.081745 -0.176151 -0.037725 -0.103108 0.065561 0.071103 0.00399 -0.022295 -0.01754 -0.010488 -0.237046 -0.04757 -0.061557 0.11362 0.135304 0.298797 0.088226 -0.047355 -0.069937 -0.068068 -0.193295 0.0487 0.039294 -0.100752 0.069662 -0.064282 -0.290765 -9.42E-4 0.079927 0.03205 0.098041 -0.069213 0.096085 0.194242 -0.017094 0.032865 -0.008689 -0.142568 0.231808 0.022549 0.128704 0.102415 -0.005359 -0.097629 -0.115833 -0.116824 0.117773 -0.252124 -0.173736 -0.168079 0.361575 -0.107891 0.060845 -0.0631 -0.018782 -0.020307 0.05866 0.209176 -0.021944 -0.102441 0.137608 0.196958 -0.068532 0.133066 -0.061578 0.123224 -0.042465 -0.057978 0.117821 -0.196654 0.07338 0.100189 -0.221727 0.092776 0.233793 -0.083448 0.28268 -0.161837 0.198573 -0.01121 -0.137289 0.016155 -0.054844 0.210275 0.144452 0.087797 0.021457 -0.014252 0.066111 0.058061 -0.069524 -0.05588 0.15209 0.085046 0.220133 -0.058439 0.050855 -0.221895 0.070765 0.012522 0.112834 0.150846 -0.110497 -0.014324 0.046958 0.148636 -0.035031 -0.057522 -0.099124 -0.002531 0.213913 0.202878 -0.01933 0.048311 -0.06504 0.150841 0.146785 0.134692 -0.195792 0.195894 -0.089623 -0.139863 -0.336256 -0.114223 -0.33028 0.086949 0.096005 -0.037721 0.005758 -0.221706 -0.019263 -0.099705 -0.093222 0.001681 0.093656 0.076246 0.139715 0.013374 0.130215 0.144414 0.022396 -0.09958 0.096348 0.310181 -0.050403 0.002067 -0.009046 0.120464 -0.027134 -0.064707 0.129593 0.016452 -0.166816 -0.091682 -0.015857 0.187723 0.052292 0.037984 0.220724 0.062259 -0.017769 0.140672 -0.196627 0.022675 -0.135129 -0.147254 -0.044142 -0.082237 0.074304 -0.056277 -0.022906 -0.310414 -0.041715 -0.026319 0.191054 -0.214276
dawn -0.300417 -0.183785 -0.036576 0.129971 0.162647 0.017299 0.143832 0.218799 0.208464 -0.024599 -0.324043 0.241085 -0.062512 -0.079919 0.046973 -0.13964 0.088818 0.164215 0.014873 -0.092012 0.088325 -0.402638 0.008823 -0.113423 -0.100072 -0.159005 0.29128 -0.163166 -0.040341 -0.147492 0.098011 -0.099772 0.179901 -0.150178 0.088574 0.030296 -0.030333 -0.037948 0.206108 -0.124763 0.363592 0.364096 0.083697 0.026666 0.088282 -0.43665 0.025209 0.16249 -0.003171 -0.050206 0.058893 -0.00569 0.308807 0.176618 -0.182771 0.283587 -0.080961 0.076353 -0.217286 0.043273 0.330644 0.151559 -0.254556 0.018484 0.329824 -0.157889 -0.312113 -0.088884 0.032666 -0.437824 0.213751 0.10124 0.029519 -0.089877 0.031459 0.358317 -0.028742 -0.096118 0.020741 0.425637 0.144025 -0.388088 -0.434886 -0.115187 -0.032942 0.054236 -0.147678 0.329371 -0.07074 0.343244 -0.021899 0.260298 -0.135376 -0.098831 0.077368 -0.157221 -0.191882 0.295325 -0.073139 -0.069293 0.122626 -0.048733 -0.139944 -0.144649 0.040201 -0.113671 -0.352863 0.007567 0.383507 0.134327 0.309121 -0.051288 0.19601 -0.048009 -5.1E-5 0.248903 -0.133052 -0.044572 -0.285454 -0.221782 -0.072933 0.243935 -0.045194 0.129214 -0.21776 -0.134493 -0.242582 -0.056682 0.151638 0.108387 0.223219 -0.025455 -0.239509 -0.02295 -0.137452 -0.236973 -0.166365 -0.055347 -0.010775 -0.141898 -0.098686 0.022338 0.033067 -0.052654 -0.05765 -0.211387 0.211401 0.010825 0.079725 0.091557 0.251598 -0.280925 -0.118459 0.258833 0.151665 0.006886 0.088182 -0.077156 0.108597 -0.01169 -0.161939 0.120137 -0.032589 -0.109124 -0.118624 0.204185 0.11138 0.126687 -0.083846 0.032604 -2.23E-4 0.217005 -0.060891 0.310691 0.115098 -0.078779 -0.054072 -0.086957 0.222228 -0.095469 -0.051171 -0.025499 0.032922 0.037989 -0.205651 -0.020264 0.043898 -0.024658 -0.071371 -0.232316 -0.192518 -0.125305 -0.034439 -0.067851 0.179943 0.256771 0.149171 -0.010872 0.1516 -0.049588
ear 0.00859 0.154083 0.091729 0.060746 -0.152051 0.124959 0.112778 0.073183 0.103031 0.080927 -0.26333 0.115756 -0.288617 -0.315241 0.446486 -0.091314 -0.224096 0.010897 -0.019416 0.235335 -0.210051 -0.31755 -0.334246 0.040204 0.290601 0.310435 0.098138 -0.051868 7.88E-4 0.08962 0.023098 -0.325146 0.236029 0.163984 0.215789 0.051634 0.181193 -0.014057 -0.031965 0.068288 -0.071108 0.090171 0.304957 0.051783 0.041617 0.088279 0.089515 -0.067987 0.173935 -0.136765 0.133607 -0.264402 -0.359733 -0.099263 -0.015812 0.189958 -0.130921 -0.080206 -0.20005 -0.284255 0.280216 -0.092713 0.34031 0.026352 0.003492 0.173385 0.1217 -0.199549 0.063829 0.011068 0.320354 0.060598 0.107979 0.016467 -0.004201 -0.155437 -0.058579 -0.243923 0.060916 -0.067697 0.022839 0.051411 0.025196 -0.378528 0.107519 0.021487 -0.169781 -0.29531 -0.079476 -0.020077 0.088626 -0.116574 0.206899 0.27561 0.009427 -0.038616 -0.056947 0.060785 0.014712 0.150525 -0.279674 -0.131443 0.038705 0.019712 -0.273784 -0.204967 0.03123 -0.026239 -0.092743 -0.117986 -0.139008 0.081177 -0.307752 -0.052002 -0.049052 -0.269521 -0.116712 0.332495 0.09112 -0.12923 0.035173 0.220115 -0.179245 0.018365 0.15476 -0.084466 -0.176443 0.068793 0.196795 0.05258 0.023114 0.257185 -0.16785 -0.025769 -0.081553 -0.222917 -0.108529 -0.06915 0.238028 0.078192 -0.006412 0.028185 0.189 -0.232831 -0.033782 -0.136216 0.013083 -0.02708 -0.168193 0.165417 0.030081 -0.13143 -0.014872 0.092904 -0.200192 0.090936 0.133091 0.10057 0.025497 0.049094 -0.007962 0.105902 -0.139299 -0.033251 0.185881 -0.027091 0.006129 0.069662 -0.040789 0.233366 0.076304 -0.09199 0.185637 0.177162 0.175946 -0.059897 -0.022257 -0.154274 -0.091241 -0.051809 -0.036079 0.060117 -0.144453 -0.068242 0.035532 0.008674 0.093085 0.135504 0.073023 0.064504 0.028613 -0.11396 -0.082513 0.133773 0.054219 0.065408 0.471073 -0.34104 -0.075137 0.309165
voyage -0.010205 -0.37731 0.05971 0.111281 -0.12083 -0.02257 0.073091 -0.110549 0.188925 0.137608 0.09671 0.157605 0.044429 -0.024259 0.213048 -0.010601 -0.12614 0.093315 0.020001 0.027677 -0.06648 -0.075465 0.090178 -0.055783 0.085395 0.074506 0.112855 -0.219527 -0.059788 -0.113143 -0.045333 -0.15599 0.078551 -0.084469 -0.147215 0.008035 0.285214 0.039817 -0.078209 -0.158923 0.015373 0.196145 0.083741 0.018925 -0.097711 0.029086 0.002495 -0.012418 0.068291 -0.106876 -0.12437 0.036118 0.126181 0.111909 0.078521 0.050232 0.015577 0.063365 -0.218233 -0.060457 0.098326 -0.001339 0.077121 0.144883 0.020289 -0.006429 0.015556 -0.086482 0.074219 -0.224666 0.114546 -0.094413 0.117943 -0.087978 0.148203 0.087951 0.055568 -0.176202 0.046345 0.014986 -0.132547 -0.141459 -0.073774 -0.116497 -0.043025 0.319184 0.023284 0.235893 -0.092046 0.158291 -0.013498 -0.079287 0.173141 -0.082155 0.045814 0.02966 -0.121601 0.053456 0.034603 0.124617 -0.013198 -0.057993 0.206011 -0.107436 -0.073118 0.001777 0.097605 -0.142671 0.065591 0.002287 0.070147 0.229191 0.008772 0.021209 -0.076339 0.015152 0.175427 0.071429 -0.077471 -0.01039 0.089532 0.085087 -0.045946 0.157186 0.082135 0.135747 -0.201419 -0.142302 0.200152 0.0311 0.289295 -0.002384 -0.172133 -0.041646 -0.006401 -0.260895 -0.047924 0.025893 0.008651 0.003 0.019835 0.030016 0.004527 0.076089 -0.066862 -0.080401 0.112443 -0.2466 -0.017242 0.245214 0.086161 -0.287097 -0.227127 -0.057025 -0.014862 0.060125 -0.052622 -0.204731 0.041037 -0.002043 0.004599 0.044048 -0.068328 -0.007948 -0.046034 0.174756 0.031904 8.1E-4 0.068192 -0.043118 -0.087397 0.14281 0.113847 0.237796 -0.023685 -0.073026 0.01378 -0.154677 -0.113882 -0.051463 -0.049972 -0.044893 -0.038137 0.095171 -0.094082 0.269004 0.006148 0.060128 -0.055599 -0.135957 -0.346146 -0.106221 -0.065763 0.122179 0.027117 -0.264424 0.200201 0.050254 0.214401 -0.137836
valor 0.048461 -0.034824 0.051445 0.020018 -0.059461 -0.017491 -0.07038 0.070649 0.014989 -0.039025 0.082975 0.033453 0.009198 0.04328 -0.050552 -0.11172 0.035832 0.039029 0.008191 0.034625 0.004719 -0.048564 -0.043095 -0.019189 0.009471 0.083494 0.029795 -0.109222 -0.037437 -0.076876 0.075063 0.114524 0.104471 0.079149 -0.039167 0.0026 0.090332 -0.080339 -0.066792 0.062397 0.026766 -0.059624 0.100505 -0.05575 -0.048509 0.024988 0.024788 0.06108 0.02728 0.017643 0.08137 0.060627 0.017108 -0.02135 -0.022254 -0.035861 0.054171 -0.00501 -0.031234 0.042148 0.013832 -0.088812 0.156777 0.040454 0.060166 0.045439 -0.020931 0.049312 -0.003698 0.043774 0.013952 -0.156332 0.004405 0.00513 0.083116 -0.027705 -0.080708 0.016851 -0.029621 -0.072517 -0.034022 0.016476 -0.049029 -0.053481 -0.091945 0.145019 0.091392 0.07469 0.065227 -0.098983 0.050846 -0.015235 0.015967 -0.001582 0.02773 2.97E-4 -0.066626 -0.065629 0.010389 0.02575 0.049175 -0.117068 0.083222 0.048245 0.102401 0.01167 0.062566 -0.086387 0.066217 0.014677 0.020998 -0.018357 -0.034125 -0.046767 -0.032118 0.017102 0.066155 0.057613 -0.109411 -0.016808 0.030795 0.118387 -0.093977 -0.016491 0.055476 0.06286 -0.041749 -0.026036 -0.029919 0.077826 -0.037634 -0.081889 0.082053 -0.010272 -4.11E-4 0.110606 5.86E-4 0.025426 -0.039524 -0.029704 0.032087 0.004056 -0.009573 0.04416 0.012491 -0.019759 -0.028813 0.003169 -0.048147 0.094005 0.081997 -0.022097 0.013479 -0.009996 0.009968 0.108945 0.07256 0.020819 0.082507 -0.004705 -0.073687 0.011956 -0.079085 -0.050961 -0.001806 0.073981 0.036271 0.070185 0.008048 0.009008 -0.006478 0.108564 0.033126 -0.010373 0.00739 -3.15E-4 0.080555 -0.038686 -0.006758 -0.004039 -0.074582 0.063253 -0.058563 -0.097361 -0.053192 0.029351 -0.096867 -0.011663 -0.042612 -0.025957 0.078897 0.010957 -0.112718 0.025143 -0.042682 0.05833 0.071919 -0.083264 -0.028002 -0.005945
butter 0.289152 0.09961 -0.049439 -0.079746 -0.067214 0.383831 0.074815 0.382817 0.17066 -0.00768 -0.180216 0.095499 -0.183255 0.087959 0.138317 0.090074 -0.175573 -0.044404 0.13359 0.065273 0.15227 -0.329966 -0.119708 -0.040818 0.006385 -0.162411 0.112364 -0.185516 -0.086249 0.040676 -0.029242 -0.308869 0.080525 0.324639 -0.085436 0.199584 0.106062 -0.043023 0.033548 -0.051784 0.052963 0.280449 0.082609 0.082004 -0.145594 -0.080879 0.402147 -0.359687 0.098361 -0.198 -0.033198 -0.047167 -0.257672 -0.02873 -0.099437 -0.024289 0.021902 0.206397 -0.037315 -0.085288 -0.107642 0.292659 0.07803 0.421978 0.062687 -0.042092 0.291729 0.11551 0.203321 -0.263868 0.267818 0.003639 0.050496 0.286286 0.048646 0.026589 0.071115 -0.242866 -0.377523 0.032479 0.062699 0.070382 -0.013644 -0.191161 -0.282672 0.443307 -0.03453 0.009231 -0.237285 -0.119254 -0.122768 -0.079363 0.152269 -0.171575 0.150418 -0.035279 0.028041 0.093873 0.052894 -0.216995 -0.126707 -0.242951 0.228468 -0.152877 0.004213 -0.413239 0.139034 -0.114061 -0.04279 0.208122 0.091404 0.226214 -0.123302 0.139223 0.029662 -0.38387 0.042345 0.001861 -0.019142 -0.14338 -0.099534 -0.181268 -0.204686 -0.044546 -0.044107 -0.12609 -0.011016 -0.164741 -0.024326 -0.246398 0.147658 0.153192 -0.085526 0.00542 -0.360755 0.123356 -0.16722 -0.16626 0.042627 0.081767 0.015335 -0.186939 0.352197 -0.085054 -0.229592 7.23E-4 -0.032781 0.404659 -0.266075 -0.029895 0.112065 0.004823 -0.218584 0.035669 -0.17895 -0.055195 0.433996 0.055851 -0.305879 -0.390905 -0.188917 0.082713 0.1929 -0.195881 -0.11155 -0.022722 -0.348216 0.021065 0.254704 0.122188 -0.272088 -0.166314 -0.105672 0.37815 0.483211 -0.005761 -0.138045 -0.0436 -0.050171 -0.395078 -0.075379 -0.124404 -0.166579 -0.069932 0.15141 -0.2891 0.010901 0.22773 -0.065646 -0.164078 0.268836 -0.152908 -0.269918 0.306676 -0.083688 0.291533 0.415378 -0.592225 -0.198792 0.383886
gin 0.146271 -0.069697 0.012178 -0.087213 -0.18127 0.072021 -0.003603 0.20913 0.123219 0.058939 -0.053297 0.122029 -0.162002 0.013628 0.002057 -0.00588 -0.038793 0.130627 0.125664 0.039383 -0.014409 -0.047751 -0.032101 0.024827 -0.105969 0.068308 0.149807 -0.210133 0.02931 -0.051753 0.134282 -0.156864 0.037363 0.081541 -0.025003 0.135568 0.102879 -0.102672 0.038964 0.019658 -0.064264 0.090256 0.065037 -0.144924 -0.05854 0.067723 0.126986 -0.008796 -0.009862 -0.057013 -0.013435 0.056272 -0.27656 0.111169 -0.200609 0.016717 0.089039 0.089738 0.003774 -0.053169 0.009188 0.051392 0.093632 0.212687 0.076264 0.175843 0.01318 -0.179261 0.0949 -0.164012 0.122841 -0.088674 -0.034948 -0.020952 0.109987 -0.111574 0.010771 0.06736 0.032325 0.106612 -0.021183 -0.053515 -0.152611 -0.126042 -0.115537 0.030638 -0.019458 -0.052315 -0.097187 0.01028 0.009836 0.051115 -0.024941 -0.006752 -0.065247 -0.162944 -0.038718 -0.040334 -0.170259 -0.051502 0.001776 -0.16557 0.100155 -0.112694 0.051635 -0.178287 0.061117 -0.160324 -5.5E-4 0.02702 -0.078327 0.037568 -0.055072 -0.067656 -0.041952 -0.095907 -0.028906 7.3E-4 -0.104165 -0.137179 -0.122599 0.047732 -0.057162 -0.117784 0.029768 -0.059395 -0.169257 0.016298 0.064703 -0.035882 0.118034 0.087784 -0.115087 -0.064557 -0.098148 -0.020075 -0.289993 0.215499 0.17623 0.157964 -0.039375 -0.008492 0.276345 -0.023368 -0.138235 0.022572 0.137454 0.195186 0.047552 0.125277 0.057568 -0.067898 -0.138862 0.024933 0.037599 0.125713 -0.109475 0.183173 -0.019373 -0.123981 -0.175576 0.061512 -0.078654 -0.098239 -0.072058 0.057777 -0.222 -0.059224 0.077996 0.022538 -0.085522 -0.032392 0.023212 0.082199 0.0882 0.016412 -0.040203 -0.034703 -0.10111 -0.035728 -0.001406 0.013051 -0.075518 -0.019792 0.056299 -0.018332 0.044964 -0.041837 -0.129235 0.00387 0.132467 -0.150172 -0.203179 0.118021 0.016538 -0.005346 0.210659 -0.205093 0.103631 0.162014
reservation 0.049619 -0.084818 -0.146425 0.075561 -0.214843 0.149092 -0.074487 -0.017819 0.116938 0.077723 -0.017606 -0.017344 -0.125149 0.091605 0.026803 -0.066897 0.090927 -0.02677 -0.068986 0.160229 -0.065744 -0.307174 -0.145097 -0.0189 0.119401 0.060747 0.046413 0.027756 0.149184 0.046508 0.232088 -0.089246 0.024699 0.09759 0.016419 -0.121547 0.082262 -0.165395 0.097409 0.049529 -0.099746 0.270034 -0.120117 0.105784 0.118683 -0.106695 0.026344 0.072535 0.047408 -0.009807 -0.115504 0.05154 -0.060598 -0.064036 -0.143476 -0.004643 0.123337 0.039084 -0.156121 0.016403 0.060921 0.001791 0.131269 0.053702 -0.051208 0.004092 0.151503 0.050065 0.120859 0.043377 0.018606 -0.10442 -0.114921 0.012615 -0.003437 0.109886 0.058376 -0.046338 -0.11789 0.046741 -0.052746 -0.055403 -0.065918 0.149095 -0.066558 0.207375 0.132288 0.24798 0.128914 0.224915 -0.121149 -0.024343 0.069106 0.060267 0.040806 0.112427 0.053678 0.034759 -0.007691 -0.01698 0.042193 -0.076999 0.149052 -0.087926 -0.00585 0.043626 -0.022522 0.142874 0.121486 0.11089 -0.00544 0.017918 0.207707 -0.249763 -0.198757 0.107412 -0.010492 -0.005397 0.014395 -0.083474 -0.046987 -0.078447 -0.054901 0.019587 -0.109431 -0.021092 -0.001809 0.029028 -0.020639 -0.018369 0.043866 -0.015057 -0.116516 0.020778 0.020329 -0.034454 -0.115461 -0.082075 -0.076541 0.073232 -0.007136 0.067435 -0.067988 -0.160728 -0.039407 -0.044022 0.027143 -0.150877 -0.029444 -0.080994 0.244417 -0.017238 0.069486 0.136308 0.032704 0.136194 -0.067023 -0.111419 -0.159928 -0.183042 0.043093 0.008443 0.011051 0.065873 -0.031152 0.167409 -0.04596 0.194936 -0.037615 0.011591 -0.103787 -0.055795 -0.049475 0.289413 0.030163 -0.143624 -0.109765 0.055399 -0.040668 -0.041116 0.050055 0.118244 0.017754 -0.016671 -0.027959 -0.035363 0.070529 0.071506 -0.154716 -0.016634 -0.031083 -0.105316 -0.236895 0.113102 0.106052 0.001952 0.205161 -0.244948 0.134328 0.0106
wealth 0.006859 -0.068906 0.149938 -0.103737 0.03291 0.068822 -0.192259 0.179658 -0.266177 0.052084 0.17018 -0.043759 -0.003753 0.338718 -0.112261 -0.069619 0.143199 -0.034522 -0.10258 0.024876 0.008379 0.362251 0.103565 0.01207 0.038144 0.045841 0.174032 0.127654 0.265864 -0.064026 -0.203314 0.06133 -0.126392 0.05494 -0.087615 0.118907 -0.035015 -0.146064 0.025099 0.331335 0.235346 -0.00686 0.249379 -0.140703 0.141147 0.048321 -0.055457 -0.044535 0.042504 -0.027566 -0.108414 0.246995 0.19318 0.131894 0.048644 -0.335617 -0.046424 0.100556 0.077933 0.039522 -0.102151 -0.128203 0.274872 0.021581 0.015256 -0.13619 -0.156798 0.032448 -0.573711 -0.104586 0.082923 0.108172 -0.202801 0.096622 0.113463 -0.241326 -0.082291 -0.166654 -0.040169 -0.146956 0.273873 0.134294 0.124859 -0.075529 -0.016159 0.125909 0.009584 -0.233743 0.088883 0.062651 -0.074469 -0.268549 0.240881 0.255495 -0.080462 0.075014 -0.56578 -0.124568 0.067605 -0.19171 0.159266 -0.131312 0.075647 0.0259 -0.164422 0.12568 0.211132 0.076183 0.220648 0.065954 -0.200449 0.072504 -0.091653 -0.18146 -0.507161 -0.197651 -0.044056 -0.359025 -0.148734 -0.019259 0.008554 -0.182457 0.110155 -0.177101 -0.05112 0.03051 0.133066 -0.249346 0.251884 -0.083014 0.183006 0.147298 0.107971 -0.266801 0.046122 0.175257 -0.053903 0.127305 0.058511 -0.122607 0.032675 -0.088279 0.182469 0.079106 0.118083 0.147143 -0.138656 0.029094 -0.148736 -0.190412 -0.149771 -0.073554 0.011766 0.0348 0.12564 0.042371 -0.327898 0.269852 -0.10989 0.13247 -0.245049 0.18716 -0.006488 -0.22468 0.016429 0.03815 0.061176 0.07248 0.143032 0.270706 -0.006444 -0.081446 0.246196 -0.041351 -0.112911 0.13294 -0.130226 -0.10554 -0.099826 0.2629 0.066949 0.48255 -0.070821 -0.265748 0.05164 0.117081 -0.091518 0.00951 -0.058066 -0.392889 -0.062445 -0.080653 -0.206068 0.19507 0.004303 0.080966 0.247289 -0.082336 0.060916 0.022169
eat 0.123447 0.368202 -0.371311 -0.13798 -0.028028 -0.17743 0.141708 0.581198 0.001438 -0.184621 -0.31599 -0.204305 -0.220915 -0.062315 0.34146 0.100863 -0.350224 0.019838 -0.052175 -0.15522 0.283562 -0.533111 0.038614 0.096375 0.202485 -0.128191 0.153616 0.186292 -0.138633 -0.16661 0.103589 -0.163182 -0.160606 -0.272848 0.047327 0.136829 -0.007285 -0.179647 0.211563 -0.124575 -0.053367 0.261816 -0.108606 0.310257 -0.047531 0.071356 0.283176 -0.115913 -0.065931 -0.069786 0.025044 -0.209624 -0.033904 0.059988 -0.403082 0.075576 0.032746 0.157113 -0.184287 0.22269 -0.221214 0.120247 0.010145 0.249049 0.064851 0.072157 0.333699 0.019243 0.130863 -0.091835 0.032072 0.014116 -0.279445 0.168145 -0.205474 -0.136078 -0.052572 -0.293506 -0.308328 0.098343 -0.174287 0.160194 -0.25327 0.105743 0.091586 -0.054506 0.273471 -0.185676 -0.147971 -0.155942 -0.339539 -0.02397 0.016112 -0.081543 0.121501 0.161762 -0.012438 0.02016 0.03918 0.140924 0.18589 -0.23202 -0.002684 -0.012911 -0.062187 -0.294533 -0.281839 -0.111741 -0.309266 -0.287743 -0.009535 0.266702 0.153725 0.137483 0.24472 -0.321444 0.009415 0.212263 -0.352041 -0.106957 -0.260221 -0.204743 -0.441942 -0.040901 0.097618 0.019436 0.016969 -0.337543 0.153014 0.013081 0.20917 0.196418 -0.164501 -0.00869 -0.240214 -0.117116 -0.176 -0.030537 -0.180186 0.12734 0.034842 -0.117846 0.258439 -0.012248 -0.15302 -0.041479 -0.023502 0.408854 0.243491 -0.105472 -0.117799 -0.267093 -0.089462 -0.093946 0.047105 -0.152973 0.06168 -0.036518 -0.045399 -0.434314 -0.096317 0.061624 0.114718 -0.337793 0.073343 0.008722 -0.174308 -0.031369 0.09547 0.099703 -0.210072 -0.263879 -0.034806 0.028958 0.184793 0.037004 -0.069268 -0.07816 0.144529 -0.241922 -0.011287 -0.036527 -0.182958 0.003147 0.1803 -0.175339 0.118313 -0.016081 -0.12525 -0.188711 0.150709 -0.352381 -0.183835 0.340772 -0.132678 0.153028 0.269621 -0.427367 -0.038824 0.122123
soap 0.202905 0.034515 0.086008 0.1533 -0.061672 -0.07058 0.189916 0.074982 0.110466 0.252828 -0.072522 -0.145396 0.142258 -0.034761 0.170635 -0.102431 0.007351 -0.084626 0.019653 0.190198 0.224771 -0.176749 -0.031884 -0.047954 0.312033 0.144585 0.049383 -0.149268 0.074221 0.06388 0.139401 -0.056077 0.054706 0.111448 -0.222302 0.073113 0.334935 -0.085085 0.219333 -0.024099 -0.199593 0.109259 0.111878 0.212553 -0.027851 -0.046601 -0.084306 -0.102463 -0.067136 -0.088267 -0.102008 0.154002 -0.188006 0.280664 -0.122216 0.06799 0.15379 -0.07445 -0.018011 -0.195469 0.009982 0.043506 0.221326 0.348889 0.310581 -0.092949 -0.065834 -0.196957 -0.036722 -0.195741 -0.092112 -0.215214 0.032954 0.166454 0.116658 -0.027077 -0.060052 -0.291549 -0.080954 0.154364 0.214285 0.100399 0.036565 0.202864 -0.2373 0.165037 0.255679 0.110221 -0.112828 -0.090985 0.230026 0.111372 0.105047 0.019045 0.016566 -0.158649 -0.093987 -0.030239 0.124401 0.026478 -0.175363 -0.269427 0.219622 -0.008523 -0.009904 0.005517 0.118421 -0.135775 -0.076261 0.186041 -0.216746 0.118115 -0.175584 0.201195 -0.022956 -6.15E-4 -0.182761 -0.054741 -0.226695 -0.170803 -0.241471 0.164651 -0.07814 -0.108025 0.060574 0.059795 -0.214112 0.080913 -0.052005 -0.178107 0.003819 -0.011841 -0.064565 -0.399608 -0.102722 -0.111924 -0.078658 0.174644 -0.130026 -0.006377 0.154206 0.004102 0.271571 0.206565 -0.067304 0.007975 0.01519 0.130082 0.161583 0.115686 0.035588 -0.067524 0.001989 -0.14058 -0.026024 -0.008303 -0.297299 0.008798 -0.064787 -0.061685 -0.24215 0.203727 0.14275 -0.063402 0.134822 0.094609 0.12462 -0.05539 0.075352 0.033349 -0.232987 -0.014416 0.067498 0.344104 0.025016 -0.06959 0.002705 0.133854 -0.201506 0.013767 -0.421799 -0.104802 -0.20838 0.003841 -0.063094 -0.170354 -0.073862 0.159092 -0.139614 -0.208297 0.075859 -0.066359 -0.008369 -0.037839 -0.023634 -0.128214 0.238806 -0.107058 0.043787 0.467436
Jerusalem 0.054105 -0.075948 0.15883 -0.310425 0.010895 -0.276665 -0.244667 0.013256 -0.133352 0.293121 0.284955 0.098558 0.260133 -0.167117 0.105123 -0.314562 0.285288 -0.27933 -0.259788 -0.153285 -0.194637 -0.115061 -0.13436 0.117192 0.184973 -0.195087 0.198134 0.302179 -0.248709 0.095161 -0.113169 0.128829 0.297459 -0.130122 -0.005899 -0.312452 -0.088877 -0.094879 0.524196 0.382462 -0.117815 0.123935 0.055513 -0.066961 0.445056 0.400816 -0.238826 0.034443 -0.404019 -0.102258 0.189309 0.718847 -0.084858 0.213164 -0.471172 -0.109166 0.215818 0.04139 0.015457 -0.127631 0.010829 0.102562 0.007737 -0.023254 0.161411 0.293615 -0.103295 -0.490864 -0.283972 -0.228355 0.095085 0.013369 -0.108735 -0.06267 0.508699 0.365005 0.086714 -0.026237 0.230282 0.363408 0.088701 0.182529 0.078004 -0.075687 0.327706 0.225086 0.041883 0.511767 0.205428 -0.064994 0.205078 0.031425 -0.143581 0.048689 0.350213 0.060536 -0.124808 -0.199874 0.100783 -0.078841 -0.076518 -0.440024 -0.080308 0.263702 -0.144443 0.169806 0.182209 0.450025 0.383952 -0.044243 0.182663 0.119013 -0.160795 0.028706 0.552284 -0.021015 0.076862 0.015407 -0.01292 -0.33244 0.084918 0.019687 -0.180779 -0.095467 -0.516993 0.316996 0.274263 0.170733 0.097617 -0.007253 -0.092596 -0.412119 -0.083929 0.097809 8.7E-5 -0.058966 0.27916 -0.183626 -0.139481 0.186451 0.068144 -0.186132 0.186239 -0.240589 0.035123 -0.318205 0.209951 -0.373704 -0.093121 0.178755 0.014122 -0.286368 0.121005 0.260712 0.189426 -0.210326 -0.128789 -0.252077 -0.230632 -0.385232 0.192674 -0.122292 0.109236 -0.142923 -0.171564 0.371379 -0.07116 0.106315 -0.209793 -0.353048 0.072523 0.098069 0.003699 0.00278 -0.117981 -0.053424 0.171274 -0.370829 -0.340449 0.095283 0.384123 -0.298542 -0.061439 0.21652 -0.038425 0.304431 0.141004 -0.300444 0.118435 -0.373936 0.073565 -0.521144 -0.240275 0.381074 0.142417 -0.144004 -0.100505 0.168541 0.272173 -0.054696
discovery 0.254259 -0.214331 -0.150564 -0.123158 0.092417 0.23855 -0.136842 -0.006318 -0.073251 0.357362 -0.101713 0.200281 0.128038 -0.118704 0.198982 -0.159738 -0.051918 0.142665 -0.041428 0.139738 -0.123812 0.023833 0.177341 -0.200583 0.25079 -0.156874 0.118491 -0.180256 0.116494 0.084738 0.056531 0.179608 -0.001095 0.040828 -0.291787 0.237938 -0.092818 0.151858 -0.098903 0.274725 0.348925 -0.097581 -0.181777 0.019916 -0.047161 -0.061467 -0.06829 -0.081246 0.087227 -0.282917 0.069034 -0.054182 -0.017736 -0.19343 0.056721 -0.011553 -0.228493 0.188372 -0.2933 0.314815 0.078872 -0.114896 0.165256 -0.061807 0.108486 0.263339 0.122919 0.162569 -0.105443 0.060161 0.163209 0.042054 0.080449 0.221095 0.242331 0.186424 -0.071877 0.072315 0.014836 -0.139708 0.028135 0.007621 0.070821 0.017513 0.030109 0.276253 -0.060274 0.235006 0.023758 0.008274 0.148426 -0.135058 0.095929 0.227425 -0.013898 0.028084 -0.133959 8.07E-4 0.002587 -0.048243 0.031575 -0.316772 0.302023 0.118466 -0.033987 0.013309 -0.083817 -0.052831 0.077562 -0.113533 0.143783 0.091322 0.094897 0.133802 -0.109364 0.119025 0.208244 -0.006079 0.053086 0.080292 -0.015547 0.053821 -0.201353 -0.079613 -0.167015 0.048877 -0.162088 -0.143868 -0.233837 -0.021425 0.179787 0.08395 -0.078562 -0.027493 0.079053 0.218586 -0.070089 -0.243468 0.202756 0.005892 0.127049 0.267371 0.108564 0.249406 -0.191043 -0.055418 0.077396 -0.03634 -0.257411 -0.195099 0.190581 -0.01719 -0.043131 -0.153658 -0.147622 0.084653 0.041065 -0.195179 0.121319 0.493504 -0.256928 -0.093169 -0.146917 -0.006587 0.113822 -0.153427 0.021035 0.217829 -0.260871 0.160992 -0.32835 0.129487 -0.026811 -0.147189 0.179273 0.072781 -0.076805 -0.08072 -0.056833 -0.046392 -0.239683 0.156546 0.038656 -0.236395 0.008012 -0.021512 -0.141864 -0.012559 0.023488 -0.12909 -0.18629 -0.021968 0.077204 0.087157 -0.145645 0.189798 -0.046502 -0.089619 0.119983 -0.266877
hospital 0.017815 0.170879 -0.07296 0.091347 0.189323 0.302886 0.217951 0.442359 0.055113 -0.300989 -0.131413 0.109068 0.20628 0.115279 0.315917 -0.086822 -0.245065 -0.332903 0.065656 0.392149 0.01655 0.070053 -0.113425 0.1598 0.103018 -0.055422 0.29519 0.239379 -0.374179 0.317615 -0.063268 -0.027841 0.190733 0.067735 0.101547 -0.223582 -0.019684 -0.073503 -0.09886 -0.051616 0.100848 0.007557 0.164158 0.134258 -0.231481 -0.068802 -0.010875 -0.014829 -0.202493 -0.141283 0.173457 0.038242 0.029603 -0.146011 0.005208 0.4647 -0.154233 0.058901 -0.023512 -0.061025 0.321391 -0.39947 0.158555 -0.172116 0.00383 0.18927 -0.109805 0.219805 0.0359 -0.039781 -0.193835 0.187355 0.014902 -0.062939 0.096532 0.154902 0.097563 -0.276165 -0.100431 -0.008271 -0.134142 0.065968 -0.095891 -0.007094 0.022773 -0.008211 0.030148 -0.07195 -0.024822 0.063039 0.376071 0.139747 0.070471 0.181124 -0.092761 0.059813 -0.025078 -0.002693 0.304328 -0.16392 0.027792 -0.187428 0.021626 -0.025849 -0.003339 -0.420085 -0.241988 -0.038342 -0.099912 -0.34144 0.369486 0.041832 0.066242 7.41E-4 0.139935 -0.060815 0.018241 0.276302 -0.029926 -0.367422 -0.10511 -0.001056 0.106616 0.131172 0.118866 0.248924 -0.228272 0.15968 -0.034523 0.077453 -0.025976 0.046111 -0.107515 0.123765 0.159738 -0.049728 -0.282099 -0.3802 0.131409 0.356721 0.00253 -0.25173 -0.199021 -0.207438 0.047562 -0.098033 0.361524 -0.612662 0.231725 0.270254 0.269634 -0.124022 0.005896 0.069197 0.28153 0.276843 -0.030688 -0.254303 0.055769 0.124552 -0.21363 -0.043207 -0.069368 0.17334 0.150777 -0.076019 0.267428 0.430358 -0.178762 0.084139 0.005975 0.040018 0.197854 -0.072777 -0.222737 0.063392 -0.00873 -0.103984 0.372129 0.045247 0.279573 -0.168224 0.548398 0.073068 0.156804 -0.208327 0.236601 -0.111105 0.11874 -0.045474 -0.32197 0.006376 -0.10659 0.162391 0.094089 -0.521495 0.154397 -0.194325 0.128848 -0.006808
computer 0.077279 0.171042 0.044457 0.063797 -0.144718 0.172988 0.161812 0.246293 0.022528 0.123548 -0.041874 0.493088 -0.34749 0.005768 0.240281 0.022254 -0.260235 0.147475 -0.04597 0.104054 -0.156321 -0.09912 -0.007546 0.174498 -0.015747 0.069631 -0.015457 -0.4251 0.181421 0.283333 0.218738 -0.103775 -0.035291 0.187481 0.028295 -0.087426 0.034952 -0.190913 -0.080622 0.139616 0.170749 0.099413 -0.002258 0.170514 0.117497 -0.007567 -0.107938 0.071982 0.056888 -0.196124 -0.26194 0.010669 -0.088583 -0.150002 -0.130138 0.032534 -0.137598 0.229632 -0.198353 -0.169498 -0.080446 0.062146 0.178675 -0.085786 0.045333 0.351146 0.017647 -0.112834 -0.26589 0.158588 0.10749 0.083361 0.012469 0.015749 -0.189159 0.056045 -0.075211 -0.032958 -0.113104 0.327623 0.138491 0.145091 -0.043904 0.157846 -0.165779 0.227562 0.323758 0.40635 -0.271217 8.78E-4 0.233559 -0.145416 -0.022165 0.165616 -0.090328 0.169329 -0.025571 -0.245328 0.119864 0.033027 0.120512 -0.202999 0.014752 -0.114389 -0.082645 -0.102057 0.054265 -0.172207 -0.094599 0.092839 0.051517 0.052226 -0.01206 -0.520008 -0.260685 0.0769 0.171251 -0.256909 0.315604 -0.030315 0.15741 -0.084769 -0.021205 0.073719 0.123786 -0.150629 -0.054079 -0.099266 -0.319265 0.03431 -0.231582 0.188865 -0.293298 -0.346842 0.017588 0.015339 -0.084068 -0.144461 -0.031745 -0.082474 -0.070373 -0.014632 -0.033608 0.171585 -0.155093 -0.025836 0.251671 -0.046684 -0.234797 -0.183422 0.308613 0.086944 0.131582 0.054228 -0.035005 0.32022 -0.284345 0.213508 -0.072248 0.167655 0.078 -0.067026 -0.110992 0.405625 -2.8E-5 -0.138513 -0.077019 0.095607 0.295802 0.168733 0.034699 -0.278506 -0.070233 0.007282 0.028711 0.007169 0.016713 0.065745 -0.073269 -0.174955 0.136819 -0.030711 -0.033596 0.157201 0.074136 0.032955 -0.121374 -0.155862 -0.049494 0.03898 -0.323795 0.13469 -0.1382 0.025904 0.090042 -0.027227 0.049245 -0.211056 -0.2214 -0.037942
queen 0.154946 0.019055 0.155917 -0.03571 -0.189862 0.020846 0.034679 -0.094748 0.014973 0.308222 0.124394 0.123383 0.001639 0.13475 0.118857 -0.12208 -0.038236 -0.082855 0.110996 -0.038309 0.263568 -0.053642 -0.019264 -0.036837 -0.031583 0.047108 0.278157 -0.094735 0.165852 -0.013271 0.157985 -0.09823 0.037027 0.080647 -0.257006 0.138745 0.151291 0.071402 0.140658 0.08538 -0.199048 0.035535 0.122449 -0.077573 -0.29622 0.132987 -0.042453 -0.019118 0.003741 -0.210855 0.115716 0.272205 -0.050668 0.132204 -0.031072 0.12742 0.251889 0.020374 -0.083731 -0.197663 0.104963 -0.17034 0.22507 0.144122 0.204186 0.001175 -0.010131 -0.084059 0.078335 -0.08644 0.168435 -0.074797 0.091752 0.314315 0.295214 0.055466 -0.061869 -0.219285 -0.05771 0.132992 -0.139332 0.180257 -0.13596 -0.139354 -0.177464 0.07808 0.160817 -0.02647 -0.316864 0.025736 0.243165 0.079216 -0.036455 0.093513 -0.053912 -0.265541 -0.040089 0.223771 -0.01641 -0.06579 0.050859 -0.157768 -0.185954 -0.025252 0.033255 -0.247963 0.046151 -0.028231 0.003487 -0.108444 0.020075 0.066106 0.041626 0.00378 0.075699 -0.102549 0.106294 0.005797 -0.049901 -0.041466 -0.156491 -0.098099 -0.01472 -0.046462 0.223723 0.111305 -0.377174 0.0271 0.111806 -0.023348 0.043645 0.223847 -0.115255 -0.029343 0.016827 0.054152 0.231829 0.114645 0.056979 0.157641 0.016697 -0.015149 0.332631 0.10653 0.217141 -0.045487 0.160721 0.119639 0.183466 0.072141 -0.050398 -0.258573 -0.220504 0.0952 0.067094 -0.064385 -0.062581 0.054284 0.215479 -0.109209 0.043119 -9.0E-5 -0.265117 -0.35394 0.14708 0.005573 0.051504 0.044707 0.009882 -0.04146 -0.079375 0.044719 0.0432 0.197613 0.103457 0.039126 0.056281 0.111739 -0.27822 -0.07428 -7.12E-4 -0.119468 -0.038288 0.11938 -0.051805 0.083343 -0.080602 -0.030705 0.044546 0.138154 0.195459 -0.064237 -0.051711 -0.008685 0.011963 -0.275725 0.255558 -0.110846 -0.009809 0.129742
wizard -0.059049 -0.119169 0.201694 0.030148 -0.080582 0.049252 -0.052319 0.112017 -0.012678 -0.032864 -0.014424 0.082692 0.020401 -0.018613 0.081778 -0.108768 -0.185676 0.011842 0.108904 0.083536 0.124647 -0.00415 -0.179804 -0.002992 0.01999 0.075772 0.053741 -0.126957 0.045624 0.084969 0.148654 -0.079526 0.101699 0.078601 -0.086851 0.075274 0.129348 0.017733 0.027085 0.05844 -0.148783 -0.007979 0.181185 0.012419 -0.1145 0.074024 -0.044737 -0.031148 -0.091044 0.068237 0.034561 0.118659 -0.070041 0.071402 -0.029696 -0.017258 0.186234 0.032373 0.073966 -0.117396 0.068019 -0.133662 0.196508 0.114831 0.045132 0.165629 -0.038002 -0.112587 -0.040922 -0.002014 0.109392 -0.166474 0.018473 0.037466 0.059988 -0.004103 -0.088195 -0.044309 0.067507 -0.001026 -0.026096 -0.085143 0.001594 -0.113623 -0.001148 0.038291 0.101149 -0.045245 -0.148838 -0.020306 0.042054 0.028822 0.046969 0.143819 0.060333 -0.103601 -0.089186 0.043595 -0.023376 -0.110219 0.035683 -0.071503 0.048567 -0.007348 -0.014512 0.031195 0.113869 -0.087455 -0.069932 -0.135332 0.043729 -0.043828 0.031333 0.072808 -0.075686 -0.0285 0.067385 0.128589 -0.140502 -0.13864 -0.052742 0.181883 0.050556 0.055986 5.11E-4 -0.086517 -0.087807 -0.089123 0.090804 -0.005149 0.060452 0.10871 0.01804 -0.05711 0.042673 0.099042 0.085728 0.112257 0.206758 0.139929 0.041465 0.068822 0.093261 0.053831 -0.025463 0.003724 0.139733 0.001912 0.005897 0.133005 0.042516 0.020648 -0.072069 -0.065311 0.139488 0.078958 -0.06065 0.098287 0.166145 0.051558 -0.047118 0.074794 -0.08603 0.018538 -0.177747 -0.058105 -0.059934 0.016688 0.007322 0.117672 -0.028421 0.052258 0.013587 0.074353 -0.039958 -0.030329 0.104245 0.15756 -0.100493 0.102792 -0.117113 -0.015558 -0.005451 -0.039429 -0.002975 0.003935 -0.116784 -0.127086 -0.005512 -0.038014 0.107069 -0.010322 -0.105606 -0.07499 -0.046558 -0.142424 0.24787 -0.174971 0.047749 0.157929
oil 0.076111 -0.452166 -0.03406 -0.046805 0.012905 -0.099624 -0.412538 0.138835 -0.106999 -0.060523 -0.068888 0.123978 0.0282 0.408993 0.0269 -0.09275 0.086501 -0.144588 -0.174994 -0.067454 -0.096962 -7.62E-4 -0.064325 -0.039761 -0.195176 -0.004904 0.41214 -0.089368 -0.107733 0.221247 0.085981 -0.131688 0.175514 0.209985 -0.360689 -0.038113 0.013034 0.021487 0.033557 0.085047 0.319058 -0.009727 0.282519 0.153555 -0.057836 -0.140044 0.319079 -0.281762 0.019082 -0.164962 -0.318959 0.326139 -0.197182 0.092736 0.02511 -0.088326 -0.367688 0.157176 -0.033193 0.038681 -0.344301 -0.108651 0.273939 0.136556 -0.096088 -0.239011 -0.132485 0.562033 -0.052249 -0.017566 0.202055 -0.011308 -0.04956 -0.051031 -0.049606 0.168388 0.257329 -0.073911 -0.038487 -0.553447 -0.006985 0.100025 0.192223 0.394087 0.05948 0.228069 -0.135885 -0.043136 0.265391 0.370071 -0.22531 -0.328925 -0.308067 -0.274333 0.033931 -0.248801 -0.353783 0.152746 0.09703 -0.085497 -0.02664 -0.027142 0.054357 0.429693 0.065586 -0.028513 0.330868 0.020377 0.108402 0.003509 0.109194 0.240997 -0.20652 0.011324 -0.027159 -0.043565 0.22649 -0.351372 -0.019772 -0.126296 0.178355 -0.139908 -0.138449 -0.002933 -0.350167 -0.269429 -0.138841 -0.214248 0.336216 0.089593 0.681576 0.047273 -0.23536 -0.285911 -0.068443 0.348929 -0.1313 -0.146814 0.335022 0.167653 0.620425 0.174018 -0.468729 -0.131831 0.121464 -0.218918 -0.144231 0.312605 -0.115647 -0.13709 -0.24076 -0.286945 0.153238 -0.102897 0.308405 0.230234 -0.139747 0.100177 -0.244494 0.007917 -0.2553 0.226474 0.349978 -0.180641 0.187716 0.009158 0.050003 0.247493 -0.078006 -0.132431 -0.432665 0.015844 -0.001829 0.085454 -0.173043 -0.26505 -0.264837 -0.328216 0.180409 -0.123119 -0.251239 0.070439 0.086465 -0.025378 0.174469 0.02678 -0.145779 0.11999 -0.152735 0.06133 0.166833 -0.228264 -0.18723 0.289332 -0.133281 0.3344 -0.39341 -0.082148 0.037197 -0.087638
currency -0.036574 -0.321515 0.094593 0.111944 0.168755 0.073297 -0.173831 0.016304 0.143029 -0.046384 0.139719 -0.08165 -0.143675 -0.155138 -0.132046 0.320502 -0.058502 0.023995 -0.205286 0.091065 0.242491 -0.166781 -0.131507 -0.154212 0.03817 0.155585 0.133081 0.058451 0.085796 0.521479 0.060063 0.319229 0.064077 0.057051 0.196362 -0.208956 0.055195 0.200739 -0.317226 0.299655 0.31643 -0.132147 0.386136 -0.088425 0.467346 -0.18188 0.270723 -0.379868 -0.045522 0.11016 0.042177 0.084933 0.056045 -0.162085 0.038798 -0.139901 -0.132224 0.305744 0.224597 0.351347 -0.015239 -0.263484 -0.040103 -0.015826 0.175227 -0.220291 0.203758 0.302175 -0.235157 0.075358 0.274321 0.112047 0.008722 0.041353 -0.039605 -0.402418 0.258968 -0.235753 -0.277093 -0.403142 -0.206348 0.254708 0.151316 0.296787 -0.051388 -0.04406 0.1043 -0.188088 0.11435 0.223651 -0.203929 -0.037575 -0.342167 -0.055447 -0.03604 -0.120257 -0.113761 0.319345 0.071416 -0.167664 -0.121444 0.038448 0.256642 0.0231 -0.093811 -0.147729 0.419415 0.002257 0.003265 0.012796 0.049203 0.185525 0.124419 0.09768 -0.430053 -0.495662 -0.033975 -0.446186 0.007471 -0.106255 -0.052339 -0.136633 -0.085082 -0.081892 0.033164 -0.045728 0.108556 0.184485 0.213435 -0.150645 0.07869 0.026565 -0.30879 -0.007508 -0.153528 0.081375 0.153222 -0.115304 -0.297746 0.079184 0.201538 -0.057445 -0.013378 0.302226 -0.0385 0.097984 -0.251261 -0.094027 5.38E-4 -0.415259 0.012219 -0.263412 0.397259 0.158633 0.303772 0.014773 -0.211335 0.351509 -0.213143 -0.275821 0.142303 -0.049319 -0.08756 -0.323876 -0.329753 0.460345 0.312646 -0.08006 0.187097 0.118845 -0.304755 0.172535 0.129434 -0.010666 -0.39889 0.04457 0.02277 -0.179085 0.005814 0.187232 0.034705 0.340371 -0.443345 0.135255 -0.078554 0.081425 -0.08377 -0.084596 0.001191 0.080241 -0.23768 0.178688 -0.255951 0.204495 0.198938 0.332864 0.00383 -0.138795 0.220109 0.23593
laundering 0.391757 -0.104085 -0.232896 -0.168991 0.056161 0.132362 -0.394591 -0.020625 0.020167 -0.34248 -0.020533 0.638115 -0.136655 -0.131516 0.503236 -0.138718 -0.027634 0.008427 -0.494912 0.100147 0.135613 0.351565 0.232235 0.070958 -0.078648 -0.283877 -0.036702 -0.029841 0.330385 0.249147 -0.218251 -0.23332 0.341923 0.534501 0.377366 0.141656 -0.208982 0.247301 0.096246 0.110784 0.216227 -0.387867 -0.082065 0.100015 0.411099 0.105254 -0.153923 -0.196165 0.019066 0.290696 0.562977 0.138489 0.533224 0.319159 0.221364 0.001725 0.345174 0.304819 -0.050762 -0.202741 -0.088393 -0.116244 -0.252548 0.037633 -0.032233 -0.293693 -0.053283 0.414596 -0.351222 -0.176973 -0.171748 0.140287 -0.149859 -0.106644 -0.010433 -0.266773 0.270586 -0.190211 -0.019094 -0.076753 -0.021476 -0.066898 0.389199 0.172377 -0.317996 0.345356 0.222222 0.154461 0.321789 0.256734 0.172745 -0.128905 -0.003382 0.169598 -0.270771 0.093865 0.016458 0.21522 0.20798 -0.210505 0.437899 0.326795 -0.06736 -0.020658 0.132552 -0.162603 0.05902 0.314957 0.279025 0.279828 0.048039 -0.206881 -0.216087 -0.034053 -0.428584 0.076348 -0.026747 -0.41861 -0.00186 -0.20543 0.007892 0.078477 -0.155862 -0.105026 0.147841 -0.060328 -0.151798 -0.068649 0.189899 0.225586 -0.334389 -0.001152 -0.262595 -0.00527 -0.252331 -0.03942 -0.265252 0.393896 0.122735 -0.399165 -0.293305 -0.1866 -0.268262 -0.372526 0.303428 -0.09462 -0.308139 -0.509314 -0.172264 0.317717 -0.081479 0.463744 -0.07246 -0.259959 -0.175244 0.075692 -0.173085 -0.035237 -0.225668 -0.061369 -0.318839 0.015596 -0.197875 0.002881 -0.092565 -0.018087 0.029624 -0.200545 0.156047 0.756332 0.084263 -0.07491 0.202294 0.021989 -0.311577 0.085225 0.472316 -0.038806 0.146496 -0.077548 0.118619 0.306571 -0.021251 -0.591027 0.093483 0.085801 0.076256 0.306698 -0.189605 -0.091396 0.577066 -0.368675 0.060588 0.3047 -0.214255 0.3081 0.004402 0.035205 -0.31125 0.116569
midday -0.034899 -0.048309 -0.182694 -0.09522 0.010833 -0.093463 0.111966 0.110348 0.20223 -0.095325 -0.245938 0.25568 -0.029543 -0.121776 -0.032432 0.087201 -0.275509 0.129041 -0.105165 -0.320448 0.163201 -0.125522 -0.107069 -0.175768 -0.24006 -0.152802 0.106555 -0.397555 -0.165121 0.303965 -0.001549 -0.316962 0.157194 -0.02655 0.113628 0.190508 -0.092991 -0.171139 0.294894 -0.258845 0.399239 0.585374 0.305595 0.106346 0.035087 -0.524329 0.330364 -0.001253 -0.277779 -0.191674 -0.379462 0.233334 -0.018171 -0.124533 0.13279 0.243146 -0.026021 -0.047874 -0.055165 0.136357 0.216886 0.001098 -0.438813 0.052134 -0.357569 -0.103547 -0.165293 0.148475 -0.392142 -0.223996 0.285823 -0.267073 -0.08412 -0.265451 -0.1858 0.154352 0.173008 6.26E-4 0.023832 0.179053 -0.1856 -0.121486 -0.256257 -0.053981 0.280605 -0.038478 -0.177204 -0.157469 0.087856 0.108346 -0.021656 -0.068328 -0.281443 -0.173262 -0.014271 -0.138648 0.029986 -0.035585 -0.302062 0.188519 -0.19256 0.030066 0.06801 0.003711 0.026426 -0.153403 -0.155205 0.037699 0.310857 -0.04543 -0.070875 0.049401 0.206914 -0.19023 -0.07976 -0.146503 -0.123558 -0.094799 3.01E-4 -0.427658 -0.146838 0.093119 0.129134 -0.19151 -0.160781 -0.065924 0.209227 0.062444 -0.164433 0.164934 0.385346 -0.129095 -0.087652 -0.248455 -0.229205 -0.164155 0.009112 -0.266336 -0.177519 -0.130677 0.21313 0.534935 -0.138922 -0.138172 -0.195972 -0.334356 0.183805 -0.452511 -0.098512 -0.031473 -0.042901 0.052566 -0.105833 0.077336 0.053843 -0.090026 0.090561 -0.387696 -0.153464 0.18233 0.019919 -0.11421 0.141958 0.165516 0.073806 0.497039 0.225425 -0.121777 0.128944 0.236651 0.017996 0.261914 -0.049025 0.110606 -0.177782 -0.180048 -0.227387 -0.202984 0.39264 0.075235 0.169924 0.174723 -0.150307 0.135499 -0.254699 -0.190521 0.135816 -0.021091 -0.146471 -0.110998 0.050911 -0.239024 -0.077125 0.221119 0.031083 0.102383 -0.10523 0.112604 0.402447 -0.284548
Arafat 0.111785 0.125233 0.120347 -0.012661 -0.01379 -0.014011 -0.239537 0.182854 -0.007413 0.118136 -0.176274 0.206359 -0.100106 0.120384 -0.049688 -0.006894 0.080907 -0.132312 -0.109386 -0.073564 0.142213 0.243895 -0.163399 -0.050886 -0.151215 -0.008327 0.134076 0.07536 -0.011276 0.032323 -0.014424 -0.003618 0.050667 0.001065 0.080743 -0.135982 -0.061747 0.006498 -0.035165 0.057779 0.106348 -0.15957 0.324758 -0.083753 0.014604 0.035351 -0.186472 0.163075 -0.094842 -0.050672 0.104744 0.007713 0.107355 0.079079 -0.112427 0.14449 0.099093 0.033545 -0.026995 -0.136103 0.10533 0.086131 -6.69E-4 0.033815 -0.030633 0.029211 -0.06582 -0.076055 0.008428 -0.197579 0.19389 0.032756 0.202534 0.002985 0.238294 0.048713 -0.062055 -0.061188 0.096386 0.289831 -0.170224 -0.143292 -0.006281 -0.390249 -0.18345 0.111934 0.06178 0.030761 0.001176 0.05473 0.373231 0.012362 -0.089363 0.05606 0.231061 -0.138884 -0.130384 -0.139169 -0.062852 -0.090338 0.048753 0.002133 -0.043151 0.101851 -0.01583 0.005762 0.311543 0.047845 0.052675 -0.114686 0.175308 0.107884 0.011542 0.044644 0.185651 0.054477 0.076833 -0.03071 -0.121828 -0.116248 0.006853 0.148218 0.061406 0.014175 0.016505 0.104384 -0.15691 0.066047 0.261702 0.046422 -0.250316 0.106891 -0.09235 0.282717 -0.006448 -0.157817 0.038819 0.172124 0.125389 0.022606 0.015264 0.024391 0.149459 -0.158831 -0.003596 -0.101883 0.157978 -0.169076 0.091183 0.237323 -0.213428 -0.235595 -0.027102 0.076858 -0.071072 -0.165841 0.070643 -0.08697 0.018857 -0.007247 0.122076 -0.012018 -0.016318 -0.25803 -0.226698 0.080534 -0.016118 -0.073984 -0.007923 -0.089617 0.099273 0.063287 -0.268449 -0.072159 -0.099888 -0.13016 0.267102 -0.048134 -0.079106 0.283025 -0.038754 -0.085345 0.031239 0.024943 0.072159 0.107774 0.027101 -0.035998 0.179736 -0.228457 0.148474 -0.13151 -0.197361 0.015622 0.143867 -0.03085 0.078199 -0.11268 0.067424 0.009907
man 0.034904 0.129235 -0.069276 -0.006479 -0.037578 0.170707 -0.066632 -0.02752 0.15559 0.031281 -0.181641 0.139957 -0.161638 0.095202 0.22213 -0.135429 -0.160688 -0.045815 0.319864 0.340961 0.202597 -0.034895 0.040425 -0.234391 -0.134362 -0.004744 0.203429 0.028797 0.293601 0.110469 -0.007804 -0.135581 0.049559 0.158058 -0.122479 -0.18059 0.018308 0.020582 0.237255 0.106499 0.022871 -0.103271 0.120742 0.111426 0.007107 0.17818 -0.35505 0.058332 0.082762 0.193359 0.123867 0.297345 0.078635 -0.005174 -0.241999 0.236937 -0.012176 0.085414 0.023505 -0.164365 0.14835 -0.076386 0.081113 0.117748 0.032604 0.166219 -0.103738 0.329487 0.008268 0.175037 -0.306536 0.114408 0.085963 -0.031501 0.064672 0.134429 -0.053286 -0.13915 -0.056261 -0.132337 -0.014871 -0.063569 0.076724 -0.194774 0.101779 -0.136409 0.139178 0.019513 0.1189 -0.198629 -0.093167 -0.034331 0.02697 0.236525 0.005781 -0.134505 -0.073636 0.120466 0.085625 0.045247 0.034615 -0.221534 0.198891 0.010365 -0.035841 -0.2312 -0.072071 -0.155651 0.105611 -0.334186 0.066734 -0.064815 -0.133897 0.337781 0.119012 0.139443 -0.17454 0.028322 -0.047645 -0.381591 -0.15034 0.009579 0.066372 -0.225149 0.016995 0.019596 -0.125145 0.112278 0.13011 -0.113977 -0.150374 0.158012 -0.293239 -0.011447 0.131833 0.154666 -0.145441 0.15199 0.154808 0.28344 -0.223405 0.011122 0.199775 -0.419608 -0.114422 0.166838 0.182218 -0.289197 0.06562 0.513077 0.15123 0.040518 -0.213919 -0.093772 0.226964 0.067676 -0.055864 0.139179 0.497665 0.133062 -0.345074 0.196072 -0.089063 0.058872 0.026167 -0.175236 0.176674 0.215576 -0.086428 0.195967 0.224155 0.111229 0.019665 -0.063668 -0.020881 -0.04442 0.07075 0.173912 0.018241 0.104659 -0.062542 -0.242995 -0.112665 0.021848 0.063513 0.041857 -0.138245 0.009418 0.015035 0.075614 -0.01019 -0.109857 -0.026096 0.027578 -0.119551 -0.068531 0.521038 -0.055313 0.094883 -0.305081
keyboard 0.157953 -0.093758 0.003096 0.038846 -0.352321 0.134503 0.142332 0.036613 0.300749 0.258054 -0.077887 0.189647 -0.261656 -0.148438 0.128433 0.348476 -0.141415 -0.036709 0.057162 0.217532 0.185179 -0.399934 -0.156598 0.016223 0.090696 0.119334 -0.036005 -0.2481 0.190913 0.080865 0.313642 -0.256616 0.169416 0.212096 -0.167497 0.03482 0.061392 0.034034 -0.151172 0.074601 -0.08489 0.040361 0.020746 0.126726 -0.062181 0.051803 0.061574 -0.164595 0.070287 0.03889 -0.259588 -0.12737 -0.258977 -0.139131 -0.332464 0.05498 0.002347 0.093883 -0.172621 -0.235205 0.007088 -0.043076 0.216731 0.297398 -0.035032 0.201328 0.169524 -0.309369 0.236373 0.061748 0.135397 -0.046381 0.101343 0.066153 -0.124146 -0.075732 -0.144239 -0.073883 0.044949 0.122199 0.072456 0.030814 0.141272 -0.102768 -0.141961 0.26929 0.200483 0.069169 -0.168912 -0.09766 0.145894 -0.063792 0.123227 0.043354 0.012927 -0.051999 0.090133 -0.091824 -0.018987 -0.061014 -0.057699 -0.395387 0.147956 -0.054779 -0.203772 -0.114582 -0.012031 -0.013367 0.105087 0.319832 -0.012599 0.126145 -0.120177 -0.256792 -0.355795 -0.06989 0.290485 -0.076501 0.382638 -0.019986 0.028225 0.035542 0.108765 0.03076 -0.016134 0.084033 -0.099081 -0.024081 -0.116429 -0.263574 -0.023675 0.231707 -0.302827 -0.382096 0.055404 0.165598 -0.270827 -0.047698 0.009179 0.225857 0.071884 -0.235809 0.205494 -0.018772 -0.213519 -0.172078 -0.014925 0.13546 -0.047547 -0.223979 0.248722 0.086943 0.010856 -0.049247 -0.156145 0.266958 -0.087424 0.135695 0.014965 -0.13765 0.090848 0.10979 -0.211536 -0.00622 0.060575 -0.026687 -0.108571 0.028931 0.04598 0.088616 -0.147817 -0.210778 -0.062215 0.183679 0.127344 -0.123625 -0.160472 -0.052317 -0.199002 0.176096 -0.132686 0.015766 -0.114865 -0.017006 0.013981 -0.047059 0.19767 -0.143168 -0.020949 -0.060579 0.050668 -0.008829 -0.138389 0.117699 -0.085663 -0.074759 0.544868 -0.36966 -0.121813 0.236911
announcement 0.040708 -0.233088 -0.318002 -0.112816 -0.178207 0.110106 -0.365405 -0.236882 0.248631 0.085024 0.071938 0.357069 0.32271 -0.007122 -0.156087 0.020861 -0.029571 0.108484 0.160345 0.142147 -0.131281 -0.166225 -0.187353 0.116243 0.020056 0.140479 0.211178 -3.34E-4 0.158527 0.225243 -0.030711 0.093557 -0.098854 -0.085599 0.043778 0.057638 -0.014184 -0.031239 -0.033169 0.417927 0.426707 -0.126901 0.134489 -0.36667 0.108114 0.056178 0.129651 -0.149976 0.145422 0.018701 0.154653 -0.032774 0.137721 0.026569 0.079237 0.151603 -0.178367 0.247562 -0.084099 0.402876 0.196091 -0.002016 0.039697 -0.18956 -0.191465 -0.055602 -0.112712 -0.230615 -0.217806 0.046381 -0.015821 -0.134094 -0.005504 0.1206 0.281858 0.198274 -0.08811 0.015094 0.328441 -0.049826 0.032058 -0.293585 0.03437 0.077151 0.260047 -0.274789 -0.059441 0.167497 -0.165246 0.190137 -0.204553 0.054207 0.084091 -0.21263 0.123819 0.064595 0.247556 -0.055793 0.05444 0.041874 -0.079158 -0.091228 0.127881 0.094137 -0.106969 0.103506 -0.094364 -0.079183 0.130135 0.074758 -0.027555 -0.009637 0.153739 0.212337 0.114359 0.062627 0.169978 -0.144569 -0.106545 0.135068 -0.016826 -0.212236 -0.062441 -0.190209 -0.434554 0.075414 -0.325809 0.051211 -0.151676 -0.376521 -0.037094 -0.14015 0.170683 0.051364 -0.00335 -0.111066 -0.112047 0.008488 -0.067834 0.147037 0.204271 0.389558 -0.083317 -0.001476 -0.1959 0.07686 0.030317 -0.165827 -0.0334 0.055465 0.064056 -0.191796 -0.141775 -0.120649 0.032814 -0.065402 0.139504 -0.147378 0.055085 0.162169 0.043015 -0.199681 -0.241198 -0.014801 -0.056666 0.226337 0.117576 -0.117052 -0.212775 -0.02118 -0.420765 0.305028 -0.175334 -0.060678 0.050203 0.120787 0.354478 0.060613 -0.026853 0.13284 -0.021387 -0.054386 0.339173 0.104773 0.173271 -0.102797 -0.01558 -0.197382 -0.030183 -0.228935 -0.244189 0.061363 0.052325 -0.206815 0.356603 0.099021 -0.317979 0.295956 0.548467 -0.261584
racket -0.054922 -0.065108 0.046028 0.14009 0.06022 0.002621 -0.110274 -0.044106 0.320101 0.084001 -0.189483 0.302369 -0.12739 0.055282 0.117211 -0.064923 -0.202343 -0.077257 0.074442 0.149147 -0.142455 -0.186761 -0.173226 -0.044736 0.101274 0.148341 0.266603 -0.073789 0.041931 -0.030436 0.077134 -0.08922 0.273166 0.143981 0.038156 0.008822 0.090312 -0.062695 0.014306 0.062067 0.141441 0.047569 0.077823 0.08429 0.028617 0.05469 0.082627 0.008383 0.197309 -0.01795 0.029958 -0.077799 -0.025921 0.091679 -0.137 0.131938 -0.009945 -0.098746 -0.136275 -0.147422 0.013631 -0.096258 0.160686 -0.01224 0.087239 0.036564 -0.143625 0.026224 0.027738 -0.057862 -0.052265 0.143176 0.070423 -0.021771 0.01457 -0.155971 -0.061691 -0.142846 0.025415 0.072603 -0.024329 -0.09959 -0.043113 -0.174596 -0.137155 0.158026 -0.116646 0.035189 -0.137908 -0.015725 -0.009461 0.033711 -0.056879 0.093939 -0.003866 -0.126238 0.050828 -0.189743 -0.003293 -0.094092 0.166741 -0.083418 0.076499 -0.08491 -0.03051 -0.202487 0.018981 -0.084867 0.066218 0.036442 -0.094314 -0.012299 -0.158946 -0.037581 -0.013024 0.063431 -0.137756 0.050564 0.035711 -0.109375 -0.116477 0.141297 -0.011019 -0.053816 7.4E-4 -0.034318 -0.064336 0.074561 0.202166 0.038496 0.059515 0.186735 -0.198251 0.034825 -0.009022 -0.12322 0.096736 -0.007227 0.102969 0.001864 -0.033414 0.049004 0.020685 -0.08512 0.112437 -0.147304 0.207459 0.074146 0.028921 0.230845 7.86E-4 -0.073461 -0.085224 0.038032 -0.116676 0.109095 -0.00614 0.080099 0.174656 0.011006 0.047555 0.067808 -0.250087 -0.071545 -0.139546 0.115637 0.162377 0.149269 0.107288 0.3046 -0.069047 -0.097637 0.132025 0.057033 0.092199 0.060059 0.130317 -0.101247 -0.017293 0.04781 -0.044174 0.019465 -0.028389 0.041843 0.007696 0.028823 -0.115114 0.041597 0.007321 -0.043937 0.179723 0.016801 -0.031987 -0.063847 0.164207 -0.012371 0.318931 -0.169066 -0.033211 0.11177
Maradona -0.031682 -0.02128 -0.002306 -0.142523 -0.135356 -0.126437 0.018488 -0.005222 0.188838 -0.013068 -0.009707 0.058635 0.162531 -0.081863 -0.234166 0.049962 0.053551 -0.014457 0.020743 -0.0979 0.165625 -0.014766 -0.070417 -0.008524 -0.034104 0.061373 0.336637 -0.096819 0.139488 -0.213078 0.042853 -0.279336 0.013858 0.001571 -0.229921 0.085316 0.162275 -0.113952 0.106788 -0.206302 -0.293051 -0.253164 -0.151864 -0.055965 0.059939 -0.039786 -0.054176 0.050378 0.027216 0.067271 0.101473 -0.092537 -0.119476 -0.096889 -0.030204 -0.143738 0.034815 0.008858 0.022247 -0.029874 -0.025496 -0.11354 0.037283 0.13 0.049935 0.023549 -0.030796 -0.052462 0.124909 -0.035278 0.096956 0.045098 0.22986 -0.053349 -0.110362 0.045937 -0.163394 -0.071355 0.041168 0.043742 -0.17433 -0.12761 -0.01494 -0.211699 0.123721 0.02176 0.017211 -0.215286 -0.244424 -0.045284 -0.198043 0.072893 -0.053056 0.03886 0.092283 -0.027464 -0.051763 -0.200753 -0.070196 -0.034285 0.19172 0.061811 -0.002643 0.156943 0.072807 -0.052988 0.033494 -0.015088 -0.106835 -0.018819 -0.252497 0.10682 -0.144542 0.206961 0.225969 0.074584 0.09845 0.234434 -0.026795 -0.070477 0.027764 0.134057 -0.119777 -0.140242 0.023411 -0.090268 -0.229388 0.031261 -0.009224 -0.003611 -0.024868 -0.03602 -0.242594 0.066767 -0.051731 -0.155519 0.15126 0.095017 -0.085003 -0.191426 -0.117887 0.015706 0.076268 -0.02408 0.033839 0.107986 0.006686 -0.097852 0.012449 0.172651 -0.044673 -0.178672 -0.039999 0.137876 -0.068064 0.012045 -0.039582 0.04583 0.261392 0.145187 0.10799 -0.050991 -0.129908 -0.124569 -0.184397 0.115703 0.092535 -0.035693 -0.090977 0.140788 -0.080015 -0.04741 0.022086 -0.094753 0.007232 0.042612 0.224253 -0.143405 0.066413 0.104237 -0.223728 -0.023516 0.119854 -0.009682 -0.009555 0.135586 -0.05798 -0.118412 -0.093883 -0.099212 0.070776 0.012852 -0.04513 -0.024061 0.10713 -0.267963 0.19137 -0.070996 0.061315 0.025684
anxiety 0.058531 0.492599 0.085222 -0.099199 -0.118026 -0.166418 0.242916 0.355918 0.019216 -0.076564 -0.166165 -0.329485 -0.104035 0.150355 -0.08041 -0.222329 -0.170497 -0.162283 -0.249642 0.319451 -0.122169 -0.24104 -0.043813 -0.015633 0.029036 -0.066864 0.132882 0.049463 -0.002638 0.566195 -0.199037 0.043814 0.345105 0.133763 -0.236569 -0.015312 -0.0891 -0.042402 -0.086808 0.123581 0.042908 0.09603 0.06502 -0.182257 -0.007503 -0.109851 0.053163 -0.047629 0.041817 0.107533 0.045911 -0.253476 -0.247498 -0.227395 -0.015382 -0.204138 -0.282601 -0.176231 -0.176005 0.122603 -0.175859 -0.187703 0.048974 -0.072211 0.071652 0.113513 -0.034286 0.213891 -0.237673 0.304281 0.084583 0.199952 -0.094269 0.222837 0.274341 -0.164739 -0.148587 -0.021596 -0.137873 -0.225011 0.037231 0.193662 -0.037383 -0.052627 0.051256 -0.2156 -0.24645 -0.184385 -0.052812 -0.19151 0.490232 0.039087 0.056761 0.131636 0.315544 -0.238261 -0.057306 -0.099243 0.138013 -0.318589 -0.254801 -0.086763 0.021118 -0.109107 0.016934 0.019632 -0.105816 -0.180139 -0.090611 0.228497 -0.142282 0.024782 -0.12283 -0.040343 0.004083 -0.118302 -0.034347 0.094728 -0.090885 0.010788 -0.051544 0.50159 -0.124663 0.024772 -0.315884 -0.068854 -0.009321 -0.09042 0.029055 -0.010149 0.307722 -0.105109 -0.01917 -0.052799 -0.220729 -0.111509 -0.442981 -0.092881 0.088156 0.101131 -0.271483 -0.069906 0.023679 0.149928 0.085579 0.097562 -0.05926 -0.103949 -0.100145 -0.335195 0.071684 -0.224264 0.199067 0.06811 -0.392418 -0.090484 0.177045 -0.063486 0.418035 -0.016859 -0.022182 -0.049993 0.179689 0.226493 -0.125572 0.126394 -0.005079 -0.023291 -0.03527 -0.122979 -0.109813 0.113928 0.221162 -0.206759 -0.213636 -0.048464 0.33788 0.111623 -0.209144 0.120063 1.13E-4 0.069378 0.010107 0.046693 -0.017816 0.055089 -0.086162 0.077475 -0.052681 0.00169 0.142039 0.004706 -0.116148 0.239691 -0.023552 0.161559 0.219258 -0.350884 0.143202 0.30434
jazz -0.068762 -0.105757 0.389818 -0.259417 -0.23674 -0.06628 0.23027 0.247986 0.181057 0.388181 -0.045372 -0.14074 0.146665 -0.119603 -0.128115 -0.185179 -5.93E-4 -0.036785 0.120595 0.036285 0.168856 -0.093136 0.280275 0.237672 -0.093883 0.202264 0.150563 -0.036915 0.328915 0.169438 0.291386 -0.07659 0.001437 0.138922 -0.137473 0.077067 0.251425 -0.082168 -0.002756 0.019551 0.037947 0.155579 0.161109 -0.001151 -0.381221 -0.118852 -0.112717 0.28353 0.006751 -0.06986 -0.005424 0.137406 -0.28711 0.087986 -0.229662 -0.212962 0.297447 0.330769 -0.085808 0.121023 0.20357 -0.087987 0.276666 0.280331 -0.026422 0.116483 0.172957 -0.262496 -0.127427 -0.141407 0.35367 -0.374559 -0.0541 0.255268 0.090282 -0.253734 -0.147884 -0.14532 0.207785 0.100316 -0.148402 0.209705 -0.116112 -0.111986 -0.140429 0.191151 0.00278 -0.089217 -0.315605 -0.054832 0.385615 0.092829 0.079947 0.16226 -0.034789 -0.35826 0.258307 -0.112645 -0.339381 -0.162158 0.129969 -0.391813 0.199817 -0.059281 -0.02963 0.146378 -0.100416 -0.129666 0.041831 -0.18607 0.038144 -0.189166 -0.085015 0.170108 0.087528 -0.161743 0.258798 -2.5E-4 0.122263 -0.167181 -0.095031 0.089813 0.237674 0.114478 -0.0086 0.058518 -0.088035 7.6E-4 0.190329 0.01865 0.169006 -0.041258 -0.155931 -0.285647 -0.026193 -0.03466 0.104555 0.150442 -0.11677 0.172362 0.00937 0.143509 0.178758 0.093344 -0.00742 0.220144 0.207231 0.062269 -0.124443 0.150469 0.024821 0.16414 -0.216481 -0.046413 0.209935 0.095736 0.021922 0.142241 -0.108414 0.121093 -0.160357 -0.044303 0.09312 -0.405698 0.100724 0.204611 -0.277915 0.074088 0.194372 0.163292 0.003877 0.208935 0.180509 0.145203 0.166803 0.082013 0.07112 0.141237 -0.395396 -0.024365 -0.064033 0.012612 -0.138119 0.037633 -0.015797 -0.005406 -0.256446 -0.037496 -0.11498 -0.102838 0.225216 -0.193194 -0.143371 0.074193 -0.147107 -0.055274 0.279936 -0.150624 -0.299919 0.290568
gain -0.045305 0.249889 0.004456 -0.074546 -0.067643 -0.306286 -0.097392 0.279233 0.057906 -0.020803 -0.08823 0.212756 0.018619 -0.055151 0.069666 0.033054 -0.159814 0.015573 -0.250269 -0.007677 -0.13197 0.029338 -0.158657 0.153448 0.042854 0.11101 -0.004551 0.140465 0.186134 0.213935 0.098103 0.362671 -0.011959 -0.040358 0.032021 0.024124 -0.280584 0.021847 -0.085601 0.20681 0.450724 0.137763 -0.033272 -0.079148 0.077706 0.223964 0.021871 -0.139985 0.102219 -0.031674 -0.065391 -0.016767 0.181736 -0.068948 0.372513 -0.249662 0.254717 0.037687 0.118722 -0.042464 -0.095063 0.04949 0.134006 0.196065 -0.108391 0.058076 -0.183667 0.127678 -0.119158 0.123514 0.02335 0.13075 0.008116 -0.239526 0.004676 0.032591 -0.099588 -0.053233 -0.052766 -0.047168 0.080634 0.379728 0.030685 -0.092795 -0.129593 -0.157904 -0.07852 0.033255 0.149546 -0.26051 0.128397 -0.248324 -0.213114 -0.181817 -0.063017 0.013951 -0.004539 -0.039793 0.121235 0.061965 -0.119992 0.181885 0.154382 -0.180572 -0.079177 0.007642 0.145279 -0.067791 -0.231221 0.213829 -0.269756 0.158584 0.102758 -0.129225 -0.068173 -0.067628 0.161649 0.045239 -0.050386 0.115431 0.035055 -0.016127 0.253199 -0.201669 -0.248741 0.039955 -0.070264 -0.017756 0.216296 -0.109427 0.047034 0.121655 -0.142566 -0.015158 -0.068675 -0.108909 0.102525 -0.078946 -0.055352 0.034228 0.185447 -0.239265 -0.010891 0.08531 -0.025502 -0.044766 -0.013786 -0.138859 0.128111 0.135968 0.17622 -0.029716 -0.077483 0.168844 -0.082605 -0.115778 -0.141659 0.109587 -0.253093 0.096118 0.080614 0.154066 -0.148729 0.042008 0.135721 0.076377 0.08381 0.076983 0.037461 -0.001425 0.056917 -0.115564 0.220887 0.028067 -0.275971 0.037002 -0.090585 0.205196 -0.276481 -0.202204 0.053768 0.542739 -0.019858 0.203727 -0.044448 -0.146251 -0.113682 -0.1773 -0.240396 -0.209209 -0.068148 -0.05537 0.035228 -0.037258 -0.070393 0.166278 0.060003 0.097027 -0.104932 -0.024305
history -0.139514 0.051123 0.050355 0.036126 -0.129732 -0.119901 -0.026668 -0.163763 -0.041166 0.386772 0.202137 -0.023644 0.152709 0.03037 -0.117332 -0.276083 0.083922 -0.186415 -0.052205 0.097885 -0.006861 -0.127367 0.056652 0.020936 0.149716 0.062953 0.216133 -0.080035 -0.016053 -0.12125 0.115817 -0.004597 0.089769 0.20317 0.106262 0.174216 0.234694 -0.012091 -0.070958 -0.051058 -0.009171 0.286115 0.078541 -0.130757 -0.052083 0.110221 -0.309664 0.233736 0.222284 -0.119449 0.145664 0.433825 0.013746 -0.243602 -0.113585 -0.159473 0.173428 0.120563 0.01346 0.157782 0.140564 -0.173861 0.539997 0.224903 -0.004639 -0.028814 0.01573 0.147154 -0.014325 0.212931 0.13916 -0.244921 0.075047 0.184477 0.08962 0.070114 -0.114703 -0.130385 -0.123882 -0.011377 -0.093724 0.138878 0.020467 0.129886 -0.364827 -8.19E-4 -0.033159 0.109401 -0.040973 -0.352784 0.036181 -0.066311 -0.103185 0.045423 -0.225389 0.147785 -0.102833 -0.03239 -0.222625 -0.094639 0.148148 -0.142018 -0.092859 -0.045936 -0.030429 0.043301 -0.053356 0.009946 0.099158 0.013822 -0.128183 -0.130184 0.006237 0.007857 0.078549 0.031499 -0.009497 0.201369 0.058861 -0.101348 0.02977 0.153936 -0.188971 -0.217608 -0.154184 0.266241 0.135082 -0.064683 -0.082143 0.073789 0.154876 0.159686 -0.09079 0.043386 -0.065939 0.161594 0.315204 0.008512 -0.006819 -0.10062 0.05288 -0.084359 0.169599 -0.032031 -0.028363 0.085214 0.051826 0.030171 -0.159251 -0.259718 -0.054324 0.014828 0.25053 -0.119482 0.185329 -0.247785 0.017804 0.219948 0.009071 0.135336 -0.167521 -0.127761 -0.224322 -0.151278 0.186013 0.228187 0.06459 -0.111174 0.170588 0.00335 -0.402232 0.051494 0.01211 -0.106836 -0.130648 0.145513 0.033564 -0.037749 -0.203519 0.019083 -0.063056 0.043428 0.0058 -0.080139 0.037025 0.152658 -0.040794 0.165167 -0.074843 -0.157193 -0.006332 0.302769 0.077977 0.074073 0.066387 0.057267 0.085705 -0.178008 -0.129144 -0.086999
bird 0.16386 0.023283 -0.21376 0.064174 0.238484 0.135183 0.264784 -0.198684 0.140355 0.214528 -0.033534 -0.034853 -0.186888 -0.18322 0.111892 -0.170737 -0.216462 0.02338 0.15156 0.194692 0.012661 -0.176088 0.151278 -0.136425 0.313772 0.104072 0.09857 -0.236541 -0.174606 -0.036055 -0.233362 0.068805 0.235116 0.216963 -0.131911 0.136482 -0.013965 -0.005809 0.02992 -0.233342 0.196691 0.07353 -0.097593 -0.053648 0.108884 0.273146 -0.072918 -0.156323 -0.003414 -0.308852 -0.308698 0.176321 0.090973 -0.14654 -0.032533 0.287181 -0.186573 -0.176823 -0.041072 0.230785 0.327599 -0.162854 0.151487 -0.037344 0.09607 0.130978 0.159334 0.14774 -0.193632 -0.070677 -0.136839 0.068288 0.090382 -0.011078 -0.006664 0.011327 -0.142004 -0.188004 -0.044719 -0.111756 0.149223 0.132932 0.203761 -0.153417 -0.29278 0.069411 0.122993 -0.189318 -0.023027 0.152529 -0.034621 -0.337969 1.76E-4 0.209377 -0.090264 0.180706 -0.120708 0.115093 0.252748 0.31008 -0.209914 -0.427837 0.110339 -0.216146 -0.241159 -0.272597 -0.157816 0.058334 -0.146345 0.093195 0.077038 -0.238104 0.065558 0.057976 0.143537 0.043802 0.006946 -0.012767 -0.296775 -0.326236 -0.011574 0.231417 -0.196591 0.01317 0.020028 0.002643 -0.30241 -0.078273 -0.47079 -0.061974 0.138818 -0.035861 -0.092173 -0.061701 -0.138482 0.189574 -0.300109 -0.219248 -0.023295 0.085166 0.108017 0.027293 0.154127 -0.057403 -0.073098 0.225223 -0.050472 0.211614 -0.008222 -0.110723 0.1009 -0.00874 -0.091798 -0.219864 -0.030401 -0.071786 0.182981 0.174274 0.254463 -0.068362 -0.083214 0.030459 0.355097 -0.172304 0.075888 0.085119 0.008681 0.33447 0.302664 -0.042697 -0.094894 -0.034538 -0.051702 0.210086 -0.043813 -0.028364 -0.019829 -0.268411 -0.03788 0.211399 0.040989 -0.052041 -0.196759 -0.126935 0.164762 0.24586 0.130456 0.115606 -0.279018 -0.079502 0.118747 -0.003237 0.067772 0.359813 0.054787 -0.247638 0.362546 -0.263969 0.142055 0.062064
possession 0.258694 -0.271336 -0.088132 -0.293438 0.081607 -0.054705 -0.360855 0.043524 0.273761 0.00807 -0.385673 0.658822 -0.307031 -0.138115 0.348512 -0.015115 -0.035596 -0.049087 -0.003141 -0.134681 0.023769 0.373357 0.13351 -0.039015 0.004902 -0.08062 0.293349 -0.220845 0.158623 -0.169796 -0.15077 0.04475 0.066943 0.012259 -0.111854 0.141464 0.004244 -0.054699 0.306138 -0.06209 0.203151 -0.321554 -0.401738 0.058146 0.559364 0.062368 -0.059373 -0.298754 0.376171 -0.056268 0.635733 -0.033617 0.397992 0.089505 -0.145236 0.311512 0.231505 -0.186267 -0.287234 -0.354331 -0.22192 -0.338528 0.065814 0.367387 0.182196 -0.076319 0.101249 0.271106 -0.154741 -0.148002 0.015472 0.266203 0.205131 0.043769 -0.069167 0.018296 -0.040815 -0.079183 0.283955 0.155276 -0.371429 -0.025646 0.305446 -0.02246 -0.45048 0.226034 0.227348 0.042493 0.144383 -0.158102 0.164961 0.040974 -0.246074 -0.189537 0.19192 0.01154 -0.05131 -0.184681 0.202617 0.00452 0.484978 0.101706 -0.08307 -0.136321 0.165115 -0.049028 0.221079 0.057474 -0.10816 0.418545 0.088747 0.092601 -0.200478 0.267249 -0.160277 0.573409 0.23453 0.094818 0.257964 -0.110379 0.096671 -0.042442 0.04548 -0.15364 -0.181416 -0.122525 -0.011228 0.067319 -0.027713 0.234067 -0.217756 -0.032406 -0.375372 -0.054606 -0.334675 0.052015 -0.253064 0.200341 -0.002039 -0.313981 -0.463808 -0.398423 0.073531 -0.203536 -0.115943 0.040139 0.052917 -0.317095 0.200006 0.242618 0.180895 0.433165 0.03124 -0.209424 0.100106 0.073264 0.046769 0.039242 -0.170235 0.326213 -0.122384 -0.006356 -0.373067 -0.085388 -0.465189 -0.075693 -0.016488 -0.143986 0.325554 0.535257 -0.104954 -5.93E-4 0.076226 -0.118959 -0.011804 -0.070277 0.034289 -0.107957 -0.26401 -0.245915 0.246972 0.123846 -0.205649 -0.366619 -0.050079 -0.194466 0.310068 0.04715 0.06073 -0.186429 0.406655 -0.161095 0.26724 0.265354 -0.002701 0.234167 0.184967 -0.217055 -0.142582 -0.077281
yen -0.493797 -0.449457 0.163478 0.167952 0.227221 -0.189834 -0.27821 0.461327 0.033863 0.100801 0.115332 0.240143 -0.508248 -0.051721 -0.194217 0.557 -0.163051 0.284908 -0.011658 -0.01416 0.494791 0.073324 -0.100076 -0.243242 0.030998 0.344958 -0.054818 -0.393948 0.280555 0.725396 0.463508 -0.074543 0.118028 0.330956 0.429996 -0.1341 -0.238435 0.367833 -0.021895 0.275387 0.968507 0.399532 0.350991 -0.425142 0.262264 -0.351386 0.675496 -0.439103 -0.097778 -0.069176 -0.109971 0.100843 0.215162 0.025893 0.427425 0.191645 -0.027283 0.263348 0.258434 0.522547 0.032243 0.095022 -0.156097 0.429709 -0.225618 -0.171529 -0.445993 0.164943 0.154577 0.117901 0.557102 -0.119488 -0.37677 -0.194392 0.044053 -0.142135 0.234733 -0.287781 -0.231486 -0.109484 -0.111728 -0.056899 0.123107 0.006283 0.036424 0.123603 0.259757 -0.542299 0.61063 0.33541 -0.820097 -0.500954 -0.949182 -0.050498 -0.053465 -0.109586 0.371575 0.318305 -0.10403 0.138371 -0.244895 0.324298 0.26349 0.048599 -0.449229 -0.425023 0.267437 0.137383 0.057071 0.316811 0.354804 0.38625 -0.172867 0.012009 -0.27164 -0.558527 -0.014244 -0.294032 -0.206048 -0.055271 -0.007233 0.236364 -0.208936 -0.49733 -0.421748 -0.088146 -0.027503 0.312114 0.27649 -0.142731 0.124516 -0.118966 -0.438031 -0.013163 -0.05539 0.199797 0.063959 -0.597437 -0.059399 0.31743 0.322887 -0.029301 -0.528462 -0.032409 -0.322841 -0.169532 -0.023946 -0.14733 0.304604 -0.209505 0.514229 -0.081582 0.452148 0.456322 0.098615 0.023481 -0.042597 0.282593 -0.066455 0.080155 0.381007 -0.058002 -0.222456 -0.014356 -0.36522 0.726423 0.490397 -0.185884 0.321279 0.020908 0.423827 0.135832 0.245549 -0.227029 -0.274111 0.206884 0.023732 -0.007924 0.01944 0.30947 -0.047653 0.687143 -0.537236 0.391129 -0.225267 0.128407 -0.328497 -0.446273 -0.189853 0.1009 0.226871 0.251176 -0.062495 0.348604 -0.423995 -0.151299 -0.226966 0.269001 0.27198 -0.100395
chemistry 0.307236 0.079127 0.053513 -0.033186 -0.026787 0.07002 0.105614 0.378883 0.225886 0.283594 -0.001328 -0.103442 -0.073097 -0.074406 0.029688 -0.26452 -0.195309 -0.053359 -0.014381 -0.016037 -0.096425 0.07829 0.234033 -0.085049 -0.008933 -0.194306 0.066772 -0.063643 0.026383 -0.225943 0.14729 -0.02648 0.243441 -0.027122 -0.317779 0.084814 -0.04658 -0.024498 -0.036498 0.100102 -0.099334 -0.051053 0.104684 0.001534 -0.113903 -0.171399 0.224078 0.177841 0.062942 -0.334849 -0.010747 -0.11215 -0.211782 -0.122602 -0.042931 0.031662 0.158495 0.091216 -0.002467 0.241966 -0.188297 -0.25311 0.232941 0.075389 0.018063 0.312249 0.156194 0.022475 -0.188494 0.086604 0.256502 -0.132085 -0.008186 0.013814 0.249235 -0.142012 -0.205892 0.109016 -0.230492 -0.125733 -0.101061 0.155427 -0.157551 -0.028115 -0.047263 0.151854 -0.003045 0.011558 -0.076073 -0.10883 0.12317 0.098071 -0.102634 0.084539 -0.054235 -0.083523 -0.077346 -0.305643 0.131285 -0.025699 0.085297 -0.053542 -0.008863 -0.158483 0.034272 -0.182159 -0.124751 0.090653 -0.211374 -0.019177 -0.12911 -0.063381 -0.090864 0.050728 -0.166584 -0.059861 0.271405 0.353523 -0.01442 -0.100601 -0.032293 0.01646 -0.277461 0.032327 -0.03191 -0.049034 0.14578 -0.032524 -0.204443 -0.108381 0.059138 0.093465 -0.158584 -0.153351 -0.049698 0.23555 -0.029241 -0.09228 0.162346 -0.014761 -0.035508 -0.05706 0.020049 0.137472 -0.189169 0.004355 0.143569 0.135449 -0.352662 -0.283632 0.188344 0.007413 -6.48E-4 0.028224 0.197037 0.108476 0.005019 0.113412 0.019099 -0.003108 0.158236 -0.056137 -0.116798 -0.168435 0.115814 -0.125455 0.05249 0.14287 0.133606 -0.163993 -0.120604 -0.213063 0.105413 -0.067098 0.14341 0.146233 -0.267138 -0.04978 0.083955 -0.207898 -0.185532 0.199924 0.167025 0.016859 -0.086256 0.285301 0.075574 0.114051 0.037215 -0.032386 0.086204 -0.002718 -0.171785 0.244035 -0.042761 0.043925 0.074531 -0.297129 0.080917 -0.035527
library 0.04792 -0.011128 0.03156 0.043214 -0.325139 0.145184 0.075924 0.09905 0.132196 0.205803 0.186933 -0.136356 -0.038174 0.037302 -0.051017 -0.163339 -0.151861 0.015433 0.009297 -0.061812 -0.003855 -0.061632 0.040761 -0.072633 -0.093275 0.071214 0.086522 -0.143618 0.077464 0.00171 0.169869 -0.164313 0.012911 0.110989 0.050995 0.004897 0.042678 -0.043018 0.232507 0.038736 0.041039 0.090558 0.014649 0.176158 0.031205 0.016882 -0.173671 -0.05208 0.186371 -0.294965 0.052267 0.171806 -0.231956 -0.006157 -0.026821 -0.01588 0.312119 0.265656 -0.137283 0.016967 0.179899 -0.040497 0.484514 -0.045363 -0.193912 0.272997 0.158195 -0.167287 -0.012449 -0.063059 0.003538 -0.301254 -0.199688 0.121844 0.045185 0.107708 0.277972 -0.025087 -0.013323 0.079356 0.067934 0.129294 -0.220241 -0.099988 0.110025 0.179032 0.026294 0.286557 -0.057155 -0.106541 0.350515 0.046065 0.096243 0.227915 -0.074136 0.162927 0.108377 0.072123 0.026778 -0.022064 0.433862 -0.031663 0.115923 -0.089752 -0.012964 0.029663 -0.023537 -0.150203 0.155101 0.020634 -0.080867 -0.167276 0.169932 -0.317488 -0.148566 0.082574 0.086833 -0.145528 0.167887 -0.073037 -0.067191 -0.237372 0.132209 0.226831 0.273268 0.063994 -0.228005 -0.19699 -0.04354 0.051211 -0.036915 -0.088225 -0.192774 -0.156518 0.058334 0.011308 -0.093522 0.199735 0.042427 0.284807 0.139114 -0.059334 0.025071 -0.244126 0.001677 0.053184 0.222162 -0.038011 -0.030852 -0.129765 0.084296 -0.012883 -0.05182 0.107144 -0.130046 0.191649 -0.112964 0.190051 -0.039918 0.0164 -0.040616 -0.014074 -0.105805 0.138819 0.039691 0.039034 -0.186292 0.179829 0.106499 0.102995 -0.242679 -0.073264 0.109152 0.290208 -0.018768 -0.060755 -0.136227 0.107476 -0.128489 -0.094292 0.206101 0.092815 -0.081862 -0.008864 -0.021248 0.145806 -0.060956 -0.08744 -0.185158 -0.084259 -0.26234 -0.061142 -0.029624 0.091622 -0.071236 -0.189625 0.164571 -0.136622 -0.050868 0.031187
virtuoso 0.009795 -0.135729 0.149196 -0.018604 -0.094338 0.048952 -0.12835 0.166206 0.121424 0.14325 -0.016225 0.113298 0.030394 -0.068335 0.110525 0.025038 -0.044376 0.078779 0.069073 0.085342 0.080676 -0.115982 -0.031128 -0.028396 -5.97E-4 0.046622 0.046608 -0.130137 0.152978 -0.078095 0.22619 -0.06298 0.055986 0.087803 -0.05038 -0.02671 0.099982 -0.007608 -0.026589 0.083651 -0.013035 0.00655 0.153983 -0.123304 -0.172987 0.047621 0.061792 0.004819 -0.058327 0.042425 -0.119316 -0.070043 -0.147903 0.048083 -0.050348 -0.010322 0.024933 0.084575 -0.11142 -0.063045 0.10132 -0.03185 0.139237 0.15495 -0.008269 0.125026 -0.004866 -0.037954 0.022401 -0.026385 0.044592 -0.144676 0.137489 -0.016804 0.125198 0.06763 -0.084099 -0.077124 0.061657 0.068951 -0.097915 -0.045065 -0.080393 -0.08339 -0.14186 0.041282 -0.033435 -0.110561 -0.084322 -0.032175 0.171307 0.042429 0.01729 0.104053 -0.005703 -0.049243 0.060902 -0.017071 -0.153187 0.001436 0.024188 -0.128538 -0.02217 -0.131783 -0.046126 -0.048671 -0.009641 -0.045094 -0.105379 -0.099098 0.057185 0.03253 -0.081413 0.065625 0.009832 -0.022315 -0.039591 0.038092 -0.023721 -0.04312 -0.01162 0.134878 -0.001161 -0.013101 0.083433 -0.110143 -0.08093 0.053999 0.052254 -0.020245 0.013408 0.021791 -0.075891 -0.142932 -0.026639 0.016695 0.006289 0.083873 0.089355 0.031904 0.053153 0.016858 0.0854 -0.04353 0.05499 0.040616 0.023511 0.076012 -0.101357 0.133243 0.021646 0.009611 -0.051789 -0.050947 0.119138 0.114045 -0.077094 0.063344 0.151913 0.015772 -0.011011 0.030847 0.058274 -0.109691 -0.053884 0.106429 -0.002583 -1.02E-4 0.017431 0.062317 -0.056115 0.005284 0.017548 0.1149 0.012629 0.025863 0.080819 0.046407 -0.019229 0.047153 -0.15162 -0.051868 -0.065859 0.01386 0.035489 0.041691 0.061018 -0.172607 -0.045356 -0.00755 0.166425 -0.042869 -0.054537 0.063095 -0.043465 -0.021146 0.310452 -0.176886 0.027271 0.206832
psychiatry 0.138182 -0.048688 0.082484 -0.008888 0.032728 0.208219 0.06178 0.122702 0.067345 0.105458 -0.051086 -0.030068 0.046045 0.125353 0.106987 -0.028996 -0.036426 -0.182524 0.062716 -0.12743 0.035603 0.125316 0.35733 -0.025814 -0.277648 -0.185615 -0.029081 -0.110206 0.05387 -0.257464 0.10682 -0.13048 0.21156 0.070368 -0.024145 0.118303 -0.07964 -0.048995 -0.120704 0.004882 0.169907 0.021314 0.051121 -0.125012 -0.041024 0.009098 0.071017 0.14646 -0.083617 -0.04794 0.038789 -0.033354 -0.141238 -0.128598 0.001701 0.079086 0.153158 0.180575 -0.001999 0.217662 0.026773 -0.349842 -0.046312 -0.017126 -0.026687 0.367756 0.140087 0.078314 -0.024687 -0.086304 0.244782 -0.230205 0.14423 -0.158694 0.341285 -0.065662 -0.013914 -0.057631 -0.161107 0.219178 -0.039525 0.062424 -0.118673 0.009487 0.073461 0.046038 -0.037878 0.117086 -0.011111 -0.061331 0.360372 0.226887 -0.220164 0.251825 -0.063827 -0.023628 -0.117036 -0.139381 0.032914 0.019764 0.057109 -0.164848 -0.044116 -0.027209 0.061494 0.014489 -0.18848 0.018002 -0.156186 -0.116123 0.117666 -0.153821 -0.170561 0.146559 0.067261 0.066479 0.114772 0.067855 -0.272993 -0.178965 0.001966 0.064233 0.058343 0.09164 0.057779 0.07158 0.019553 0.053649 -0.204877 0.071225 -0.009564 0.073092 -0.104743 -0.073588 -0.102078 0.090015 -0.014494 -0.024538 0.228079 -0.033124 -0.037732 -0.089531 0.098666 -0.024419 0.082823 -0.140725 0.195962 -0.023842 -0.215157 -0.223501 0.075518 -0.001915 0.076976 0.065733 0.113591 -0.068437 0.024682 0.080905 0.002284 -0.06314 0.051453 -0.051501 0.002481 -0.192599 0.040845 0.022008 -0.026533 0.104415 0.107982 0.019754 0.070105 0.094193 0.013254 -0.075983 0.238993 0.085396 0.044427 0.095915 0.027037 -0.001631 0.055842 -0.049753 0.103896 -0.04467 0.061581 0.165219 0.169952 -0.021835 0.096851 0.002141 -0.067259 -0.215872 0.029209 0.167633 -0.00917 0.018296 0.087118 -0.169222 -0.011657 0.113511
change 0.055345 0.055334 -0.046085 0.05061 0.059884 -0.259915 0.084627 0.206401 0.223362 0.110068 0.18041 -0.213986 -0.254634 -0.072844 0.188027 0.206723 -0.199246 -0.11746 -0.136442 0.004601 0.048881 -0.066895 -0.055579 -0.020563 0.182191 0.140372 0.005234 0.263104 0.338015 0.025371 -0.172652 0.066251 0.260897 -0.07356 -0.109966 0.217998 -0.107723 0.145546 -0.013047 0.426006 -0.347392 -0.046422 -0.105168 -0.211444 -0.050914 -0.18015 0.012493 0.317246 0.05525 -0.198876 -0.036318 0.064879 0.123863 -0.033424 -0.240991 -0.107944 -0.267337 -0.143955 -0.054953 0.357821 0.085172 0.269387 0.152989 -0.029337 0.369448 0.159666 0.116221 0.056312 -0.18779 0.295583 0.093024 0.10755 -0.353585 0.231614 0.04446 -0.248063 -0.136032 0.086661 -0.040365 -0.014005 -0.009233 -0.143517 -0.008247 0.132952 0.226173 -0.12724 0.043339 0.087343 0.107322 -0.050785 -0.052416 -0.105354 0.054063 -0.347124 0.25036 0.070819 0.151789 -0.165742 -0.010143 0.098585 -0.005026 0.062528 -0.143264 -0.118396 0.049701 -0.063528 0.223982 -0.048453 0.119385 0.198088 0.02022 -0.002344 0.317622 0.067639 0.012269 -0.132468 0.167747 0.242699 0.218664 0.131719 -0.057084 -0.036317 -0.219903 -0.205857 -0.117119 -0.002583 0.0778 -0.169012 -0.011868 0.09006 -0.111902 0.012002 -0.24353 0.082637 4.23E-4 -0.071425 0.186919 0.00977 0.046694 -0.126368 0.036292 0.104108 0.072262 0.153757 -0.399849 0.090074 0.010424 -0.045495 -0.0192 0.009822 0.150199 0.069511 0.137238 -0.046909 0.022391 0.133063 -0.045864 -0.040828 0.149215 0.154283 0.146188 -0.030408 0.256597 -0.168443 0.193805 -0.097221 0.224333 -0.027344 0.056309 0.103467 -0.145911 -0.0333 0.098523 -0.046655 -0.334222 0.199988 -0.133882 0.191422 -0.186336 -0.158662 -0.160545 0.182038 0.361683 -0.230369 0.090523 0.42235 -0.232363 0.107211 -0.204479 -9.02E-4 -0.188534 -0.196257 -0.105371 0.064617 -0.557015 0.191375 -0.208265 0.018508 0.189479 0.023049
entity 0.130798 0.065439 -0.062749 -0.089765 -0.108552 0.112071 -0.389307 0.169956 -0.195168 0.054224 0.27885 0.275857 -0.042729 -0.136344 0.107861 0.267196 0.102489 -0.208441 -0.15738 0.026267 -0.055449 0.0248 0.212131 -0.01636 -0.070116 0.051072 -0.113826 0.112247 0.265773 0.041321 -0.013361 0.02653 -0.073234 -0.042977 0.123062 -0.210152 -0.004681 0.077682 -0.323803 0.195316 0.169005 -0.120976 0.262059 0.009757 0.114975 -0.002677 -0.13836 -0.03275 0.166942 0.07635 -0.032998 0.108541 0.273241 -0.125076 0.12357 -0.211717 0.007719 0.040742 -0.066198 -0.023249 0.130046 0.017497 0.269781 0.226412 0.04297 -0.11558 0.176467 -0.148475 -0.018122 -0.122363 0.032596 -0.010752 -0.316407 0.135453 0.069615 -0.067234 0.136995 -0.021824 -0.152138 -0.333184 -0.130011 0.396063 -0.108953 -0.030588 -0.047648 0.240339 -0.028505 0.172445 0.040588 0.1215 0.062177 -0.10669 0.124053 0.040046 0.120733 0.001268 0.101576 0.037701 0.092232 -0.029971 0.20365 -0.108253 0.013364 0.034101 -0.123532 -0.05782 0.012946 0.152354 -0.00502 0.146945 -0.08884 -0.022328 0.112032 -0.156097 -0.195781 0.001045 0.245626 -0.297094 -0.026186 -0.029757 0.004005 -0.302431 0.134309 0.200698 -0.168322 0.143154 -0.025979 0.039693 -0.219366 0.138381 0.074598 0.208523 -0.284035 -0.018031 0.181167 0.194893 0.10466 0.050352 -0.05408 0.188539 0.007132 -0.044783 -0.0482 -0.055098 -0.128916 0.081631 -0.320391 -0.216107 -0.114974 0.09247 -0.066327 -0.146121 0.326715 -0.180284 -0.086964 0.033082 -0.270798 0.172436 -0.102906 -0.252156 0.159813 0.082326 0.024465 0.382886 0.072017 -0.105013 0.109479 0.096154 0.095156 0.041853 0.028349 0.090003 -0.078458 -0.059597 0.007512 0.268128 0.037496 0.006267 -0.052178 0.016894 -0.058462 0.012091 0.097223 -0.047072 0.352444 -0.089887 -2.59E-4 -0.069947 0.071101 -0.133583 -0.006188 -0.130083 -0.282397 0.022046 0.133049 -0.078094 0.022658 -0.119456 0.062603 0.136097
