432 200
president 0.159196 -0.125401 0.009297 -0.140621 -0.152777 0.023831 0.160655 0.151811 -0.256211 0.069635 0.205795 0.103936 -0.027444 0.007348 -0.18547 0.15505 0.05818 -0.020116 -0.172513 -0.008932 0.032638 0.087647 0.003091 -0.133992 0.134915 -0.052677 0.113756 -0.091292 -0.050555 0.031279 0.316804 -0.192795 -0.170265 -0.175413 0.143888 -0.257869 0.273222 -0.108659 -0.377146 0.261142 -0.112684 -0.101835 0.056857 -0.080056 -0.126554 -0.040663 -0.338664 0.233055 -0.100693 -0.353024 0.003198 0.320912 0.143828 0.41473 -0.270391 -0.198221 0.375446 0.252542 -0.21716 -0.085483 0.031142 0.038212 -0.22846 0.184926 0.063197 0.234125 -0.051637 0.013228 0.268622 -0.212007 0.319653 -0.243651 -0.08743 -0.288537 0.455124 -0.102781 0.39598 -0.263996 -0.193027 -0.218402 0.143943 0.244046 0.067647 0.05559 -0.157467 -0.193809 -0.199473 0.233787 -0.06486 0.123169 0.204765 0.363433 0.08008 -0.112392 0.137778 -0.062973 -0.292473 0.200092 -0.121469 -0.298924 -0.05496 0.311601 -0.217862 -0.189815 0.226034 0.006195 -0.070572 -0.009453 -0.054937 0.197591 0.323103 -0.013027 0.165031 0.05567 0.055804 0.002144 -0.059609 -0.139084 -0.457631 0.523214 0.339991 0.042347 0.276376 0.216827 -0.177052 0.016051 0.079128 0.156796 0.270063 0.100526 -0.141547 0.135093 0.09625 0.338495 0.043704 0.243719 -0.078534 0.06469 0.204628 -0.183761 -0.16355 0.178848 -0.538743 0.065392 0.043706 0.390295 0.077087 -0.218706 -0.110007 -0.149568 0.048025 0.071852 -0.152181 -0.081071 -0.103332 -0.04151 -0.140555 -0.018688 0.102104 -0.260363 0.046685 -0.100096 -0.359125 -0.478957 -0.083391 0.068231 0.033261 0.247403 -0.124896 0.001062 0.054059 -0.163018 0.04214 -0.048378 0.156502 -0.093161 -0.08328 -0.137618 0.222951 0.036189 -0.133016 0.361125 0.115203 0.16395 -0.140069 0.230742 -0.148593 0.040517 0.131898 -0.48252 0.165906 0.035205 -0.31895 0.328205 -0.166227 0.061992 -0.108927 0.384854 -0.155422 0.039089
monk 0.198636 0.105041 0.001416 -0.021274 0.131634 -0.111483 -0.014108 -0.116193 0.145331 -0.022619 -0.020338 0.060186 0.040114 0.069777 0.00664 -0.186187 -0.210365 0.157132 0.02977 0.012218 -0.07967 0.097332 -0.038509 0.029355 -0.031672 -0.01836 -0.003166 -0.181437 -0.13145 -0.097347 -0.177964 0.12942 -0.102427 0.052386 0.052499 -0.094366 0.037797 -0.111391 0.14446 -0.042088 0.273276 -0.002816 -0.007765 -0.150343 -0.005586 -0.118376 -0.066277 0.106322 -0.065571 0.090703 -0.07847 0.154317 0.099045 0.04765 -0.103169 0.013535 0.125043 -0.036818 0.01067 -0.025728 0.114509 0.007597 -0.187386 -0.300853 0.235551 0.049023 -0.117543 0.178331 -0.052733 -0.128217 0.070123 -0.119387 0.022763 -0.046691 0.191405 0.00477 0.052725 -0.116857 -0.131569 0.077181 -0.052281 0.021131 0.085159 0.07853 0.170314 0.004419 0.065223 0.094785 0.029851 -0.020918 0.181599 -0.02104 -0.026805 0.062192 0.05015 -0.082158 -0.022642 -0.049827 -0.07863 -0.01954 0.289767 -0.115605 -0.130479 0.025121 0.051338 0.047112 0.031269 0.07716 0.015987 -0.054615 0.037486 -0.078031 -0.070797 -0.121354 0.076322 0.058889 -0.072954 -0.028397 0.179776 0.116474 -0.052014 0.200812 -0.110369 0.040706 0.010499 0.213069 -0.108578 -0.071167 0.163922 -0.016571 -0.056911 0.061284 -0.084149 0.092593 0.04842 -0.077783 0.098361 0.063771 0.112872 -0.146226 0.006095 -0.054398 -0.012315 -0.039716 0.002708 0.123751 0.09084 0.036104 0.020024 -0.082037 -0.114637 0.023206 -0.12729 -0.012471 -0.003944 0.071361 -0.007439 -0.132714 -0.145684 -0.249639 0.097678 0.007299 -0.069395 -0.151927 -0.150213 0.084804 0.121329 -0.006836 -0.070468 -0.056308 0.064441 -0.020044 0.143462 0.109709 0.003645 0.155652 -0.054761 -0.012037 -0.019396 -0.097072 -0.005934 0.13025 0.112358 0.139503 0.034545 0.075717 0.04669 -0.071618 -0.120579 -0.221328 0.015204 0.024901 -0.031465 0.099293 0.018473 -0.015159 -0.007862 0.080156 0.062611 -0.019197
chance -0.268798 0.225486 0.285343 -0.002028 0.002997 0.024563 -0.174371 0.093712 -0.026645 0.336191 -0.15552 0.281865 0.066627 -0.05736 0.058461 -0.176146 -6.92E-4 -0.279598 0.006403 0.023222 0.149599 0.159279 0.184634 -0.193429 -0.167594 0.08421 0.042499 -0.134202 0.208429 -0.457587 0.094229 -0.032269 0.067478 -0.068262 0.061388 0.048724 0.531284 0.137356 0.019413 -0.07613 0.003799 0.007787 -0.094481 0.126488 0.066656 -0.067671 -0.22171 0.096821 0.059462 -0.069921 -0.297086 -0.284807 0.22109 0.305024 -0.094045 -0.164071 -0.168169 -0.092223 0.077806 -0.21927 0.087774 0.196619 -0.314527 0.121549 -0.407866 -0.052074 0.367632 -0.005159 -0.189962 0.083043 -0.19427 -0.007444 -0.130796 0.369926 0.080372 0.251436 0.21973 -0.125715 -0.064431 0.006443 -0.236342 0.110642 0.044642 0.098162 -0.08815 0.20441 0.093965 0.014501 0.173204 -0.001353 0.220326 -0.023932 0.016784 -0.193532 0.225466 0.068883 -0.118571 -0.178321 0.026195 0.020102 -0.059709 0.398594 0.137232 -0.002383 0.026425 0.039542 0.054633 0.038034 0.165257 -0.06863 -0.174023 -0.118017 0.224066 -0.047195 -0.241411 -0.092542 -0.319773 0.222601 0.084849 -0.142759 0.41644 0.049294 -0.103521 0.294711 -0.017038 -0.023736 -0.150015 0.156226 0.20769 0.112046 0.246465 -0.170203 -0.369628 0.111786 -0.553762 -0.05298 0.295035 0.232139 0.028254 -0.047117 -0.076227 -0.167942 0.085395 -0.051589 0.060463 0.34478 0.048851 0.237055 -0.051181 -0.213662 0.018404 -0.371408 0.26861 -0.211816 -0.012988 0.010091 0.038839 -0.415154 -0.134235 -0.183126 0.210315 -0.013505 -0.205064 -0.094741 -0.214875 -0.195822 -0.433146 0.260643 -0.04701 -0.110267 -0.131028 0.340803 -0.202086 0.043495 0.106072 -0.074478 -0.054233 -0.186589 0.094417 0.186049 -0.157436 -0.023556 0.092249 -0.52513 -0.030306 -0.088181 -0.183047 -0.163444 0.018696 0.204439 0.365012 0.196233 -0.067688 0.117828 0.30045 -0.097016 0.412484 0.217902 0.053259 0.019873
party 0.172335 0.170085 0.194027 -0.159411 0.047537 0.180767 0.221584 -0.136144 -0.019996 0.036369 0.088967 -0.058005 -0.081708 -0.217519 -0.066843 0.057765 -0.139789 0.174635 0.139031 0.229592 0.016259 0.104216 0.077301 -0.014475 0.059557 0.327179 0.010342 -0.5077 0.330036 -0.232367 -0.284204 3.78E-4 -0.176428 -0.001935 0.091347 -0.201336 -0.159388 0.119838 -0.069807 0.020897 0.089583 0.07638 0.093065 -0.108861 0.028528 0.007743 -0.280776 0.248539 -0.053262 -0.064539 0.131781 0.116751 0.206318 0.143066 0.317709 -0.009544 0.339204 0.11045 -0.061713 -0.096091 0.353306 -0.131249 0.199079 -0.164208 0.216142 0.130242 0.178701 0.307378 -0.282312 -0.008257 0.27257 0.154698 -0.309693 0.345817 -0.006373 0.054126 -0.035346 -0.067028 -0.127742 -0.040436 0.006812 0.21594 0.236588 0.053966 -0.133622 0.169741 0.056877 0.033416 0.015458 -0.02595 -0.05672 -0.253755 0.132411 -0.191051 0.135146 0.101586 -0.238743 0.101622 -0.225236 -0.019337 -0.106313 -0.093011 -0.107066 0.210711 -0.136756 -0.077656 -0.045365 0.254458 -0.085865 0.115683 0.084611 0.109082 0.155854 -0.094132 -0.16079 0.328751 -0.089915 -0.051137 -0.047535 -0.06595 0.129049 0.189428 0.185017 -0.141289 0.332008 0.153158 0.049968 0.518477 -0.122544 0.012651 0.045428 0.496908 0.034622 0.144046 -0.157126 0.170319 0.215712 -0.087043 0.256157 -0.167811 -0.267848 0.257079 0.280556 0.108862 0.302417 0.283184 -0.039881 -0.161086 -0.063339 -0.032238 -0.050742 -0.227916 0.027062 -0.132677 -0.050536 0.427165 -0.136209 0.02693 -0.021872 0.029646 0.20376 -0.329062 -0.237093 -0.189552 0.096264 0.312702 -0.008105 -0.038644 -0.055759 0.150278 -0.186615 0.076923 0.219203 0.091853 0.024019 0.192618 0.025986 -0.243438 0.169129 -0.259347 -0.155587 -0.044138 -0.216358 0.288359 -0.307234 0.067089 -0.020856 -0.229902 0.208722 -0.092285 -0.137629 -0.032602 -0.068462 0.048632 0.235714 0.204448 -0.02223 0.480226 0.098117 -0.111475
psychology 0.121383 0.258891 -0.259907 -0.157648 0.056502 -0.156189 0.114746 -0.161891 -0.041215 0.098216 -0.261489 -0.101867 0.035449 -0.219016 0.177347 -0.057032 -0.103045 -0.057233 0.139739 -0.221745 -0.026842 0.087427 0.176386 -0.118242 0.125373 -0.197089 0.080847 -0.033681 0.056807 0.355671 0.022866 0.177066 0.117906 -0.179651 0.082621 -0.086631 0.049068 0.116907 -0.101041 0.026515 0.044904 -0.184002 -0.150034 0.027864 -0.024543 0.163647 0.367555 0.101056 -0.21163 -0.075075 -0.186561 -0.004543 0.088706 0.183286 -0.118112 -0.132538 0.059171 -0.071444 0.025308 -0.18983 0.108425 -0.028623 -0.221519 -0.124764 0.120283 0.099075 -0.088425 -0.156927 0.144132 0.006439 0.02487 -0.211102 0.028186 0.187611 0.177685 0.023378 0.149287 -0.174985 0.142638 -0.145787 -0.029913 0.100205 0.052147 0.069571 -0.117316 0.081246 -0.081952 -0.096782 -0.150729 -0.159929 0.246128 -0.003498 0.379585 0.338175 -0.003887 0.005862 -0.144037 -0.169762 0.108427 -0.018895 0.160286 -0.219299 0.095574 -0.11041 -0.114837 -0.093793 0.053749 -0.083168 -0.046702 -0.280267 0.148381 0.021616 -0.024911 0.150869 0.030215 -0.029617 -0.048963 0.099327 0.023865 0.24744 0.179543 0.32482 -0.23303 -0.090457 -0.013736 -0.024688 -0.127274 -0.149094 -0.004522 -0.338594 -0.151608 0.147804 -0.109807 0.055273 0.075581 0.0185 0.306451 0.131189 0.311 -0.111538 0.42295 0.011831 0.030214 -0.121259 0.234394 0.122506 8.48E-4 0.194191 0.141654 -0.037303 0.165025 0.024322 -0.023794 -0.009658 0.063443 -0.046329 0.132366 0.045308 0.164556 -0.226513 0.093584 -0.134035 -0.021276 0.057303 0.104196 0.174583 0.107973 0.175627 0.23644 0.094638 0.051659 -0.125135 0.069603 0.248256 0.102336 -0.00995 0.225616 -0.254744 -0.019161 0.027846 -0.013552 -0.018641 0.194219 -0.076665 -0.102807 -0.023449 0.116844 -0.065916 -0.006498 -0.007477 -0.037202 0.017413 0.100598 0.110493 0.189086 0.071311 -0.085688 0.217905 0.363533 0.058928
government -0.178035 -0.076785 -0.193268 -0.192369 0.168213 0.282308 -0.033311 -0.1594 -0.182085 0.107369 -0.016529 0.230718 0.106374 -0.212536 0.180835 -0.196398 0.021058 -0.240911 -0.033563 -0.01058 0.056143 0.023985 0.118429 0.011104 0.057749 -0.13977 0.081474 -0.087589 0.108416 0.319425 -0.192816 -0.124556 -0.020981 -0.424749 -0.001328 -0.179693 0.062336 0.151725 -0.145328 0.412253 0.2234 0.307158 0.27104 -0.262164 -0.074072 -0.090377 -0.06341 -0.192547 0.033895 -0.261741 0.303131 0.129004 0.129265 0.078354 0.154969 0.038932 0.153108 -0.082428 -0.230189 0.007175 0.031929 -0.049303 -0.052985 0.090447 0.034813 -0.054843 0.068782 5.87E-4 -0.058835 -0.11857 0.295813 -0.091359 -0.057193 0.098348 0.133724 0.206862 0.171869 0.047122 -0.0778 -0.144461 -0.022597 0.031641 0.07311 0.289969 -0.107614 0.005049 -0.238869 -0.046514 0.11128 -0.124694 0.094552 0.052994 -0.022148 0.044263 0.141774 0.102342 -0.116331 0.165832 -0.056419 -0.110167 -0.199326 0.086699 -0.035768 0.13137 -0.122983 -0.061347 -0.106246 0.142213 0.16569 0.280921 0.032744 0.324635 0.101061 -0.162559 0.121986 0.290782 0.0314 -0.17656 -0.416555 -0.05173 0.032963 -0.248742 -0.138343 -0.082882 0.098588 0.021553 0.160737 0.192489 0.177649 0.002187 0.121975 -0.012675 -0.0095 0.216814 -0.179 -0.065702 -0.052642 0.029778 0.133914 -0.191493 -0.106121 0.059882 0.192801 -0.01323 0.174638 0.075993 -0.066794 -0.124943 -0.093308 0.373475 -0.355496 0.007467 0.029323 0.451622 -0.14636 0.162698 0.134239 -0.192444 -0.21508 0.078271 -0.304996 -0.272603 -0.001051 -0.315546 0.175086 -0.006796 -0.01907 0.020042 0.028376 0.039459 0.058933 -0.029524 0.048379 -0.114457 -0.151671 0.02108 -0.187341 0.002369 0.061017 -0.414241 0.122744 -0.125139 0.002789 -0.04368 -0.45663 0.106107 -0.162179 -0.343772 0.001905 -0.055497 0.026734 -0.02683 -0.050686 -0.024601 -0.178826 0.007794 0.024774 0.223768 0.116828 -0.17416
madhouse 0.013836 0.019937 -0.003297 0.020945 0.016623 -0.020874 0.00137 -0.015973 0.032847 0.034792 0.001944 0.014526 -0.006653 0.020746 -4.81E-4 -0.027143 -0.022608 0.007013 -0.012771 -0.012735 -0.012867 0.032265 0.002839 -0.014576 -0.003377 -0.011884 -0.001934 -0.020508 -3.5E-5 0.019709 0.002368 0.02788 -0.031102 0.068456 0.021053 -0.008652 0.054002 -0.002512 -1.89E-4 -0.029685 0.024558 -0.009214 -0.008604 0.015709 -0.01357 -0.002426 0.018522 0.001419 0.025823 0.006841 -0.005202 0.007617 0.001811 0.02592 0.021572 -0.027978 0.027916 0.001342 -0.012068 -0.021968 -0.056056 -7.47E-4 -0.027879 -0.01035 8.29E-4 -0.038456 -0.028895 0.003494 0.052262 -0.025166 -0.005447 -0.002894 0.0269 0.02304 0.011209 0.003013 -0.016788 -0.009603 -0.020027 -0.01301 -0.019938 -0.009867 -0.006746 -0.007865 0.008765 0.007437 0.023316 -0.008722 0.01159 -0.01897 0.008899 -0.022539 0.001821 -0.006176 -0.016274 -0.021021 0.0109 -0.02466 0.017653 0.001946 -0.01053 0.038812 -0.022742 -0.02513 0.006242 0.008156 0.030745 0.01458 0.019901 -0.029136 4.54E-4 -0.024091 0.012646 -0.018057 0.001612 -0.011207 -0.007097 0.009936 0.064104 -0.007861 -0.007495 0.038614 -0.015613 7.22E-4 -0.014611 0.025342 -0.014378 -0.016657 -0.011064 0.010302 -0.001883 -0.001836 -0.024047 -0.015572 -0.025752 -0.019816 0.03513 -0.012151 0.033905 -0.008872 0.005988 -0.051087 -0.001212 0.005763 0.02234 0.013021 0.028248 0.039325 -2.18E-4 0.016727 0.004077 -0.022472 -0.00705 0.00177 -0.009351 0.0346 0.026862 -0.00504 -0.020423 -0.019161 -0.007125 -0.006184 0.020373 -0.00129 0.03726 0.03162 -0.028124 0.005917 0.018948 -8.3E-5 -0.006634 -0.009973 0.001053 0.023321 -8.8E-5 0.010244 0.006452 -0.01192 -0.02068 -0.001708 -0.019002 0.004001 0.022075 -7.99E-4 -0.003222 0.001708 0.007063 -0.010716 -0.02085 -0.022995 0.023032 -0.009104 -0.012566 0.004182 0.014704 -0.007924 0.019698 -0.004506 0.032934 0.027132
video 0.056688 -0.117954 -0.243113 -0.098325 0.235941 -0.247906 0.214767 -0.254853 0.190778 -0.272004 0.152341 -0.118073 -0.3484 -0.17935 -0.120961 -0.046024 -0.268427 -0.140072 -0.434136 -0.311913 0.254752 0.276216 -0.017637 -0.007735 -0.048224 0.333905 -0.351515 -0.107946 -0.402542 0.136772 -0.137013 -0.005656 0.06947 -0.069268 0.047518 0.22992 0.074654 -0.175212 0.120935 0.049495 0.403578 -0.032984 -0.003362 -0.082349 0.051066 -0.408781 -0.203759 0.302554 0.104461 0.114771 -0.170252 -0.410705 -0.025814 0.01231 -0.262507 -0.103762 0.20188 -0.135904 0.033076 -0.198173 -0.185279 -0.222645 0.1206 0.087642 0.161029 0.081692 -0.265753 -0.094048 0.008894 0.176736 0.096682 -0.041167 0.306538 0.156304 0.4024 -0.014285 0.006671 0.043933 0.177911 -0.318592 0.107165 0.237696 -0.464862 -0.042061 0.297445 0.611104 -0.107379 -0.014978 0.080706 -0.153802 0.259687 0.08866 0.172435 -0.20434 -0.00838 0.052084 0.20269 0.296727 -0.059252 0.094744 0.107328 -0.245417 -0.054288 -0.133381 -0.136634 0.301503 -0.227706 0.073181 0.339871 0.019979 -0.238933 -0.09232 -0.02645 -0.004439 -0.128705 -0.122495 0.131436 0.061183 -0.04941 0.267709 0.130936 0.335483 -0.092601 0.291116 -0.024664 -0.237748 0.123408 -0.383657 -0.150153 0.169399 0.236384 0.005249 0.259543 0.144962 -0.080605 -0.155004 0.377636 -0.041084 -0.333035 -0.118846 0.076703 -0.08161 0.191763 0.11938 -0.121617 -0.198288 -0.074985 -0.17546 0.154792 0.118216 -0.176788 -0.368388 0.049886 0.247369 0.12181 0.052616 0.195674 0.146316 0.313292 -0.220304 -0.547949 0.001362 -0.271782 0.23729 -0.135199 -0.212015 0.13488 0.265671 0.207901 0.133982 -0.44928 0.04623 0.071793 0.091267 0.121858 -0.164471 0.162477 0.291623 -0.387927 0.234489 -0.249596 0.058704 0.245104 -0.136814 0.001216 -0.110944 -0.130184 -0.107776 -0.191698 0.035105 0.253009 0.147449 0.078317 0.161625 0.096043 -0.070391 0.146318 -0.05109 0.226219 -0.07751
defeating -0.043443 0.089655 0.297387 0.026855 -0.15728 -0.190589 -0.017378 -0.010209 0.017478 0.023285 0.035631 -0.090716 0.084136 0.119303 -0.219672 0.039383 0.125244 -0.100493 -0.019875 0.198896 0.106293 0.137781 -0.052192 -0.197365 -0.035586 -0.197426 -0.196106 -0.22152 -0.112636 -0.092232 -0.009421 0.101044 -0.014209 -0.005724 0.093439 -0.130253 0.035098 0.101982 -0.284098 -0.017175 0.031205 -0.092417 0.015242 -0.0037 -0.06741 -0.276276 -0.12151 0.149785 0.043861 0.030441 -0.114683 0.240178 0.02636 0.135322 0.101659 0.060993 0.186299 0.345617 -0.030201 0.092594 0.04087 0.188377 -0.006172 -0.214397 0.020723 -0.232658 0.253973 0.172457 0.25415 -0.093179 0.015183 0.074225 0.069799 -0.106738 0.34777 -0.086627 -0.074646 0.219987 -0.171355 -0.065415 0.049387 0.219144 0.026381 0.318479 0.146416 0.244157 0.327076 0.177942 -0.111882 0.137828 -0.127283 -0.041288 -0.162297 -0.076091 0.117094 -0.205967 -0.166556 0.265278 0.07057 0.120592 -0.105641 0.109058 0.204704 -0.228139 0.056724 0.137699 -0.179979 0.121853 0.096285 -0.006586 -0.01301 -0.058363 0.068769 -0.0553 -0.247152 -0.272256 0.158318 -0.234932 0.174627 -0.018207 -0.183486 -0.012879 -0.097205 0.135043 0.131242 0.310023 -0.004919 0.092728 0.129164 0.161011 -0.041323 0.041714 0.08549 0.102827 0.26688 0.123513 0.025463 -0.045406 -0.116175 -0.305151 0.12157 0.08414 -0.067001 -0.028911 -0.056533 0.208114 0.279223 -0.094891 -0.189184 0.024798 0.053324 -0.093731 0.092985 0.104949 -0.080474 -0.17109 0.076065 -0.134656 0.181818 -0.150194 0.193175 -0.194809 -0.29778 -0.056009 0.011366 0.02209 -0.107103 0.257539 0.087928 0.031552 0.087171 -5.94E-4 0.191417 -0.014547 0.065094 -0.12589 -0.10427 -0.226788 0.217045 -0.112824 0.106435 0.083823 -0.330073 0.241948 -0.171928 0.044101 -0.19978 -0.06046 -0.092787 -0.117253 -0.159543 -0.029984 0.024031 0.155736 0.047132 0.077832 -0.11174 0.083259 0.007131 0.123581
death -0.065819 -0.057007 -0.073495 0.065889 0.373329 -0.085052 -0.01277 0.104929 0.058155 -0.044722 -0.169436 -0.063296 0.331666 0.162899 0.223209 0.158494 -0.325495 -0.05857 0.162896 0.169916 -0.085441 0.172845 0.208353 0.230188 -0.056298 0.204393 -0.059617 -0.016204 -0.081774 -0.077092 0.270355 -0.287381 0.134726 0.07574 -0.33258 0.322466 0.268705 0.32465 -0.044737 -0.013136 -3.31E-4 0.028312 0.339483 0.060744 -0.341168 -0.076416 0.432933 -0.004257 0.158183 -0.09938 0.357166 0.095055 0.230127 -0.031165 0.116238 0.199713 -0.032726 0.068123 0.174829 -0.057409 0.59448 -0.236292 -0.009009 -0.41011 -0.266427 -0.013332 0.300627 -0.029031 0.005712 -0.427824 0.137801 0.0782 0.295489 -0.136833 0.3453 0.036241 -0.146288 -0.304938 -0.096403 0.027674 -0.141988 -0.212537 -0.10646 -0.188589 -0.325502 0.345652 -0.149491 0.048602 -0.150114 0.138413 0.125083 0.084559 -0.17535 -0.066321 0.002991 0.101352 0.213161 -0.22288 0.366851 0.055634 0.164843 -0.025057 -0.098422 0.134364 0.370329 -0.120949 0.066799 -0.119105 0.062127 0.210844 0.058509 -0.291551 0.129201 0.07935 0.014976 -0.277424 -0.387763 0.064413 0.351795 -0.001871 -0.258447 0.254876 -0.213438 0.040911 0.316864 0.006477 0.020201 0.352359 -0.43347 0.014039 0.240263 0.308557 0.23573 -0.008605 0.02438 -0.494103 0.243258 0.100472 -0.296724 -0.176339 -0.364067 -0.267062 -0.37704 0.017948 -0.13409 0.117781 0.144905 -0.11534 -0.053807 0.087124 0.019881 0.233996 -0.052559 -0.305997 -0.048159 -0.087512 0.345109 -0.163788 0.122553 0.346919 -0.127371 0.042809 -0.306411 -0.401357 -0.181139 0.442575 -0.101509 -0.257055 0.140862 -0.076467 2.2E-5 0.358588 0.016407 0.288631 -0.285661 -0.016141 0.111732 0.071077 -0.192742 -0.155854 0.149195 0.092715 0.019822 -0.079016 -0.04287 0.540878 -0.262521 -0.105153 -0.327543 -0.384572 -0.200618 -0.123515 -0.115322 0.083761 0.098669 0.394155 -0.016333 -0.135443 0.338774 -0.200892
image 0.030943 0.099904 -0.005223 -0.092372 0.04838 -0.114827 0.0401 -0.016107 -0.179107 -0.089737 -0.244961 -0.261615 0.016543 0.037995 -0.18614 0.047292 -0.163562 -0.186422 -0.321104 -0.037561 0.036205 0.184606 -0.092472 -0.092016 0.12824 0.256641 0.024784 0.041053 0.238552 0.169732 -0.010272 -0.073694 -0.089498 -0.048255 0.102915 -0.128272 0.002576 -0.216956 -0.2298 0.105992 0.232702 -0.135598 0.262646 -0.143799 0.032098 -0.044845 -0.047403 -0.004118 -0.030982 -0.140013 0.079906 -0.043148 0.171155 -0.08184 0.076635 -0.102661 0.288241 -0.006134 0.130729 -0.210808 0.074848 0.05439 0.11975 0.088593 0.104266 0.015478 -0.125086 -0.174897 0.270108 0.067146 -0.024763 0.076652 0.00504 0.289009 0.225396 -0.138043 0.070901 -0.09315 0.244384 -0.155517 0.023603 0.2125 -0.194534 -0.182004 -0.225658 0.221541 -0.183567 0.009502 -0.207508 -0.205545 0.442017 -0.151848 -0.126166 0.036108 0.087776 0.22721 -0.135607 -0.133598 -0.033487 -0.100864 0.018516 -0.053571 -0.040692 0.094237 -0.033018 0.031084 0.027145 0.029051 0.144455 0.131585 -0.015368 -0.299558 -0.133441 -0.04528 -0.047677 -0.038296 -0.253732 -0.351775 0.20565 0.018798 0.108052 0.198932 0.075844 0.152916 0.120871 0.13749 -0.053793 -0.10265 0.088756 0.237457 -0.035751 -0.03943 -0.151247 0.146192 -0.031261 0.099505 0.069054 -0.02458 0.058993 -0.040521 -0.072736 -0.106215 -0.113299 -0.204261 0.146664 0.011559 0.064143 -0.141655 -0.136364 -0.151622 -0.06442 -0.056195 0.119312 -0.025733 -0.042728 0.116018 -0.062074 -0.101016 0.060706 -0.078527 0.046897 0.064459 0.199369 -0.029038 0.026448 0.354665 -0.201267 -0.033691 0.161597 0.171396 -0.104458 0.128506 0.07828 0.290519 0.032344 0.025425 0.189629 -0.108021 -0.080199 -0.048973 -0.108619 -0.130549 0.074282 -0.062627 -0.045876 0.138228 0.035323 -0.30923 -0.252298 -0.094877 -0.086553 0.016992 0.077588 0.27489 0.381063 0.018493 0.068883 0.045676 0.022806 -0.124556
number -0.124542 -0.218393 -0.034338 0.067761 0.257766 0.07612 -0.348019 0.191429 0.114544 -0.244898 -0.116328 0.259174 0.011676 -0.091019 -0.108152 -0.331762 0.025845 -0.283322 -0.036907 0.126676 -0.115424 0.007024 0.156179 0.067954 -0.141569 -0.194946 -0.122095 -0.308641 -0.129402 0.277713 0.092941 -2.9E-4 0.445434 -0.062544 -0.046878 -0.252709 -0.336314 0.152758 0.245204 -0.27347 0.331585 -0.124855 0.045889 -0.004557 0.040241 -0.227123 -0.330176 -0.344927 0.045423 0.143612 0.047949 -0.091362 0.091931 -0.287864 -0.191252 -6.65E-4 0.17975 -0.088823 0.196502 0.066471 -0.153909 -0.212701 -0.30891 -0.190385 0.111421 0.179124 -0.143928 -0.056263 0.214376 -0.451076 0.039114 -0.31639 0.144299 0.28297 -0.246336 0.378753 0.038903 -0.177872 -0.122241 0.025723 -0.140413 -0.038923 -0.057238 0.22867 -0.097304 0.273282 -0.301041 -0.057493 0.152892 -0.188035 0.199319 -0.175482 -0.360905 -0.105508 0.40053 0.245826 -0.005013 -0.194866 0.119966 0.119325 -0.117832 -0.006586 -0.158709 -0.153352 -0.165466 -0.207247 0.263762 0.021147 0.130134 0.374499 -0.165436 -0.024909 0.147192 0.009799 -0.047418 0.030958 -0.344568 0.178769 0.268878 -0.175001 0.136335 0.244999 -0.061411 0.235632 -0.324756 -0.072415 -0.009983 0.018702 -0.083705 0.093012 -0.058355 -0.037655 0.104657 -0.106823 -0.045685 0.270298 0.093475 0.294229 -0.715577 0.054331 -0.008105 -0.075081 0.261497 0.019782 0.228253 0.181947 0.030408 0.089436 -0.200849 0.035889 3.77E-4 -0.053026 0.245587 -0.126305 0.079939 -0.078395 -0.200628 -0.130096 -0.149553 0.104525 -0.309319 0.224454 -0.304189 -0.055328 -0.00219 -0.044511 -0.106634 -0.034707 0.201017 -0.24933 -0.123504 -0.415381 0.105398 0.20529 0.045556 0.044963 0.028314 -0.204151 0.079195 0.203754 0.064455 0.137419 0.40333 0.002338 0.163215 0.017465 0.192367 -0.131467 0.164541 -0.046731 0.369826 -0.175559 0.180264 -0.046501 0.055111 0.092096 0.139275 0.237533 0.23886 -0.295476
theater 0.180515 0.028175 -0.172812 0.051559 -0.08535 -0.226515 0.082922 -0.162211 0.085868 0.089152 -0.07975 -0.055855 -0.347956 -0.117945 -0.131172 -0.208293 -0.388115 0.142235 -0.007921 -0.196594 -0.23701 -0.089431 0.13393 0.180926 -0.015175 0.405604 -0.060845 -0.149331 -0.04155 -0.116037 -0.099393 0.145544 0.17436 -0.045949 0.12198 0.019608 -0.011836 0.078261 -0.073945 -0.206333 0.073681 -0.006113 -0.236353 0.007056 0.031482 0.129027 0.230479 -0.154432 -0.090149 0.044716 -0.174453 0.075021 -0.02185 0.102837 -0.418548 -0.003722 0.226514 0.248754 0.085018 -0.162391 0.116094 -0.054195 0.025976 0.131731 0.052225 -0.162228 -0.26473 -0.206218 0.155148 -0.074876 -0.003686 -0.268084 -0.191178 0.223423 0.188344 0.113227 -0.086003 0.248999 -0.180601 -0.019685 0.025605 0.312378 -0.240587 -0.140611 0.22154 0.082448 -0.058369 -0.055386 -0.073192 -0.11733 0.230419 -0.100571 -0.025168 0.09199 -0.148001 0.097847 0.081722 -0.227701 0.180757 -0.129994 0.0569 0.141374 -0.37376 -0.211192 -0.031235 0.348989 -0.093214 0.092428 0.197872 -0.087624 0.00527 -0.099755 0.025003 -0.008204 -0.04093 0.176613 0.131538 0.098149 0.021319 0.180045 0.177482 0.128394 0.052011 0.152079 0.154672 0.126966 0.197951 -0.360002 -0.049255 -0.243678 0.031472 0.053464 0.14939 0.105544 -0.051772 -0.058507 0.038113 -0.030883 0.111439 -0.040108 0.17372 -0.146826 0.185158 0.035339 -0.030295 4.2E-4 -0.183807 0.013242 0.16209 -0.200833 -0.024291 -0.065035 0.196127 0.034133 0.091461 0.097326 0.050022 0.124927 -0.164608 -0.20808 -0.092073 0.034454 0.104756 0.101383 0.100233 -0.060909 0.135957 0.052487 -0.058676 0.161053 0.066232 -0.087187 0.083647 0.349655 -0.005864 0.142275 0.16295 -0.224937 0.114527 -0.107256 -0.043982 -0.096954 -0.038167 -0.084343 -0.147571 0.018847 -0.046254 -0.04775 0.0134 -0.081332 0.064803 -0.14612 0.169595 0.119709 0.302876 0.054823 -0.028557 0.105273 0.1126 -0.030466
astronomer 0.036081 0.019858 0.003089 -0.113541 0.035193 -0.035186 0.061438 -0.065595 0.109377 0.054975 0.036192 -0.024858 -0.023364 0.03084 -0.05568 0.063727 -0.060537 0.080505 0.070679 0.048731 0.052957 -0.032696 0.005515 -0.055897 0.084369 -0.023527 -0.0346 -0.034303 -0.045803 0.024821 -0.007501 -0.042591 0.021765 0.044884 0.024412 -0.082267 0.015486 -0.025248 -0.078321 0.02537 0.047344 -0.063762 -0.026409 0.033642 -0.055055 0.035328 0.061749 0.005233 -0.037765 0.003697 -0.097063 0.03651 -0.03891 -1.78E-4 -0.143399 -0.013045 -0.014312 0.081317 -0.037451 0.01928 0.02887 -0.072926 -0.120504 -0.128901 0.102278 0.037361 -0.057142 0.114956 0.059197 -0.038975 0.045904 -0.128238 0.052716 -0.014859 0.245076 -0.04134 0.04889 0.00309 -0.086532 0.013033 0.012185 0.047461 0.013944 0.052778 0.110923 -0.01031 0.100467 0.078948 -0.115148 0.002667 0.19642 0.024646 0.13862 0.075369 0.03483 0.014333 0.019735 -0.040535 -0.015201 0.086486 0.122652 -0.160684 0.048243 0.067982 0.085479 0.092648 -0.025498 0.002306 0.021394 -0.057232 0.03096 -0.077561 -0.134251 0.008798 0.084749 -0.045433 0.162024 0.041587 0.080878 0.084054 -0.102018 0.20406 -0.014439 -0.064407 -0.040145 0.083635 -0.033742 -0.088764 0.066992 0.029823 -0.087342 0.066735 -0.016242 0.06669 0.080413 -0.050989 0.045819 0.060524 0.045673 -0.164355 0.064792 -0.128269 -0.017663 -0.020388 -0.027295 0.054114 0.099791 0.012324 -0.032488 -0.097604 3.43E-4 0.032622 0.004564 -0.009798 0.039294 0.101524 0.088912 -0.036211 0.129638 -0.002264 0.064783 0.035332 -0.069554 0.022611 -0.023188 0.045191 0.040917 -0.010618 -0.083391 -3.49E-4 0.129154 -0.076808 0.05025 0.052708 0.034337 -0.013638 -0.006455 0.036556 -0.004092 -0.061306 -0.07337 0.111438 0.086068 -0.006006 -0.004276 -0.002126 0.064084 0.052678 -0.104709 -0.018921 -0.062422 0.038137 -0.047519 0.109541 0.126847 0.058479 -0.071708 0.008807 0.155469 -0.031245
project -0.111257 -0.113324 -0.198579 0.14687 -0.060145 0.093843 0.227756 -0.202301 -0.077743 0.009627 6.88E-4 -0.007202 0.168063 -0.251282 0.19715 0.146892 -0.135713 -0.322954 -0.126529 -0.131135 0.057999 0.015612 0.244722 0.0029 0.051011 0.029024 -0.055976 0.034479 0.054635 0.174385 -0.054394 -0.146334 0.141664 -0.399299 -0.234398 -0.211495 -0.181278 0.250781 -0.173403 -0.043844 0.159599 0.034801 0.153555 -0.183503 0.18496 -0.024314 0.176761 -0.05082 -0.145807 0.254864 -0.149689 0.119389 0.139123 0.112354 0.114567 0.134346 -0.106594 0.073964 -0.202812 -0.121126 0.055142 0.006887 -0.23018 0.05792 -0.010723 -0.210788 -0.073996 0.061689 0.007934 -0.247491 0.101868 -0.16906 0.011533 0.492915 -0.064162 0.025201 0.070931 -0.026587 -0.257947 0.005465 -0.13382 0.130543 -0.342901 -0.090016 0.014565 -0.057272 -0.094693 -0.022947 -0.122289 -0.132275 0.277553 0.043924 0.077206 -0.071484 -0.153859 0.35037 -0.219155 0.053601 0.001413 0.12165 0.009084 -0.013237 -0.263034 -0.113217 0.156792 -0.051907 -0.076786 0.160638 0.225318 -0.254299 -0.051729 0.003613 0.158523 0.012989 0.143665 0.156849 -0.086627 0.07677 -0.12239 0.064706 0.114575 -0.044405 0.082554 -0.178753 0.109346 0.14421 0.072018 -0.226049 -0.05934 -0.281244 0.113333 -0.138981 0.054974 0.050641 0.190872 0.037855 -0.211427 -0.176309 0.222077 -0.017863 -0.099586 0.00654 0.008644 -0.037657 0.07175 -0.047339 0.259148 -0.020214 -0.079434 -0.072062 0.094601 0.239444 -0.055027 -0.015777 0.244548 0.043014 0.086028 0.014267 -0.158603 -0.153042 -0.014115 -0.014639 0.084868 0.135132 0.281582 0.021841 0.08525 0.166444 0.066154 0.233929 0.089159 -0.102432 0.063615 0.214154 0.251627 0.143381 -0.114492 -0.017036 -0.0505 -0.100265 0.170923 0.078263 0.091178 -0.127242 -0.138525 0.143251 0.196878 0.051187 -0.066133 0.142836 0.129733 -0.027622 -0.237269 -0.002106 0.054672 -0.173885 0.139097 0.044919 0.038317 0.065909
dawn -0.062968 0.267029 -0.133748 0.118038 -0.032136 -0.26587 -0.049286 -0.541376 0.284536 0.147074 -0.225654 -0.397702 -0.01676 -0.190687 0.063125 -0.191766 0.056455 0.133481 0.009502 0.126585 0.084947 -0.1819 0.011371 -0.176743 -0.238656 0.07319 0.095944 -0.131996 -0.070294 0.240137 -0.105465 -0.030591 -0.349811 0.227226 -0.017771 0.406594 0.121006 -0.049898 0.035902 -0.404863 0.016465 0.125459 -0.170785 0.357842 -0.13055 0.213809 0.303468 -0.167107 0.007835 0.166885 0.041108 0.06862 0.209138 0.103673 -0.005362 -0.100935 -0.079208 0.069327 -0.038329 0.049828 -0.046209 0.052935 0.040438 -0.210124 -0.131069 0.121003 0.197118 -0.028297 -0.106724 -0.11727 0.165918 0.059456 0.294934 0.007125 -0.01979 0.040232 0.09656 -0.278977 -0.237212 -0.155378 0.039821 -0.06645 -0.136768 0.125691 0.229828 -0.062042 0.081811 0.14255 0.199294 0.154845 -0.41031 0.072471 -0.445294 -0.178054 0.098538 -0.192176 0.252833 0.175736 0.082644 -0.272303 0.11792 0.071895 -0.101666 -0.030673 -0.292607 0.083954 0.103639 -0.083778 0.058617 -0.108421 -0.122379 -0.170498 0.225141 -0.110455 -0.115279 -0.021939 0.093779 0.167196 0.225382 0.165163 0.122253 -0.182196 -0.112322 -0.18967 -0.013814 -0.12435 0.053119 0.020834 -0.170847 0.082732 3.9E-4 0.037378 -0.118507 -0.088305 -0.179539 -0.040793 0.032351 0.167136 -0.080743 -0.383425 -0.17631 0.052811 -0.090554 0.026358 0.086338 0.149125 0.079334 -0.274055 -0.001167 0.01859 -0.035204 -0.214694 -0.174013 0.048826 -0.21914 0.026184 -0.211328 -0.027623 0.014199 -0.422212 -0.325797 0.081517 -0.235475 -0.225785 0.132482 0.261855 0.148231 -0.014902 0.177169 0.049038 -0.178833 -0.015474 0.07877 0.135644 0.012006 0.102038 -0.143712 -0.109728 0.24595 -0.126712 0.130051 -0.02083 0.04006 0.038152 -0.260168 -0.016464 -0.220581 0.079776 -0.179075 0.024912 -0.082359 -0.110966 -0.123114 -0.030638 0.319719 -0.031799 -0.155663 0.173945 0.078579 0.102144
ear -0.046823 0.289368 -0.044997 0.162261 0.159739 -0.1115 -0.054448 -0.048419 0.244863 0.286976 -0.06917 -0.158602 -0.079614 -0.062506 0.021162 -0.07648 -0.186259 0.028648 -0.028434 0.078899 0.01721 0.157957 -0.382584 -0.058769 0.154873 0.311971 -0.015572 0.042957 0.30643 0.131713 -0.040074 -0.183551 -0.304075 0.361139 0.03765 0.012239 0.290345 0.203935 0.305072 0.014121 0.054401 0.076253 0.342629 0.332174 -0.047165 -0.096786 -0.033876 -0.072294 -0.03417 0.258749 0.164338 -0.036994 0.004914 0.047564 0.200718 0.02301 0.145344 -0.162141 -0.068082 0.012452 0.074526 0.104879 0.083298 -0.295057 0.144376 -0.073296 0.070521 -0.150826 0.441196 0.085802 -0.200515 0.085702 0.224353 0.021026 0.161182 -0.152467 -0.099957 -0.317095 0.197883 0.069261 0.007258 0.051812 -0.166698 -0.068496 -0.262905 -0.078181 0.011302 -0.009407 0.012058 -0.282269 0.224233 -0.118883 0.210194 0.025073 -0.049074 -0.02452 -0.014442 -0.091605 0.117329 0.008547 -0.120101 -0.02486 -0.146802 0.058495 0.053786 -0.302263 0.10117 0.072446 0.16049 -0.154297 -1.7E-5 -0.016387 -0.194782 -0.041429 0.163685 -0.109355 -0.08675 -0.159955 0.348832 0.065629 -0.088085 0.177293 0.169595 -0.068541 -0.012022 0.089169 -0.251008 0.148723 0.014471 0.053228 -0.002208 0.019398 -0.04963 0.029979 -0.07475 -0.365739 0.198147 -0.145175 0.10433 0.073317 -0.235507 -0.012764 0.186998 0.072137 0.074545 -0.022395 0.022828 -0.01904 0.02508 -0.235843 -0.087785 -0.177556 0.068583 -0.025397 0.039424 0.261689 -0.001324 -0.033537 0.146123 0.026874 0.064284 -0.016384 -0.08371 -0.017707 0.14245 0.192256 0.010359 -0.105552 0.00482 0.034624 -0.263317 -0.046413 0.013858 0.099239 0.060785 -0.044724 0.118044 -0.014556 0.229021 0.058922 -0.100541 -0.064864 0.014488 -0.078556 0.139231 0.148617 -0.104245 -0.027116 0.023832 -0.236065 -0.082847 0.078563 -0.041529 0.028524 0.227086 0.139652 0.301995 0.03953 0.011798 0.02743
voyage -0.169588 0.11569 -0.007097 0.095552 0.049993 -0.007106 -0.138342 -0.201132 -0.059202 -0.079714 0.09733 -0.043214 0.182562 -0.021791 -0.088384 7.88E-4 -0.17497 -0.048454 -0.140408 0.02832 -0.051987 0.08211 -0.168235 -0.009577 0.010199 0.370328 -0.116792 0.063083 -0.067711 0.09848 -0.068881 -0.021986 -0.111943 0.147964 0.0497 0.204534 0.022096 0.036441 -0.088047 -0.2565 0.226437 -0.011465 0.120408 -0.031872 -0.066569 0.125443 0.036019 -0.030069 0.113231 0.153939 -0.049724 0.157875 0.097725 0.191963 0.041098 -0.001645 0.044771 -0.002795 -0.150543 -0.063504 0.009769 0.071735 -0.076083 -0.078934 -0.036636 -0.215831 0.046714 -0.053634 0.162357 -0.140571 -0.032692 0.028916 0.050165 0.132444 0.053772 -0.048963 -0.067009 -0.220259 0.024112 -0.155142 0.017375 0.202448 0.011082 -0.020963 -0.03413 0.049704 0.072763 0.081535 -0.064881 -0.112225 0.03286 -0.249095 -0.145898 -0.086146 0.159236 -0.028312 0.034434 0.134325 -0.03916 -0.06131 -0.017863 0.070692 -0.062164 -0.141548 2.1E-5 0.053165 -0.075662 0.079164 0.175415 -0.025597 -0.009887 0.112433 0.067291 -0.065003 -0.026579 -0.004139 0.031209 0.121752 0.165374 0.053662 0.047192 0.113914 0.133609 -0.095893 -0.018663 0.071165 -0.043908 -0.065154 -0.096623 -0.034924 0.085484 0.166704 0.002116 0.023348 -0.008748 0.092934 -0.061909 -0.074843 -0.05157 0.048435 -0.07082 -0.056114 -0.054579 0.025682 -0.022626 0.054902 -0.067647 -0.028442 -0.055946 -0.133551 0.064364 -0.054008 0.019453 -0.038888 -0.11612 -0.003257 -0.066647 -0.088757 -0.163218 -0.119801 0.068311 -0.005277 -0.006685 0.101207 0.024613 0.186262 0.100629 -0.034213 -0.003692 3.6E-5 -0.087816 -0.108869 -0.019884 0.068695 0.014954 -0.011125 -0.007953 -0.00223 0.026486 -0.14185 0.154556 0.04977 0.043033 -0.03152 -0.065811 0.064446 -0.094443 0.117126 -0.247826 0.097641 0.062122 0.070108 -0.001376 0.131698 0.233137 0.10439 0.100042 -0.074491 -0.001211 0.03526
valor 0.05614 -0.00606 -0.013426 -0.021994 0.062618 -0.037595 0.02667 -0.049507 0.030789 0.019833 -0.048643 0.017672 0.021118 0.010673 -0.079839 -0.060774 -0.074805 0.028186 -0.057841 -0.006891 -0.035508 0.071389 0.040762 -0.012369 0.026049 -0.007179 0.029955 -0.030848 0.042998 -0.034945 -0.003203 -0.00343 0.050679 0.020042 -0.053235 -0.052767 0.052316 0.051776 -0.050869 -0.034598 0.022305 -0.030333 0.067826 0.066805 0.02193 -0.013295 0.040821 0.060438 0.012263 -0.030595 0.042517 0.020395 0.07345 0.026727 -7.71E-4 0.009019 0.051077 0.017777 -0.016634 0.040415 0.082381 -0.075056 -0.020882 -0.031699 0.034335 0.023558 -0.089071 0.041744 0.05306 -0.080688 0.047494 -0.047715 -0.003042 0.059255 0.021322 -0.023244 -0.020716 0.006639 -0.057259 -0.019009 0.004819 0.104412 0.036642 0.001413 -0.008117 -0.016659 -0.077108 -0.040964 0.070169 -0.015035 0.028828 0.010113 -0.038363 -0.041106 -0.04997 0.012423 -0.067782 0.018347 0.008794 0.008866 0.048904 0.001899 -0.0075 -0.00781 0.001751 -0.051752 -0.065691 0.037073 0.063735 0.031912 -0.010996 -0.042631 -0.001016 -0.00338 -0.054427 -0.092888 0.030049 0.057963 -0.02057 0.050177 -0.01237 0.003803 0.014796 -0.03401 0.042188 0.05821 -0.010096 -0.092154 0.026647 0.019832 -0.039594 -0.009733 0.005368 0.070548 0.035122 0.039536 0.01753 0.002665 0.075569 -0.009632 -0.053902 -0.032008 -0.035361 -0.013426 0.044672 0.057537 0.004272 0.055071 -0.012906 -0.027189 0.022483 -0.027685 0.00289 0.057722 -0.014182 0.107904 -0.024502 -0.034765 0.018469 -0.040687 0.043425 -0.00355 -0.0126 0.013149 0.035283 0.009664 0.079788 -0.017744 0.008177 -0.01823 -0.002955 0.077692 0.100633 0.064321 -0.087061 0.072734 0.038677 -0.090213 -0.019155 0.019712 0.018731 0.005521 -0.008959 -0.005787 -0.017403 -7.6E-5 -0.021505 -0.07061 0.029259 -0.00607 -5.65E-4 0.010273 0.029134 -0.04787 0.056027 -0.027704 0.046286 0.044705 0.075897 0.046095
butter -0.105105 0.197406 0.123761 -0.096297 -0.196049 -0.023635 0.070551 0.227471 0.283908 -0.023557 -0.051464 0.004554 -0.194004 -0.109121 0.182674 -0.160438 -0.103731 -0.126936 0.020976 -0.251696 -0.187433 0.0115 -0.187324 0.210203 0.141916 0.090931 -0.291349 0.090216 0.107948 0.288661 -0.097801 0.014976 -0.053053 0.123394 0.145878 0.111947 0.281832 0.392006 0.085416 0.076146 0.084767 -0.032507 0.164771 0.173419 0.235377 0.344029 0.183924 -0.070212 0.02053 -0.117015 0.20938 -0.046676 -0.18662 0.191039 0.134382 -0.115161 0.212703 0.00899 0.184495 0.090145 -0.117194 0.101563 -0.421492 -0.034645 -0.020069 -0.164529 -0.044121 -0.267512 0.380253 -0.152131 -0.078389 0.133815 0.184073 0.067846 -0.167548 0.039964 -0.320004 -0.070104 0.183906 0.185494 0.140579 -0.13337 -0.004263 0.096479 0.113379 -0.273564 0.261056 0.051777 0.070545 -0.327511 -0.064671 -0.073376 0.009085 -0.143743 -0.016444 -0.126521 0.168622 -0.049145 0.009113 0.178895 0.209844 0.017325 -0.055139 0.072566 -0.182939 -0.125268 -0.060404 -0.223439 -0.093659 -0.485675 -0.284438 -0.063635 -0.249305 -0.062148 0.291306 -0.09709 0.060585 -0.03519 0.319351 0.173264 -0.108712 0.185391 -0.187815 -0.135769 -0.04238 -0.061528 -0.007282 -0.149096 -0.039398 0.207231 0.20861 -0.118152 -0.169012 -0.014121 0.006749 -0.025942 0.030688 -0.13135 0.100204 0.261897 -0.089566 -0.359631 0.068164 0.015149 0.155475 -0.151724 0.148219 0.252461 0.110122 -0.022428 0.239745 -0.315567 -0.011029 0.350468 0.086611 0.285118 0.094188 0.027865 -0.131205 -0.24737 -0.076264 -0.324405 0.193743 0.094783 0.143684 0.14115 -0.054987 0.183545 0.046077 0.27637 -0.029568 -0.208074 -0.115696 0.221765 0.009916 0.16502 0.172926 -0.130397 0.070754 0.250961 -0.159776 0.14275 -0.111291 -0.001724 0.209774 -0.096733 -0.029282 0.102548 0.229034 -0.104554 -0.152943 0.117439 0.161833 0.191778 0.15785 -0.18987 0.071977 0.062303 0.227712 0.034506
gin 0.045135 0.079775 -0.041866 -0.006906 0.007248 0.017189 0.066491 -0.053333 0.040966 0.142602 -0.027694 0.010749 -0.031173 -0.019255 -0.085482 -0.101394 -0.099687 -0.007013 -0.088817 0.0321 0.058106 0.039335 -0.153466 -0.032143 0.047303 0.006033 -0.021924 -0.044607 0.02093 0.081319 -0.167588 0.080673 -0.03733 0.101867 0.030556 -0.028777 0.167242 0.080517 -0.010663 -0.090591 0.103758 0.007215 0.073119 0.02111 0.002993 0.006462 0.068694 0.0038 0.003478 0.069356 -0.026463 -0.019482 0.051919 0.103667 -0.08337 0.004288 0.141117 0.012835 0.081417 -0.026159 -0.023513 0.055848 -0.094784 -0.041165 0.009052 0.00372 -0.12537 0.023082 0.145136 0.097863 0.018925 0.019556 0.033124 0.092119 0.143238 -0.131359 0.064192 -0.008016 -0.010429 -0.076399 -0.016838 0.063297 0.034448 0.074068 -0.057172 -0.018027 0.015981 0.162155 0.061692 -0.184829 0.050167 -0.105977 0.034501 -0.024136 0.025616 -0.066354 0.023725 -0.041896 0.008304 0.101487 0.087062 0.018259 -0.066331 0.051712 -0.114678 -0.083681 0.06011 -0.119573 0.119313 -0.194549 -0.065298 -0.085732 -0.040751 -0.062319 0.064157 0.005634 -0.027659 0.010893 0.200827 0.114873 -0.00495 0.090004 -0.076132 -0.087849 -0.105548 0.06355 -0.024577 -0.133461 0.065261 0.09505 0.015521 -0.006716 -0.18178 -0.07189 -0.040776 -0.099026 -0.058544 -0.111851 0.111881 -0.063406 -0.067579 -0.070127 0.069541 -0.016597 0.058701 0.030683 0.085799 0.130593 0.023331 0.084713 -0.019269 -0.208978 -0.018303 0.161808 0.060596 0.110211 0.044569 -0.009349 -0.023896 -0.115034 -0.010372 -0.106252 -0.018745 0.082826 0.015673 0.008399 0.022012 -0.061909 -0.097357 0.124156 0.033726 -0.10479 0.010375 0.078306 0.001757 0.122188 0.205359 -0.06452 -0.054878 0.078112 -0.037479 0.166305 -0.015051 -0.047124 -0.031332 0.023749 -0.066822 -0.015313 -0.066524 -0.14928 -0.016659 -0.04601 -0.021448 0.048845 0.144641 -0.091312 0.059836 0.060076 0.154441 0.042404
reservation 0.011373 0.070124 -0.122268 -0.162596 0.104746 0.004071 -0.045696 -0.135368 -0.003568 0.065797 -0.027622 0.017094 0.003974 -0.027152 -0.065252 -0.022244 -0.146637 -0.117902 0.007495 0.024685 -0.060014 0.110089 0.015983 0.033324 -0.08295 0.059837 -0.133612 -0.015395 0.013016 0.129795 -0.075143 0.018329 0.036214 0.089483 -0.170709 0.143882 0.009677 0.186302 0.127931 -0.11353 0.144873 0.076468 -0.034423 0.313385 0.082032 0.019051 0.025784 0.115733 0.140435 -0.009562 -0.034266 0.053378 0.006393 0.120686 -0.074409 -0.039834 0.092632 0.05217 -0.11347 -0.133676 -0.052693 -0.018009 -0.048719 -0.093422 -0.105631 0.040811 -0.041017 0.065379 0.084959 0.059595 -0.160678 -0.085661 0.0388 0.10813 -0.10419 0.023343 0.023034 -0.204294 -0.026785 -0.100402 -0.003697 0.060548 -0.135081 0.036875 0.053666 0.167134 -0.079491 -0.085789 0.061716 -0.225116 -0.141985 -0.053696 -0.017169 -0.257123 -0.096678 0.102259 -0.010757 -0.106492 -0.077736 0.001935 -0.059556 -0.01548 -0.253356 -0.031736 -0.168639 -0.013506 0.065623 -0.059639 0.144444 -0.02834 -0.107682 0.046933 -0.033582 -0.147333 -0.096516 0.128361 -0.080744 -0.10395 0.185194 0.021797 0.063429 -0.012644 -0.106318 -0.017025 0.092799 -0.02395 0.007211 -0.091187 -0.168111 -0.07015 0.019128 0.027615 -0.008243 0.131761 0.061986 -0.075575 -0.030403 -0.095614 -0.179095 -0.090757 0.040247 0.091688 -0.109959 0.122953 0.093095 -0.0488 -0.083739 -0.022972 0.041713 -0.085377 -0.091489 -0.12343 0.130987 0.13431 0.060067 0.025126 -0.033347 0.045259 0.06845 0.005155 0.043698 -0.075443 -0.124792 0.141065 0.313123 -0.066306 0.025048 -0.040907 -0.145498 0.081217 -0.178679 -0.084646 -0.029197 0.017408 0.124295 0.060101 -0.023571 -0.098719 0.049107 -0.020934 0.026736 0.026822 0.066126 -0.050141 -0.031661 -0.095775 0.108529 -0.070219 -0.095158 0.036087 0.207655 -0.071541 0.114156 0.094923 0.122685 -0.087103 -0.027152 -0.014246 0.13668 0.015548
wealth 0.016435 0.083163 -0.113784 0.072691 0.017369 0.13204 0.367452 0.106918 -0.043404 -0.193426 -0.0713 0.172581 0.039477 -0.06449 -0.202636 -0.004309 -0.189389 -0.130747 0.03597 -0.158619 -0.055311 -0.052344 0.018747 0.086288 0.215201 -0.040488 0.08115 -0.108962 0.016378 0.652862 -0.034598 0.18123 -0.122721 -0.217098 -0.173319 0.013547 0.231651 0.160137 -0.171553 0.231743 0.001733 -0.017855 0.496174 0.096741 0.248967 0.22082 0.197373 -0.31429 0.080029 -0.191581 0.222082 0.19341 0.26016 0.212445 0.234161 -0.037605 0.069888 -0.187357 -0.063898 -0.217999 -0.058642 0.335909 -0.09369 0.162074 -0.069087 -0.286536 -0.302965 -0.258865 0.102505 -0.023712 0.158174 0.319753 -0.197784 0.230337 0.011502 0.027842 -0.138984 -0.029412 0.188137 -0.113877 -0.172596 0.346186 -0.044803 0.110102 -0.345568 0.302532 -0.149071 0.032206 0.212684 -0.192137 0.47415 -0.057631 -0.206515 0.101501 -0.496043 0.157792 -0.356699 0.025563 0.039104 0.161311 -0.170964 -0.030516 -0.286245 -0.00491 -0.05481 -0.268365 -0.053785 0.027466 0.149227 0.318511 -0.298547 -0.321167 -0.20691 0.187741 0.081238 0.004565 -0.176504 -0.159026 0.268851 -0.214956 0.145373 -0.434618 0.008689 -0.038227 -0.04403 -0.034173 -0.056786 -0.260248 0.180189 0.126104 0.036793 -0.344987 -0.115447 -0.197645 -0.126118 0.055016 0.079732 -0.058607 0.10379 -0.24396 0.054265 -0.045463 0.021556 0.186993 0.11768 -0.024037 -0.23925 0.454608 0.077014 -0.175324 0.152363 -0.308385 -0.1976 0.007048 0.223388 0.141326 0.077565 0.135466 -0.054909 0.230112 -0.230945 0.027831 -0.110656 -0.097533 -0.138604 0.07975 -0.014666 -0.165526 0.036813 -0.028811 -0.008457 -0.113522 0.33679 0.023602 -0.08802 -0.066944 -0.082726 -0.361142 -0.098747 0.187363 0.063646 -0.207018 0.032138 0.059943 -0.164331 0.019602 0.0191 -0.379254 0.15696 0.207149 0.017399 -0.099993 0.160618 0.125864 0.049345 0.015349 -0.062188 -0.086085 0.015917 -0.270222
eat -0.140313 0.227619 0.159626 0.00418 -0.013505 0.103854 -0.146304 -0.182597 0.190035 0.113678 0.232274 0.089781 -0.591801 0.089303 -0.028553 -0.133024 0.03845 0.188808 -0.069525 -0.082892 -0.255923 -0.173212 0.128204 -0.163735 0.261977 0.156326 0.087713 0.414293 0.010997 0.139961 -0.418793 -0.227107 -0.072471 0.241558 0.437782 0.137389 0.290694 0.253303 0.105005 0.348106 -0.239494 0.084208 -0.32819 0.143779 0.294481 0.416757 0.03389 0.164477 0.020905 0.117829 -0.009458 -0.23146 -0.181828 -0.040604 0.009457 0.048098 -0.079289 -0.064304 0.286474 0.005586 -0.250461 0.038134 -0.147409 -0.188433 -0.00574 0.289916 -0.074656 -0.129462 0.479408 -0.001794 -0.107887 0.104526 -0.144102 0.21051 -0.097228 -0.020756 -0.080347 -0.102479 0.076656 0.120128 0.09667 -0.218959 -0.045143 0.006991 0.112519 -0.12439 0.00271 0.10846 0.024987 -0.460277 -0.367446 -0.082246 0.067027 0.043869 0.074042 -0.011365 0.17094 -0.033703 -0.115383 0.063983 -0.07196 -0.027119 -0.13549 -0.173383 -0.185872 -0.060764 0.266655 -0.288881 0.072027 -0.245537 -0.084728 -0.248434 0.041382 -0.262473 0.245954 0.07952 -0.18008 -0.007781 0.060288 0.027923 0.022696 -0.165751 -0.368236 -0.029263 0.003227 -0.302303 -0.035633 0.084834 0.258088 0.052387 0.0425 0.172034 -0.086643 -0.100927 -0.190457 -0.372887 -0.066159 -0.038349 -0.040035 -0.053641 -0.154141 -0.450741 0.041314 0.078125 0.027606 -0.057947 -0.065269 0.226665 0.107855 -0.068688 0.137902 -0.32628 -2.01E-4 0.134873 0.185971 0.075274 0.177456 -0.032892 0.090808 0.210028 0.200513 -0.145611 0.13046 -0.09013 0.089005 -0.1849 -0.270714 0.00958 -0.053989 0.204374 0.043475 -0.173706 -0.049727 0.326036 0.171624 0.078612 0.057543 -0.210392 0.335915 -0.07187 0.170839 0.216298 0.236849 -0.237718 0.17821 -0.100003 -0.158574 -0.042869 0.186343 -0.102022 -0.193983 0.002948 0.194548 -0.063697 0.110108 -0.223381 0.036947 0.112094 0.212862 0.088591
soap 0.02605 0.098017 -0.031478 -0.030755 -0.171485 -0.216161 -0.006414 -0.093762 -0.070145 0.194351 -0.022714 -0.233634 -0.248045 0.105625 -0.276264 0.135684 0.080776 0.057166 -0.062579 -0.228505 -0.073365 0.165591 -0.004104 0.094485 0.273866 0.21511 0.054854 0.026846 0.050538 0.104531 -0.122129 -0.132495 -0.03188 0.061314 -0.014032 -0.03511 0.124153 -0.003011 -0.057558 -0.173801 0.261663 -0.026244 0.144711 0.216087 0.320567 -0.061591 -0.010025 -0.143285 0.07422 0.136138 -0.059909 0.110314 -0.02256 -0.030613 -0.287628 -0.12526 0.292345 0.124113 0.007847 -0.060638 0.213691 -0.006936 0.192923 -0.092296 0.150998 -0.035697 -0.167422 0.072893 0.340142 -0.188581 0.113085 0.231826 0.154538 0.147112 -0.002651 -0.084911 -0.266513 0.042593 -0.091877 0.020931 0.075405 0.420248 -0.108058 -0.0908 -0.014631 0.212259 0.136263 0.214879 0.069029 -0.265531 -0.072211 -0.090045 0.029389 -0.075924 -0.038517 -0.036432 -0.067874 -0.269778 0.061648 -0.072654 0.238227 -0.024899 -0.073767 -0.176527 0.076474 0.193793 -0.140774 0.042062 -0.009992 -0.123795 -0.184936 -0.077286 0.038956 -0.059053 0.201257 -0.045749 -0.006915 0.089259 0.239937 0.127079 -0.057364 0.317737 0.001432 -0.075998 -0.108695 0.003784 -0.092231 -0.06915 0.004769 0.170894 0.064064 -0.023009 -0.084646 0.052914 -0.062623 -0.023294 -0.034831 -0.214708 0.053449 0.127551 -0.03926 -0.006156 0.045548 0.192473 0.14229 -0.042895 0.067268 0.056831 0.250638 -0.021244 0.005785 -0.311675 -0.056922 -0.014314 -0.173246 0.070671 0.173454 -0.059039 -0.040876 -0.117568 -0.196463 -0.139581 0.141231 -0.003907 -0.119571 -0.150908 -0.004796 0.021348 -0.02545 0.395688 -0.022896 0.084633 -5.93E-4 0.351728 0.026137 0.175243 0.161065 -0.383592 0.118766 -0.163376 -0.235972 -0.027581 0.173669 -0.224198 0.112883 -0.06696 -0.028745 -0.285309 0.034594 -0.324811 0.050187 -0.201212 -0.021071 0.116488 0.192551 -0.073207 -0.017799 0.254575 0.117426 -0.048709
Jerusalem 0.180818 0.298652 -0.26298 0.037567 -0.043564 0.189376 0.283317 -0.124337 0.158194 -0.038316 -0.043784 -0.206428 0.122612 -0.241789 0.077476 -0.051728 -0.100994 0.282747 -0.270328 -0.178984 -0.389363 0.201963 -0.068796 0.166925 -0.028093 -0.055391 0.178694 0.232019 0.075899 0.138954 -0.033149 0.036396 0.15184 -0.062087 0.27609 -0.248157 -0.323323 0.157159 -0.332297 0.311176 -0.059496 0.153299 0.205494 -0.04181 -0.144446 -0.068392 0.191967 -0.214248 0.334061 -0.04252 -0.01493 -0.006989 -0.125736 0.148147 -0.04991 -0.076108 -0.153732 0.12042 0.055588 -0.045277 0.142713 -0.082243 -0.125259 -0.089266 -0.025666 0.133343 0.009848 -0.015173 -0.100461 0.073668 -0.022126 -0.231365 0.274509 -0.234626 -0.179742 0.007321 -0.022553 0.1406 -0.141194 -0.15879 -0.082408 0.053055 0.162403 -0.051695 -0.237856 0.127849 0.324379 -0.401671 0.056093 -0.149341 -0.153639 0.284711 0.124537 0.129673 -0.071819 -0.17084 -0.223479 0.15279 0.326588 -0.459146 0.286856 -0.010047 -0.119906 0.31089 -0.107833 0.150034 0.254831 -0.064395 0.2282 0.024965 -0.022043 -0.094339 0.26289 -0.085994 0.010939 0.065569 0.182611 0.247337 0.70426 0.165194 0.12851 -0.105312 0.227483 -0.296337 0.328294 0.601463 0.204559 -0.049311 0.136289 -0.186691 0.34891 0.278483 0.139974 0.021098 0.183978 0.119497 -0.271408 -0.120991 0.167461 -0.036177 -0.422431 0.129176 -0.035644 0.025982 0.129698 -0.109064 -0.077688 -0.098906 -0.121182 -0.131918 0.139475 0.155732 0.016046 0.218296 -0.263239 -0.381362 0.059626 -0.418944 -0.427584 0.106921 0.025608 -0.038365 0.086632 -0.547163 0.578221 0.118851 0.332836 -0.119423 -0.252775 -0.19581 -0.020857 0.119891 0.129447 0.084902 0.266262 0.300132 -0.389508 0.082402 -0.280605 -0.163251 0.529321 0.218745 -0.075835 0.341949 -0.242146 0.018284 -0.049218 0.013407 -0.375605 -0.022032 -0.004749 -0.163434 0.169891 0.036573 0.126342 -0.022759 -0.578247 0.247435 0.362199 0.089285
discovery 0.06075 0.142457 -0.211446 0.08934 0.117161 -0.145841 0.10631 0.136126 -0.015838 -0.089861 -0.202943 -0.100222 0.18827 -0.071567 0.062242 0.036112 -0.102752 -0.241096 0.156601 0.173431 -0.009514 0.087491 0.097783 -0.111878 0.141683 -0.023887 -0.153846 0.070428 0.223271 0.3212 0.135251 -0.118189 0.098189 -0.206937 -0.08417 0.00751 0.009482 -0.093721 -2.98E-4 -0.144583 0.368235 0.032618 0.308614 -0.177127 -0.127742 -0.076113 0.142665 0.089236 -0.028322 0.127892 0.032921 -0.099354 0.15829 -0.187673 0.093036 -0.152378 -0.083338 0.061955 -0.23348 -0.140737 -0.03763 -0.264169 -0.261127 0.063907 0.108399 -0.107219 -0.137247 -0.225578 0.162999 -0.398317 0.009531 -0.060408 0.224071 0.238495 0.083412 0.106077 -0.022331 -0.285578 0.172655 -0.181563 0.139863 0.100257 -0.237878 -0.003663 -0.054264 0.122056 -0.144743 0.078228 -0.116533 -0.009571 0.18254 -0.128649 -0.103439 -0.298045 -0.010933 0.020426 0.242635 0.008959 -0.05292 -0.085026 0.287866 -0.228734 -0.295636 -0.005344 0.222027 0.090484 0.035646 0.022915 -0.052362 0.091503 -0.05173 0.021899 0.056508 -0.034697 0.131766 -0.001966 -0.034302 0.071856 0.142488 0.138688 -0.178366 0.214483 0.034803 -0.168884 0.032009 -0.318555 0.154206 0.038302 -0.08744 0.009595 0.116397 -0.287143 -0.068905 0.058213 0.011806 -0.113775 -0.057557 -0.067976 -0.008947 -0.076578 -0.022015 -0.070444 -0.170404 -0.030247 0.101263 0.036894 0.089905 0.22306 -0.092536 -0.180628 0.202313 -0.110961 0.020895 -0.040469 -0.257534 0.139767 0.013704 -0.275797 0.059086 0.111462 -0.263519 0.041437 0.177142 0.172872 -0.041648 0.093315 0.054332 0.04408 0.231967 -0.185446 -0.194864 -0.116237 0.012357 0.058605 0.015182 0.159582 0.018438 -0.087559 -0.110211 0.016707 0.265899 -0.024745 0.294006 -0.213516 -0.161053 0.072563 0.294999 0.111198 -0.071836 0.125688 -0.116595 0.105163 -0.24053 0.031909 0.236734 0.084409 0.155715 -0.135052 0.234373 -0.158683
hospital -0.154696 0.133855 -0.158007 0.446685 0.23314 0.106509 0.046165 -0.28411 0.295065 -0.164648 0.190353 0.168342 0.188927 0.03911 0.173416 0.064837 -0.18315 -0.170503 0.221611 -0.088132 -0.101699 0.304413 0.098954 0.340632 -0.448143 0.208176 -0.172154 0.206845 0.171381 -0.248879 -0.164195 -0.028504 -0.222982 -0.03576 -0.138625 0.24809 0.056174 0.007279 0.128966 -0.17067 0.255631 0.191777 -0.117064 0.255435 -0.254654 -0.305468 0.296757 -0.096196 -0.012914 0.278764 0.025862 -0.115416 -0.27742 0.045387 -0.629867 -0.004128 0.083465 -0.3037 -0.161503 0.008813 -0.18891 -0.076185 -0.344689 -0.209417 -0.039359 0.147156 -0.079336 0.143435 -0.395872 0.039432 -0.129825 -0.106957 0.281962 -0.006787 0.054039 0.244208 0.339522 -0.461559 -0.206632 0.071215 0.111772 0.138321 0.261041 -0.123479 -0.018954 -0.154195 -0.09911 -0.089575 -0.074069 -0.217691 0.049065 -0.19414 0.374257 -0.066699 -0.02965 0.200915 0.078131 0.049081 -0.266902 -0.283454 -0.379658 0.099348 -0.008933 0.034054 -0.053044 0.130853 0.334121 0.188751 0.234339 0.14259 0.101657 -0.11711 -0.189181 -0.117365 0.150058 -0.108049 0.107971 -0.31631 0.190664 -0.027894 0.098112 -0.121171 0.109367 -0.318852 0.148697 -0.099561 0.008874 0.081966 -0.037656 -0.085559 0.037999 0.478051 0.14258 0.397087 0.004718 -0.591181 0.12783 -0.232503 0.114859 -0.118512 0.230239 -0.448162 0.18563 -0.219663 0.024091 0.552582 -0.232057 0.098212 -0.067051 -0.11374 -0.20316 0.265613 0.085368 -0.021894 -0.002799 -0.044081 0.021572 -0.069535 0.048732 0.159835 -0.181554 -0.163593 0.073246 0.244453 0.070556 0.410925 0.09046 0.035758 0.114898 -0.304317 0.188543 0.129896 0.010708 0.326553 0.023134 0.048227 -0.250544 0.19134 0.240139 0.146728 0.659849 -0.251813 0.281076 -0.064577 0.034625 0.342679 -0.06752 0.169208 -0.37062 -0.241015 -0.152307 -0.027466 -0.220218 -0.169985 0.123695 -0.042913 -2.33E-4 0.041223 0.378182 0.151994
computer 0.039986 0.02922 -0.3229 -0.061688 0.339177 -0.132466 0.093793 -0.11754 0.135494 -0.065892 0.265933 -0.078997 0.002519 0.148924 0.119893 -0.076424 -0.380149 -0.135732 0.022531 -0.068336 -0.037817 0.252227 0.061503 0.104747 -0.139586 0.135412 -0.273827 -0.357005 -0.273868 0.13647 -0.143617 0.018348 0.092599 -0.265009 -0.115621 0.225835 -0.047125 0.233076 0.318203 0.19263 0.147275 0.213417 0.044868 0.311058 0.019576 0.012113 -0.099238 0.027773 0.222917 0.045674 0.056042 -0.343037 -0.097309 0.020216 -0.180177 -0.168705 0.198066 -0.199059 0.063441 -0.327904 -0.056201 -0.162721 0.044947 -0.079081 0.146414 0.069725 -0.296856 0.0329 0.099849 0.065993 0.184311 0.052572 0.183553 0.086463 0.069549 -0.09478 -0.105967 -0.273014 0.135885 -0.127073 0.121588 0.086905 -0.432367 0.003152 0.003574 0.35677 -0.069783 0.143652 -0.081061 -0.116067 0.351065 -0.11106 0.491579 -0.157258 -0.027763 0.051561 -0.260514 0.295566 0.096581 0.057575 -0.06319 -0.213543 -0.081793 -0.01996 -0.258647 -0.010986 -0.102421 -0.326399 0.322223 -0.351895 -0.029293 0.072455 -0.029441 0.070788 -0.186362 0.055983 0.131967 -0.16929 -0.061876 0.014161 0.199595 0.25246 0.12974 0.128005 -0.080237 -0.260792 -0.136644 -0.401898 0.13755 0.072809 -0.117845 0.111374 0.171878 0.268319 -0.09077 -0.45016 0.119855 -0.16807 0.027435 0.100397 0.122091 -0.20325 0.028348 -0.036113 -0.029296 -0.247462 -0.031722 -0.054661 -0.142233 0.082747 -0.24516 -0.611172 -0.060669 0.053731 -0.144245 0.229012 0.115063 0.295449 0.222402 -0.14518 -0.279571 -0.145883 -0.170618 0.256405 0.097267 0.16228 -0.077898 0.112584 0.212321 0.393651 -0.249361 -0.140575 0.102826 -0.133223 0.128584 -0.408141 0.111544 0.103279 -0.041401 -0.043178 0.061668 0.062023 0.16472 -0.10932 -0.012863 -0.082945 0.438151 0.057634 -0.041483 0.320106 0.230876 -0.047862 0.00742 0.10385 0.205167 -0.175316 0.289238 0.020447 0.156529 -0.087354
queen 0.036899 0.251355 0.0781 0.107961 -0.05984 -0.163379 0.055416 -0.051346 0.167017 0.373004 0.005467 -0.065818 -0.078517 0.024505 -0.076691 0.00625 -0.261814 -0.057776 0.014859 -0.004004 0.018233 -0.019963 0.038546 0.173852 0.093538 0.329147 0.080767 -0.29836 -0.027728 -0.202038 -0.092778 -0.152586 0.059835 -0.137004 -0.002059 0.064692 0.11096 0.045725 -0.093474 -0.065785 0.191742 0.104534 0.10631 0.011218 -0.110729 -0.033829 -0.024296 0.097554 0.134021 -0.094183 0.026407 0.06162 0.053413 0.081156 -0.089242 -0.098372 0.231471 -0.0645 -0.214296 -0.031556 0.139663 -0.058638 -0.154845 -0.19416 0.237063 0.016447 -0.191826 -0.161789 0.134654 -0.122096 0.048353 -0.223414 -0.086746 -0.118556 0.097359 -0.120012 -0.005428 -0.117836 -0.111742 0.020902 -0.09194 0.250009 0.062261 0.107538 0.129168 0.061253 0.006422 0.022401 -0.030038 -0.020107 0.060246 -0.181528 -0.020181 0.027947 -0.022132 -0.135583 0.100639 -0.217534 -0.065726 -0.078767 0.205057 0.163641 -0.251171 0.098286 0.252207 0.242832 -0.05944 0.079323 0.092322 0.030244 -0.091761 -0.076359 -0.105532 -0.150658 0.1824 -9.84E-4 -0.006058 -0.024688 0.174979 0.026004 -0.01095 0.331203 0.100768 0.065803 0.060007 0.063603 -0.057409 -0.05953 0.052554 0.152736 0.097894 -0.086367 0.092657 0.028257 -0.192997 0.04371 0.030034 0.101184 0.115412 -0.049795 -0.098457 -0.140343 -0.080507 0.030289 -0.089515 0.163736 0.097719 -0.084672 0.121863 -0.191734 0.040596 -0.151314 0.044043 -0.067023 0.063702 0.022464 0.088323 -0.165642 0.003649 -0.078263 -0.002241 -0.12584 0.253627 -0.03374 -0.027399 0.204746 0.023872 -0.014654 0.064044 0.153557 0.046869 0.049346 0.034102 0.181608 -0.044534 0.121414 0.11915 -0.258544 0.022453 -0.05951 -0.00846 0.201534 0.12322 0.060624 -0.141636 0.006018 -0.07225 -0.05238 -0.02272 -0.193452 -0.001271 -0.113109 -0.025133 0.077182 0.24034 -0.124407 -0.033765 0.034262 0.183752 -0.175958
wizard 0.071285 -0.081666 0.003649 0.090977 0.131089 -0.038869 0.046334 0.012037 0.100725 0.039354 0.032462 0.027827 -0.098827 -0.089213 -0.07134 -0.115087 -0.084591 0.035714 0.021145 0.015224 -0.022172 -0.009029 -0.025326 0.098245 0.009317 0.041495 -0.046295 -0.145307 0.034761 -0.01008 -0.147783 -0.008349 0.092024 -0.013663 -0.023117 -0.096157 0.052477 -0.034152 0.049741 -0.114805 0.113786 0.011041 0.022358 0.001901 -0.027865 -0.043436 0.0134 0.013088 -0.083552 0.037032 0.036668 0.078964 0.065748 0.09107 -0.113118 0.029383 0.02343 0.020945 0.013164 -0.041802 0.007412 0.005163 -0.127217 -0.07439 -0.003324 -0.041679 -0.094969 -0.032953 0.121812 -0.042168 0.021304 -0.139317 0.00293 -0.098624 0.096702 -0.144424 0.085945 -0.040833 -0.091804 0.033972 -0.072275 0.132594 0.057902 0.03581 0.074473 -0.042592 0.098179 0.171715 0.009468 -0.074823 0.13043 -0.074012 0.029854 0.050428 0.065135 0.025449 -0.037674 -0.032886 0.050462 0.067141 0.094119 0.034224 -0.027231 -0.076129 0.028469 0.121983 0.006314 0.004651 0.047899 -0.034585 0.027485 -0.008804 -0.072379 -0.04002 0.113239 0.010605 0.034586 0.022576 0.19262 0.02606 0.019777 0.113187 0.019694 0.05396 -0.075604 0.002067 -0.015964 -0.055838 0.07748 0.038172 -0.031496 0.075239 -0.04009 0.073026 0.082058 -0.03911 0.076911 0.068671 0.039175 -0.073573 -0.123145 -0.035385 -0.035113 -0.088176 -0.006745 0.037896 0.06868 -0.030512 0.081998 0.031314 -0.080575 -0.07576 -0.084379 0.022431 -0.038662 -0.009696 0.117487 -0.005977 0.006144 0.009836 -0.01924 -0.132093 0.052911 0.035216 -0.133163 -0.014366 0.032341 -0.033482 -0.023187 0.027103 -0.005105 -0.067391 0.113584 0.153132 0.036252 0.064623 0.224904 0.021206 -0.043061 0.050545 -0.105172 0.016908 0.127873 -0.030071 -0.01456 0.112777 -0.086056 -0.09538 -0.029731 -0.146341 0.013481 -0.052053 -0.031798 0.0391 0.076484 -0.09699 0.006048 -0.003591 0.015713 0.04847
oil 0.143037 0.219996 -0.125824 -0.257322 0.10483 0.368052 0.55419 0.213684 -0.190099 -0.513558 -0.144744 -0.214722 -0.047473 -0.182204 0.022244 -0.105663 -0.482894 0.021552 0.15316 -0.030777 0.017275 0.196774 -0.155474 0.246407 0.179544 0.019269 -0.571709 0.16969 0.076841 0.391828 0.142633 0.120022 -0.114063 -0.199523 0.062217 -0.397272 0.334616 0.039386 0.032652 0.133758 -0.054143 0.352201 0.079973 -0.033683 -0.208584 0.005955 0.401893 -0.348593 0.144538 -0.002441 -0.007928 0.091809 -0.046865 0.174344 -0.26474 -0.066184 -0.094606 -0.006323 0.082008 -0.106347 -0.016943 0.157347 -0.284055 0.379605 0.057626 -0.501957 -0.46656 -0.108659 0.253766 -0.239815 -0.445397 0.355681 -0.28984 -0.046362 -0.199142 0.017181 -0.165079 0.428699 -0.168167 -0.194789 -0.213456 -0.128313 0.009655 0.29315 -0.203733 -0.123455 -0.247191 0.279365 0.482162 0.017845 0.184718 0.028307 -0.708989 -0.166612 0.12496 -0.170815 -0.185903 0.222947 0.00385 0.055158 -0.211558 0.021142 -0.130793 -0.064003 0.06673 0.16228 0.057423 -0.010537 -0.241449 -0.167341 -0.066337 0.049272 0.611894 0.351369 0.024655 0.180178 0.034801 -0.18329 0.121539 0.01459 0.025274 -0.151285 -0.395684 0.032897 0.25818 -0.470387 -0.219607 0.074983 -0.168556 0.167747 0.434393 -0.083841 -0.093125 -0.157265 0.203725 0.255643 0.163752 -0.047545 -0.205705 -0.067068 -0.337127 -0.487306 0.180927 0.059858 -0.055082 0.126414 -0.02273 0.19489 0.424495 0.126353 0.084771 -0.021865 -0.527837 0.176643 -0.054878 0.270546 -0.137901 -0.275386 -0.412865 0.011268 -0.08017 -0.366306 0.116782 -0.002098 0.41141 0.340917 0.034283 0.031342 0.361519 0.260402 0.053984 -0.045487 -0.043281 -0.492951 0.082874 -0.250905 -0.121205 -0.497398 0.080595 0.120527 0.469687 0.028769 0.445533 0.145107 -0.211577 -0.192322 0.379064 0.167305 0.230863 0.188425 -0.158539 0.197861 -0.034058 0.246241 -0.107774 0.123988 0.17555 -0.081455 0.106738 0.525495
currency -0.146575 0.242324 -0.182949 -0.15457 -0.140782 0.335191 0.288807 -0.400425 0.027367 -0.051975 0.015755 0.38714 0.457447 0.127176 -0.079296 -0.251243 -0.135871 -0.285482 0.262616 0.082864 0.258749 0.103429 -0.026889 0.199789 0.004864 -0.073836 -0.175646 -0.014308 0.071259 0.380017 0.07287 0.253836 -0.081288 -0.111146 -0.093795 -0.045973 0.014569 0.015471 0.028908 0.313521 -0.028785 0.043625 0.085974 -0.03947 -0.297046 0.153883 0.106795 -0.127353 -0.01643 -0.00856 0.291967 -0.004127 -0.211581 0.298472 0.287 0.154264 0.179307 0.022819 -0.114437 0.130506 0.312918 -0.038861 -0.284354 0.133716 -0.026655 -0.328782 -0.262771 -0.182847 0.181383 -0.001675 -0.040172 0.218297 -0.234838 -0.327365 0.088119 -0.04255 -0.143666 0.320531 -0.012348 -0.098474 -0.19806 -0.19605 -0.105552 0.131008 -0.322221 -0.339353 -0.245104 0.149892 -0.007342 -0.33703 0.015566 -0.056116 -0.138535 0.393361 0.011278 0.138053 -0.378489 0.122512 -0.015824 0.024101 -0.038575 0.122929 0.044032 -0.205368 -0.329584 -0.010924 0.06216 0.017658 -0.125648 -0.249667 0.226366 -0.05396 0.132999 0.011733 -0.148821 0.098878 -0.119041 -0.113593 -0.131375 -0.207385 0.102252 0.064905 -0.529696 0.093577 -0.041309 -0.214707 -0.359057 -0.221076 0.147494 0.00366 0.125781 -0.296362 -0.273492 0.126119 -0.209416 0.028997 -0.075637 -0.188407 -0.280434 0.184557 -0.331902 0.017671 0.046024 -0.023739 0.375473 0.108888 0.111072 0.271197 0.30254 -0.130435 -0.132123 -0.105883 0.150781 -0.203825 -0.022826 0.260489 0.077557 -0.275939 0.10878 0.004279 -0.118287 -0.107721 0.342423 -0.045135 0.255247 0.100031 0.337434 -0.218195 0.267006 0.281706 -0.307578 -0.253371 -0.18922 -0.296041 -0.482783 0.220655 -0.125161 -0.418257 -0.08116 -0.095607 -0.183786 -0.110013 -0.112301 0.193994 -0.569421 -0.156822 0.026652 -0.416469 0.02042 0.077061 0.077482 -0.090284 0.290433 0.330966 -0.125177 0.52099 0.005589 -0.163337 -0.142707 0.259807
laundering -0.091664 -0.001031 0.061067 0.049051 0.205225 0.050892 0.138758 0.217996 0.209027 -0.029429 -0.32466 0.10669 0.255184 0.031372 0.133816 -0.207036 -0.384069 -0.102547 -0.34752 -0.00415 -0.29785 0.152208 -0.194905 0.22916 0.423238 -0.375643 -0.287771 -0.054353 0.194005 0.263171 -0.149275 0.130641 0.076435 0.333189 0.134976 0.187728 0.256903 0.142627 0.188505 0.098756 -0.126576 0.100464 0.369292 0.16112 -0.03956 -0.1256 0.646462 -0.024421 0.179457 -0.341006 0.079258 0.068481 -0.015098 -0.154422 0.036007 0.113139 0.255297 -0.201456 0.194151 0.244999 -0.221335 -0.152658 -0.141056 0.103299 -0.077204 -0.403065 -0.223742 -0.281205 -0.109595 -0.053085 0.242111 0.070443 -0.181673 -0.337698 -0.029671 0.077547 0.057274 -0.17258 0.153276 -0.355353 -0.460697 0.172846 0.494837 0.427106 -0.108176 0.21406 -0.274125 -0.196494 -0.110344 0.022987 -0.216154 0.223377 0.268447 -0.002896 0.072616 0.197335 -0.287895 -0.038663 0.13365 0.163835 -0.094006 -0.002657 -0.276633 0.107953 -0.494722 -0.392346 -0.033557 -0.112488 -0.045739 0.518932 0.001019 -0.052524 -0.114769 -0.023569 0.151328 -0.320649 -0.115098 0.219704 -0.06114 0.147957 -0.18206 -0.392114 -0.060452 0.078673 0.097075 -0.337626 0.29123 -0.128422 -0.064759 -0.036321 -0.033604 0.025922 -0.104467 -0.395085 0.290665 0.141832 -0.314988 -0.052749 -0.061471 0.085358 -0.070419 0.158886 -0.23706 0.167047 0.177834 0.253719 0.566419 -0.132053 0.102531 0.370014 0.052852 -0.13344 -0.215671 0.152983 -0.089282 0.145602 0.116122 0.133473 0.109881 0.321232 -0.271934 0.037239 -0.019218 0.16046 0.221958 0.078731 0.210864 -0.42379 -0.056283 0.48833 0.346354 0.268025 0.417524 -0.141265 -0.589231 0.215117 -0.047388 0.227961 -0.168901 -0.301677 0.032051 -0.180866 -0.214566 -0.342654 0.114494 0.168278 -0.101492 -0.084315 0.179194 -0.029154 0.038125 0.064331 0.550991 -0.242535 -0.066401 0.004971 0.248303 -0.038345 0.07848 0.157929
midday -0.019551 0.339669 -0.179269 0.133789 -0.102987 0.159891 0.109767 -0.229854 0.255236 -0.013277 -0.264897 -0.263347 0.504931 -0.215143 0.015775 0.06037 0.015963 0.300816 0.039438 -0.247628 -0.157051 -0.157549 0.08804 0.039725 -0.264151 -0.076306 -0.105118 -0.179833 -0.021535 0.118302 0.027428 0.261667 -0.46667 0.240748 0.029834 0.349735 -0.21535 0.031791 -0.01845 -0.315276 0.0374 -0.017605 -0.346169 0.147768 -0.420104 -0.061275 0.106476 -0.24499 -0.167337 0.259425 -0.226989 0.044681 -0.234288 0.314123 0.316253 -0.123724 -0.290683 0.021726 0.203488 -0.03154 -0.322532 0.114328 0.136367 0.040101 -0.184063 -0.237654 0.077086 0.132916 0.141986 0.347684 0.009514 -0.066389 0.261645 -0.243103 -0.226185 0.221183 -0.078156 0.194031 0.247903 -0.188406 0.108689 -0.040732 -0.054738 -0.025351 0.104604 -0.015401 0.057156 -0.03199 0.022225 0.164926 -0.232183 0.09989 -0.010544 -0.095264 0.025509 -0.285668 0.059421 0.519327 0.016303 -0.067458 -0.135824 0.130753 -0.019275 -0.28861 -0.295442 0.327508 0.199847 -0.233498 -5.31E-4 0.115334 -0.160534 -0.118294 0.166245 0.244526 -0.077403 0.132613 -0.21988 0.095826 -0.216176 -0.043858 0.175061 0.015003 -0.12944 0.089038 0.128165 0.052659 -0.245889 0.118118 -0.220274 -0.226697 0.18061 0.268987 -0.059692 -0.03531 -0.016803 0.07172 0.112226 -0.210856 -0.037226 -0.268853 0.126157 -0.136822 0.091797 0.021075 0.254489 0.3541 0.094906 -0.130364 -0.105974 -0.060738 0.056392 -0.007227 0.090937 0.227907 -0.106693 -0.365352 -0.026427 0.125919 0.033868 -0.134813 -0.074254 0.378045 0.002524 -0.082736 0.284519 0.031584 0.093588 0.08273 0.233751 0.034072 -0.026935 0.161007 -0.194303 0.213446 0.008941 0.081488 0.170208 -0.152342 0.031808 0.092543 0.197777 -0.168057 0.035303 -0.227448 -0.290253 -0.035215 -0.095616 0.007943 -0.162248 0.277362 -0.124279 -0.140918 0.016124 0.163648 0.170347 0.126074 -0.365835 -0.183728 -0.082429 0.517568
Arafat 0.062658 0.121783 0.141129 0.078954 0.137411 -0.13456 0.060809 -0.114153 0.178625 0.09923 0.025218 0.098731 0.039368 0.108624 -0.060956 0.052549 -0.095328 0.172509 -0.043386 -0.038622 -0.07196 0.00993 -0.031555 0.066233 -0.090349 -0.027746 0.119105 -0.005686 -0.112969 -0.161935 -0.018237 0.047304 -0.205397 0.149254 0.110087 -0.199952 0.027069 0.097796 -0.054418 -0.199865 0.223683 0.096922 0.037936 -0.138342 -0.01037 0.018351 -0.01743 -0.091258 -0.041352 0.071014 0.11173 0.065067 0.002163 -0.028341 -0.148012 0.046605 0.194199 -0.070244 -0.007911 0.07209 0.175214 -0.01822 -0.112369 -0.099368 0.093072 -0.02012 -0.005197 0.083888 -0.053104 -0.048232 0.1834 -0.099091 -0.020957 -0.032162 0.254531 -0.052141 0.077398 -0.100485 -0.100175 0.044646 0.038319 0.022925 0.043368 0.034915 0.077576 0.020237 0.090523 0.185789 0.094421 0.071112 0.173607 -0.027147 -0.014498 1.57E-4 0.06623 0.036705 0.033785 0.012542 0.107301 0.090349 -0.122947 0.086956 0.04443 0.039751 0.027379 0.107404 0.101473 -0.118885 -0.028779 0.015606 -5.94E-4 -0.077751 -0.012599 0.031514 0.058335 0.015679 0.070303 -0.049671 0.106407 0.1225 -0.022275 -0.004157 -0.036919 0.095048 0.142215 0.158386 -0.008879 0.08083 0.024118 0.088323 0.012993 0.130781 0.002711 -0.104464 0.076965 -0.100327 0.099841 0.081913 0.137353 -0.165549 0.038398 0.057619 -0.082989 0.054395 0.01177 0.111227 0.077645 -0.037379 0.016577 -0.037446 0.080917 -0.037556 -0.064797 0.115463 -0.067273 0.040564 0.058707 -0.103234 0.036571 0.035916 -0.04357 -0.03157 -0.161343 -0.150122 0.008445 -0.043372 0.021559 -0.082447 -0.025588 0.082329 0.057023 0.043218 0.139553 0.094826 0.019797 -0.062868 0.025141 -0.149525 0.039629 -0.352496 0.040893 0.135042 -0.113271 0.144031 -0.081484 -0.076439 -0.108879 -0.159358 -0.185636 -0.247495 -0.094838 0.040056 -0.060436 -0.087891 0.185392 0.135931 -0.004273 0.101202 0.153492 -0.037408
man 0.075741 -0.155759 0.121843 0.003519 0.476526 0.042557 0.130788 -0.00493 0.177185 0.027597 -0.089681 0.193075 -0.122521 0.055515 0.054705 -0.010579 -0.351483 0.19605 -0.111923 -0.05099 0.163481 0.315118 0.136534 0.090373 -0.197183 0.047093 -0.003361 -0.407805 0.109399 -0.143721 -0.166784 -0.048663 0.217832 0.214445 0.055228 -0.020002 0.308611 0.099758 0.218631 -0.133096 0.287865 0.339521 -0.208437 -0.294849 -0.131991 0.018438 0.219834 -0.141544 -0.197437 -0.006132 -0.077459 -0.016146 -0.040109 -0.215703 -0.208594 0.31678 0.238598 -0.262032 -0.065373 -0.054481 -0.118499 0.347365 -0.351615 -0.516462 -0.176988 -0.106756 -0.144956 0.002881 0.165559 -0.125456 -0.063826 -0.100126 0.119256 -0.174427 0.28768 -0.345916 0.040736 -0.490813 -0.174922 0.068623 -0.431481 0.111905 0.41797 -0.338173 0.082703 -0.010601 0.069271 0.1361 0.079673 -0.142887 0.261527 0.059424 -0.269595 0.216447 0.096967 0.038188 -0.061822 0.113518 -0.264726 -0.075361 0.107052 -0.037355 -0.381411 -0.001244 0.029173 0.107406 -0.011859 0.130283 0.056119 0.215939 -0.19208 -0.050444 -0.17254 0.034231 0.127578 0.093261 -0.120468 0.009434 0.304603 -0.311318 -0.102771 0.188576 0.177537 0.025949 -0.12727 0.049227 0.173082 -0.057852 0.129729 -0.089245 0.032099 0.003721 -0.121432 0.073183 -0.172492 -0.112981 0.135883 0.172272 0.41044 -0.192615 -0.214315 0.011188 0.095105 -0.080672 -0.231721 0.118841 0.287795 -0.174985 -0.019508 -0.176664 -0.294441 0.221663 0.00999 0.056702 -0.202621 0.195247 -0.183796 -0.022849 0.45511 0.194521 0.034938 -0.222042 0.207151 -0.201113 -0.134722 0.042053 -0.007223 -0.013627 -0.076154 -0.006584 0.085265 0.102726 -0.124937 0.238904 0.072769 0.084493 0.11374 0.272869 0.09416 -0.070238 -0.134432 -0.319977 0.468534 -0.011906 -0.065044 0.229987 0.134929 -0.203842 -0.205843 -0.088794 0.224468 -0.165673 0.074202 -0.085104 0.172303 0.116972 0.040666 0.27548 0.222593 -0.25749
keyboard -0.046648 -0.003529 -0.090556 -0.208504 0.089791 -0.035594 -0.089316 -0.128126 0.086329 0.091292 -0.027057 -0.084884 -0.153937 0.019974 0.02501 -0.112078 -0.233396 -0.025159 -0.011662 -0.113923 0.061096 0.108294 -0.155664 0.041093 -0.024421 0.289768 -0.247437 -0.043722 -0.099592 0.170111 -0.101103 -0.023211 0.039922 0.164594 -0.129114 -0.038915 0.021073 0.184611 0.04532 0.012102 0.168658 0.048569 0.123104 0.342381 -0.023282 0.064434 -0.059407 0.147787 0.166416 0.0716 -0.093834 -0.054078 -0.149701 0.184723 -0.045255 -0.045928 0.337034 0.044564 0.056782 -0.104604 -0.021136 -0.063922 -0.110389 -0.03332 0.103335 -0.003903 -0.054218 0.044668 0.359212 -0.042376 -0.162446 0.008657 0.077639 0.057615 0.118173 0.00587 -0.110061 -0.133936 -0.021392 -0.014289 -0.00983 0.122072 -0.108327 0.274994 -0.137591 0.197379 0.098575 0.02524 -0.052421 -0.254215 -0.017991 -0.150503 0.164835 -0.065381 -0.009394 0.130297 -0.19047 -0.003637 -0.085362 -0.05742 0.0922 0.189575 -0.070206 -0.047688 -0.121336 0.023454 -0.00906 -0.262752 0.041753 -0.275887 -0.093018 -0.038377 -0.058534 -0.100476 0.115111 0.068618 -0.149111 -0.03078 0.250361 0.130704 0.110038 0.246375 0.113815 -0.128704 -0.185932 -0.067278 -0.064867 -0.133875 0.012634 0.223936 0.04116 0.056794 -0.250759 -0.01471 -0.087683 -0.150507 -0.089991 -0.259379 0.019912 0.004775 -0.014193 -0.116154 -0.062433 -0.009332 -0.016093 -0.231466 0.110182 -0.027844 0.121293 0.0305 0.0101 -0.258189 -0.052881 0.06677 -0.022962 0.183109 0.035091 0.038386 0.069128 -0.239267 -0.117947 -0.128483 -0.008752 0.235504 0.020656 0.021114 -0.034215 0.028377 -0.079211 0.296247 -0.191098 -0.167925 -0.180036 0.283559 0.124508 0.120802 0.248158 -0.201571 0.067359 0.082581 -0.221806 0.158487 0.113166 -0.147146 -0.085723 -0.221064 0.032262 -0.078162 0.016788 -0.057921 0.092128 -0.066214 0.046836 0.268051 0.295694 -0.174982 0.228769 0.099257 0.168583 -0.066112
announcement 0.271354 -0.007274 -0.081612 0.129347 -0.28897 0.232123 0.144409 -0.181137 -0.097035 -0.01079 -0.035434 -0.043475 0.489665 -0.480958 0.033156 0.090024 0.176441 -0.050962 0.065078 0.484344 0.043266 -0.268107 -0.176545 -0.275857 -0.254327 0.072335 0.183194 0.049073 -0.04079 0.145439 0.339071 -0.235612 0.017016 -0.301379 -0.013706 -0.432873 -0.031287 -0.227438 -0.249164 -0.168502 0.264385 -0.056461 0.32053 0.031752 -0.018709 -0.292083 -0.08091 -0.107289 -0.155005 0.149818 -0.149628 -0.108067 0.066307 -0.05684 -0.001681 0.014413 -0.163464 0.231781 -0.015276 -0.192091 -0.042709 0.076885 -0.270722 -0.029236 -0.329643 -0.004852 0.130266 -0.078181 -0.079028 -0.167339 0.020824 -0.036056 0.325603 0.005647 0.054002 -0.046572 -0.119866 -0.099473 0.19851 -0.486585 0.163439 0.01439 -0.076665 -0.181999 0.074817 0.254843 -0.202758 0.141067 0.11388 0.318993 -0.096446 -0.085324 -0.397028 -0.260352 0.160049 0.057805 0.056061 -0.073074 -0.057912 -0.393918 0.100207 -0.044142 -0.331071 3.96E-4 0.100901 0.32543 0.073152 0.148461 -0.037826 0.238545 0.041799 -0.091363 0.063958 0.075712 -0.038509 0.14668 -0.005736 0.110799 0.006338 0.006116 0.092626 0.157336 -0.038311 0.079449 0.116329 -0.089394 -0.068545 0.299328 -0.212158 -0.254574 -0.07283 -0.213341 -0.098905 0.282368 0.174959 -0.214536 -0.151606 -0.045471 -0.110058 -0.521924 -0.08235 0.077437 -0.218188 0.117475 0.260204 -0.218449 0.121272 -0.218732 0.0812 0.12306 -0.100923 -0.239984 -0.144918 -0.229843 -0.456688 0.006448 0.09182 -0.233309 -0.044276 -0.00678 -0.145162 0.162574 -7.73E-4 -0.28018 -0.029741 0.098702 0.35705 -0.118405 0.217849 -0.121795 -0.073751 0.023205 -0.069562 0.162099 -0.065212 -0.024145 -0.119388 0.28022 -0.127851 -0.186416 -0.04948 0.202233 0.271057 -0.073521 -0.252345 -0.037917 -0.021295 -0.058572 -0.621097 0.26725 0.131912 0.049851 -0.355711 0.426283 0.206714 0.291716 0.08253 -0.049875 -0.017786 -0.08157
racket -0.103504 0.095095 0.173046 0.148386 0.137063 0.005999 -0.063587 -0.154887 0.158083 0.174348 -0.098026 -0.072163 -0.12037 0.001108 0.022924 -0.066511 -0.262171 0.021372 -0.195809 0.057426 -0.020799 0.068151 -0.093774 0.047892 0.031432 0.100635 0.037171 -0.058978 0.051327 0.116378 -0.042291 -0.070769 -0.07896 0.236313 0.051828 0.149856 0.143329 0.132807 0.040631 -0.002888 0.01911 -0.088026 0.126241 0.097363 -0.057049 -0.032356 -0.003677 0.10069 0.072039 0.18688 0.016715 0.035255 0.130254 0.009741 0.041668 -0.029045 0.182733 -0.141072 -0.036145 -0.065998 0.009912 3.06E-4 -0.100297 -0.217246 0.060422 -0.084426 0.10835 0.101413 0.089263 -0.07013 8.27E-4 0.023383 0.089977 0.093666 0.145235 -0.164756 -0.06363 -0.10302 0.101691 -0.060905 0.023667 0.034039 0.06007 0.092266 -0.07496 0.01512 -0.013583 0.006126 -0.026856 -0.016879 0.060114 -0.093436 -0.130294 -0.106778 0.021275 0.032799 -0.030296 -0.043555 0.027516 0.075892 -0.058626 0.005256 -0.030015 -0.039892 -0.02089 -0.090014 0.025865 -0.014669 0.086342 0.068723 -0.065186 0.005494 -0.082374 -0.037619 0.084396 -0.139518 -0.081721 -0.090562 0.292165 -0.037561 0.066494 0.089438 0.024203 -0.051082 -0.038231 -0.069516 0.023068 0.07581 0.04823 0.026515 -0.031707 -0.087336 0.018568 0.007066 0.026131 -0.135923 0.031355 0.105237 0.136991 -0.022862 -0.042984 -0.00418 -0.072648 -0.116541 0.036242 0.04282 0.105969 -0.066824 0.056638 0.006011 0.020261 -0.180364 -0.027603 0.037584 -3.64E-4 0.2156 0.019321 -0.042951 -0.023744 -0.010778 0.047369 0.033949 0.0649 0.049628 -0.022201 0.091715 0.066644 -0.058663 -0.001579 0.142274 0.006076 0.067567 0.067988 0.135809 -0.13544 0.017122 -0.06455 -0.041687 -0.003412 -0.08437 -0.011667 0.028951 0.080344 -0.008615 -5.3E-5 0.071545 -9.12E-4 -0.087099 -0.036537 0.074334 -0.01606 -0.059348 -0.002432 0.01424 0.231777 0.059649 0.186757 -0.058347 0.118613 0.054555
Maradona 0.004584 0.115387 0.170307 -0.073996 0.047849 0.035481 0.227172 -0.002375 0.1719 -0.010904 -0.043599 -0.066835 -0.031265 -0.026369 -0.04263 0.053089 -0.016212 0.042785 -0.031375 0.037669 0.05033 -0.035733 -0.00582 -0.009973 -0.076093 0.073294 0.103642 -0.076305 -0.142946 -0.091603 0.123612 0.030481 -0.03255 -0.002303 0.017099 -0.026794 0.007075 -0.085655 -0.199725 0.027979 -0.099257 -0.18047 -0.014057 -0.135504 -0.062222 0.122554 0.080018 -0.220364 -0.025068 0.12557 -0.263191 -0.074312 0.087974 -0.021723 -0.060585 0.043751 0.177383 0.069788 0.012765 -0.215754 0.160618 0.073531 0.009089 -0.20145 -0.041697 -0.067231 0.119213 0.165268 0.201509 -0.092512 0.00903 -0.100639 0.019386 -9.36E-4 0.355177 -0.102429 0.038932 -1.52E-4 -0.065206 -0.026178 0.1017 0.140048 0.022408 0.110138 0.148522 -0.115327 0.140769 0.163487 -0.135966 0.120487 0.051923 -0.020039 0.004735 -0.026266 0.081854 -0.100154 0.071886 0.089309 0.165632 0.062267 0.088244 -0.026467 -0.079068 0.117069 0.007038 0.03727 -0.073785 0.119675 0.04385 0.030508 -0.058546 -0.042385 -0.076103 -0.114879 0.084444 0.075622 0.070904 -0.069851 0.148753 0.050478 -0.016345 0.102464 0.057778 -0.188504 -0.009488 0.063138 0.06144 0.119775 0.057105 -0.079187 0.057461 0.061036 0.024743 0.109919 0.083835 -0.010137 0.131134 0.043641 -0.035316 -0.125784 0.079153 -0.053316 0.148389 -0.070583 0.061475 0.158169 -0.099063 -0.060217 0.027684 0.039558 -0.220149 0.015691 -0.01557 -0.083138 -0.115845 0.190437 -0.018507 -0.131697 0.02102 0.145483 -0.060976 -0.049871 -0.085889 -0.073842 -0.079107 -0.026914 -0.108986 0.037883 -3.88E-4 0.04019 0.004903 9.88E-4 0.077274 0.113623 -0.081949 -0.032325 0.039737 -0.153198 0.064952 -0.060548 -0.037164 0.207759 -0.138087 0.058171 -0.136376 -0.120973 -0.082874 0.019226 -0.242556 -0.035573 -0.064257 -0.012136 -0.072276 0.067794 0.160574 0.037951 0.113225 -0.075028 0.012096 0.12622
anxiety -0.142808 0.141288 -0.210552 0.128591 0.107625 -0.278893 0.244049 0.217303 -0.203862 0.150391 -0.285528 -0.064585 0.087127 -0.084156 -0.203131 -0.299922 -0.197318 -0.315546 0.209289 -0.019987 -0.103783 0.181482 0.047387 -0.048015 0.179892 -0.11327 0.002231 0.001104 0.118066 0.2919 0.193547 0.042572 -0.059706 0.018099 0.026743 -0.104552 0.220137 0.16289 0.215046 0.079404 0.086003 0.016129 0.002148 -0.14148 0.078033 0.07776 -0.0587 -0.114794 0.229778 0.169966 0.070074 -0.127237 0.004779 -0.064124 0.014822 -0.234556 0.272997 0.035053 0.090808 -0.00441 0.335071 0.001736 -0.079438 -0.339444 0.156244 -0.090592 -0.107245 -0.104328 -0.150836 -0.003159 -0.040311 0.444083 0.049827 0.20555 0.121136 -0.036995 -0.035905 0.150531 0.257964 -0.210651 0.209651 -0.1872 0.068971 0.117445 -0.544407 -0.047103 -0.183276 -0.142987 0.153231 -0.241767 -0.06006 -0.073579 0.332178 0.173568 0.164279 0.041177 0.217237 -0.209667 0.075934 0.151938 0.209877 -0.001656 0.254378 0.417136 -0.005868 -0.161237 -0.003562 -0.064456 -0.135637 0.046344 0.198123 -0.463938 -0.094269 -0.296613 -0.108506 -0.178907 -0.09481 -0.038159 0.283298 0.052458 -0.089132 0.010236 -0.11763 -0.192327 -0.113046 -0.055746 0.096132 -0.068276 0.248157 0.053935 0.235701 -0.034551 0.07971 0.070289 0.050557 -0.006642 0.261582 0.162465 -0.04338 -0.070259 0.052903 -0.135695 0.03817 0.033799 0.13893 -0.158135 -0.165353 0.451342 0.117031 0.121514 0.282563 -0.240638 0.104247 0.120032 -0.032332 0.155486 -0.095163 0.02774 0.294696 0.12646 -0.138927 -0.060306 0.038812 -0.12126 1.7E-4 0.31049 -0.08649 0.05424 0.074835 -0.214124 -0.148671 -0.122422 0.148697 0.18974 -0.101484 0.238024 0.314747 -0.090055 0.004752 4.86E-4 -0.065714 0.062523 0.156264 -0.280729 -0.063148 0.067586 -0.100403 0.198797 0.112622 -0.284358 -0.077314 -0.27747 -0.113054 0.167699 0.055383 0.030125 0.064815 -0.001043 -0.088997 0.305649
jazz 0.238545 0.144837 -0.0506 0.105151 0.112986 -0.433553 0.164546 0.014053 0.143015 0.146092 0.080035 -0.343436 -0.222921 0.097753 -0.239073 -0.062677 -0.169092 0.088541 -0.081632 -0.162922 0.063213 -0.101919 0.089663 -0.005036 0.284344 0.23335 0.078091 -0.241781 -0.295531 -0.089256 -0.127125 0.04891 0.050028 -0.108158 0.191288 -0.010125 0.062262 -0.013572 0.002758 -0.123588 0.271136 -0.043877 -0.113072 0.092439 0.098055 -0.003362 0.119395 0.051533 0.043077 -0.006151 -0.054961 -0.10963 0.178498 0.165856 -0.340819 0.071941 0.389768 0.043673 0.007153 -0.233078 0.062546 -0.13248 0.200803 -0.025084 0.159608 -0.19349 -0.144373 -0.081918 0.399786 0.013623 0.070469 -0.16217 -0.012676 0.154401 0.313007 -0.03307 -0.001961 0.238258 -0.131913 -0.199128 0.029983 0.334609 -0.050749 0.11312 0.08776 -0.039439 -0.033105 0.223499 0.080403 -0.008339 0.116875 -0.082899 0.05659 0.105347 -0.16934 -0.204885 0.20242 0.079604 -0.065132 -0.003858 0.291774 -0.068379 -0.251302 -0.11114 0.224799 0.252003 1.71E-4 -0.100524 0.13386 -0.193087 -0.086846 -0.119332 -0.036568 -0.087099 0.125264 -0.03265 -0.239772 0.177428 0.186143 0.102348 0.19161 0.277993 0.102051 0.022378 -0.023721 0.180297 -0.091228 -0.371218 0.055207 -0.037672 -0.034296 -0.128243 -0.097222 -0.060039 -0.010289 0.207212 0.02456 -0.083362 0.07452 -0.061476 0.175699 -0.215333 -0.060434 -0.066635 0.178051 -0.060543 0.004279 0.005868 0.006692 -0.222213 0.086965 -0.144888 0.021637 0.023148 0.060553 0.229437 0.232928 -0.098915 -0.112267 0.015046 -0.184228 -0.062738 0.237468 0.065724 -0.125259 -0.021198 0.127455 0.142717 -0.120407 0.141723 0.081049 -0.193579 0.10013 0.361629 0.06406 0.203028 0.282182 -0.100978 0.142054 0.229121 -0.316822 0.150816 -0.062303 -0.021775 -0.016574 0.192457 -0.024445 -0.288867 -0.010355 -0.121377 -0.081456 0.120374 0.254599 0.13205 0.114136 -0.138393 -0.093929 0.144118 0.151558 -0.002504
gain -0.070916 0.130428 -0.038872 0.07772 0.150621 0.052858 -0.149481 -0.191801 0.095986 0.094618 0.118173 0.129406 0.155783 -0.054383 -0.062244 0.006041 -0.386878 1.27E-4 -0.217744 0.301443 -0.238133 0.111543 0.038846 -0.44997 -0.041186 0.011723 -0.374962 -0.052934 0.202518 -0.09527 0.056655 0.292491 -0.031758 -0.10346 -0.127315 -0.128214 0.059304 0.320843 -0.012473 -0.14987 0.38816 -0.067245 0.0742 -0.153742 -0.006696 -0.198592 -0.224294 0.057044 0.14209 -0.123521 -0.442221 -0.027474 -0.051106 0.112729 0.548879 -0.13659 3.13E-4 -0.005708 0.092319 -0.088106 0.115805 0.105786 0.063245 0.12333 -0.242425 -0.203641 -0.204487 0.060514 -0.098221 0.237843 0.168091 0.282747 -0.172183 0.171943 0.313006 0.121399 0.013558 0.038735 0.097875 -0.350027 0.049586 0.126991 -0.04835 0.09879 -0.059136 0.235337 -0.108837 -0.21477 0.264571 -0.247516 -0.29791 -0.186753 0.012473 0.101485 0.18152 0.123856 -0.318474 -0.173025 -0.022852 0.024769 -0.082365 0.073374 0.149795 -0.007233 -0.192979 -0.138108 0.023858 0.117701 -0.005172 0.082674 0.261134 0.212441 -0.111322 0.153141 0.157106 -0.11665 -0.219078 0.069401 -0.009448 -0.098534 -0.063109 -0.060889 -0.181105 0.02558 -0.121101 0.003818 0.194789 0.172765 -0.237588 -0.094538 0.13232 -0.042302 -0.012666 -0.289048 -0.382238 -0.266669 -0.072129 -0.020509 -0.315781 0.180201 0.035291 -0.049448 -0.002107 -0.103911 -0.195528 0.1709 -0.180448 0.384566 -0.095889 -0.027667 0.33172 -0.227638 0.050845 -0.068468 0.270673 0.015364 -0.127171 0.030881 0.247108 0.025365 0.148892 0.023403 0.016386 -0.01339 -0.063409 -0.21064 -0.144149 -0.362513 0.034267 0.075868 0.025615 -0.038165 -0.040779 0.10445 -0.245516 0.250286 -0.019172 0.015007 -0.158593 0.028693 -0.194084 0.1541 -0.303815 -0.122921 -0.172408 -0.198303 0.112949 0.208064 -0.158078 0.170685 -0.032037 -0.072444 0.035883 0.184695 -0.093716 0.25284 0.017799 0.293745 0.075731 -0.045008
history -0.03862 0.122784 -0.156432 0.118629 0.132446 -0.101909 -0.017976 -0.031093 -0.029883 0.051742 0.051545 -0.076827 0.171842 0.223751 -0.152205 0.010422 -0.235358 -0.180512 -0.172887 -0.344277 -0.084053 -0.01838 0.088813 -0.297995 0.089206 0.051891 0.102725 -0.033275 -0.144037 -0.090881 0.239623 0.001432 0.123236 -0.152985 0.257332 0.105714 0.189419 0.018891 -0.011801 0.196935 -0.265169 -0.172567 0.057186 0.064225 0.041087 -0.140342 0.119349 0.287062 -0.066414 -0.21054 0.042042 0.023884 0.004954 0.143324 0.153968 -0.258781 0.222087 0.055349 -0.132778 -0.280054 0.125868 -0.108875 -0.029158 -0.282793 -0.17276 -0.156095 -0.197202 -0.2708 0.187969 -0.086951 0.100397 -0.297936 -0.019803 0.252068 0.330591 -0.20046 -0.251868 0.365963 0.205586 -0.286072 -0.108307 0.093417 -0.111524 -0.062202 -0.184375 0.050523 -0.10659 -0.171824 -0.0054 0.038332 0.370934 0.01468 -0.310112 0.138687 -0.318249 0.056596 -0.157868 -0.172642 -0.16053 -0.10785 0.17105 -0.003847 0.054606 -0.231335 0.103025 -0.027694 -0.532757 0.084397 0.045887 -0.01339 0.088485 -0.098557 0.114779 -0.074268 -0.183726 -0.09359 0.024154 0.091247 0.39535 -0.134558 -0.022825 0.121151 -0.063989 0.041928 0.020219 0.002243 0.089606 -0.187676 0.10689 -0.126082 -0.279798 0.01978 -0.001659 0.106435 -0.007734 0.261226 0.179363 0.079014 0.082913 0.026167 0.233828 -0.167917 -0.308621 -0.060466 0.167141 0.188015 -0.359589 0.09559 -0.082035 -0.138296 -0.005008 0.020199 0.076053 0.038457 -0.082618 0.231808 0.321459 0.157125 -0.110243 -0.043818 -0.174804 -0.09461 0.209211 -0.057011 -0.123875 0.021211 0.144288 0.250942 0.191634 0.020248 -0.026868 -0.067104 0.23608 0.245305 -0.210831 0.144335 0.145877 -0.159057 0.295944 0.064096 0.208725 -0.120152 -0.240747 -0.019125 -0.073479 0.013883 0.037235 0.003787 -0.098193 -4.9E-4 -0.015182 0.08026 0.067007 0.202925 0.277495 -0.105275 -0.072351 0.047815 0.232779 -0.077509
bird 0.141764 0.210085 -0.031379 -0.024328 0.161186 -0.164189 -0.219668 0.191537 0.153372 -0.165439 -0.172848 -0.172834 -0.103071 0.111566 -0.093883 -0.203662 -0.334153 -0.010704 0.161269 0.012414 -0.174251 0.318627 0.014161 0.211966 0.115389 0.146841 -0.021338 0.136248 -0.029638 0.009551 -0.216344 -0.095297 -0.006163 -0.130349 0.052485 0.224102 0.174316 -0.078778 0.237248 0.053212 0.085894 0.101312 0.095472 0.470041 -0.026994 -0.082809 0.139432 -0.171316 -0.059637 0.115409 0.080117 -0.118613 0.08579 -0.221588 0.14504 -0.262722 -0.011176 -0.159672 0.094464 0.215097 0.14193 -0.082431 -0.263193 -0.147729 0.394726 -0.11112 -0.014608 -0.086892 0.047622 -0.300231 -0.468252 0.080937 -0.020025 0.059591 0.102778 -0.094975 -0.200077 -0.137825 0.074984 0.103116 -0.058157 0.008836 0.126344 -0.39077 -0.262368 -0.001409 0.103658 -0.085227 0.213949 -0.27508 0.12401 -0.082949 0.030626 0.033423 0.379307 0.136714 0.301122 0.112058 -0.151661 -0.035952 0.176997 -0.217069 -0.059735 -0.178725 0.042095 -0.004792 -0.288322 -0.049751 -0.226271 -0.186215 0.065367 -0.076597 -0.04108 -0.089506 0.3185 -0.267744 -0.182018 -0.167402 0.281666 -0.144441 -0.182739 0.255088 -0.021978 0.030959 -0.108741 0.006873 -0.024358 0.1168 0.175189 0.120438 0.246333 -0.244043 -0.284612 0.139271 -0.027624 -0.158218 0.241826 0.127972 -0.217314 0.038519 -0.154326 -0.015675 -0.008854 -0.25905 0.255621 0.292287 -0.002731 0.196735 -0.009703 -0.041232 -0.042229 -0.069741 0.058025 -0.182551 -0.09268 0.186958 -0.002775 -0.065608 0.043737 -0.273077 -0.380882 0.022657 0.061679 -0.173131 0.066577 0.067959 0.177125 -0.056967 0.13771 -0.009777 -0.170929 0.283163 -0.191587 0.144425 -0.071779 0.228668 -0.009051 -0.084055 0.056148 -0.147912 0.197288 -0.119583 -0.042124 -0.389264 -0.094555 0.06314 -0.118924 -0.024483 0.01365 -0.129069 0.199399 -0.159919 0.065397 0.329746 0.222897 -0.251621 0.116242 0.332507 0.14683 -0.011938
possession 0.038611 0.124491 0.268675 0.017297 0.447689 0.03294 -0.114757 0.331273 0.243095 -0.104505 -0.099838 0.224714 0.307989 0.040872 0.165999 -0.306904 -0.495523 0.063408 -0.608266 0.002299 -0.025479 0.112905 -0.101526 -0.144125 -0.16805 -0.369371 -0.143291 0.003378 0.20955 0.061095 -0.022822 0.03078 0.182583 0.426521 0.021709 -0.079058 0.357217 0.129565 -0.042283 0.039583 0.026623 -0.052805 0.27886 0.131595 -0.091132 -0.148877 0.171707 0.150623 0.281469 -0.312633 0.068865 0.13738 -0.137371 -0.282907 0.080698 0.33061 0.389535 -0.244224 0.058709 0.298247 -0.372256 -0.061064 -0.259553 -0.201221 0.146295 -0.319631 0.099906 -0.100844 0.231289 -0.273657 -0.21713 0.101694 0.147096 -0.196132 0.18 -0.007863 0.094593 -0.456281 -0.143352 -0.567839 -0.046907 -0.152663 -0.019923 0.077557 -0.065024 -0.267054 -0.069122 -0.002938 -0.398514 0.189376 0.349599 -0.005617 -0.258167 -0.4677 0.064757 -0.174984 -0.107145 -0.189873 0.24909 0.301247 0.109662 -0.179138 -0.032651 -0.149267 -0.168937 -0.274595 -0.016908 -0.222329 0.229494 0.131298 -0.065855 -0.131507 -0.254058 -0.204576 -0.230696 -0.2458 0.206882 0.313535 0.25867 0.110038 -0.1135 -0.236779 -0.039605 0.047084 -0.187665 -0.401557 0.167732 0.245828 0.038981 0.129251 -0.079417 -0.06009 -0.140859 -0.249778 -0.005874 0.060447 -0.024226 0.076214 -0.188561 0.208219 -0.196886 -0.359668 0.028539 -0.053459 0.170187 0.182014 0.226901 -0.027343 -0.126456 -0.154332 0.126087 -0.269825 -0.056168 -0.261284 -0.246813 0.027835 0.148177 0.074161 0.152894 -0.098458 -0.201419 -0.14431 0.032302 0.067855 0.038806 -0.191419 -0.087805 0.09571 0.139196 0.391088 -0.040955 0.260071 0.227461 0.049764 -0.270565 0.089221 -0.051113 0.243055 -0.157443 -0.270181 -0.025226 0.246672 -0.244825 -0.201373 0.08403 -0.206834 0.19433 0.18197 -0.078875 -0.088818 0.163002 0.058516 0.223081 -0.284636 0.482901 -0.096664 0.396263 0.039307 0.251679 -0.083032
yen 0.257788 0.254967 -0.095034 -0.019509 0.007245 0.533665 0.214425 -0.169864 -0.168479 -0.008437 0.69929 0.127173 0.997243 -0.194672 0.114491 0.07113 -0.373963 -0.262869 0.096675 0.128752 0.457274 0.130434 -0.132852 0.066534 -0.11145 -0.100411 -0.173214 -0.357112 -0.26543 0.419863 -0.020437 0.184494 -0.755237 0.250543 -0.351931 0.019739 -0.091131 -0.189573 -0.076586 -0.410151 0.497292 0.064198 -0.102095 -0.117289 -0.530766 -0.271459 0.082699 -0.204088 -0.318377 0.374277 -0.404028 0.161497 -0.085404 0.390995 0.263174 -0.371367 -0.383687 -0.112777 -0.21492 -0.166045 -0.080599 0.347218 -0.204405 0.412532 -0.188767 -0.089373 -0.26832 0.294991 0.011414 -0.027513 -0.106019 0.070155 -0.351939 0.039215 -0.062815 0.001079 0.025324 0.246868 0.092273 0.221233 -0.112054 -0.087712 0.162779 0.127526 -0.456072 -0.60571 0.119062 0.001987 0.305904 -0.137385 -0.053976 -0.122207 -0.317439 0.494017 0.236961 -0.142334 0.201495 0.113152 -0.222002 0.496441 -0.489294 0.055656 0.46646 -0.113045 -0.365716 0.175335 0.060128 0.310041 -0.21782 -0.231329 -0.036398 0.076041 0.27264 0.268701 0.154518 -0.092307 -0.640583 -0.37164 0.032143 0.092807 -0.041071 -0.074732 -0.268188 -0.274947 -0.178399 0.152178 -0.494189 0.120456 0.159301 -0.150469 0.233664 -0.080977 -0.114577 -0.127516 -0.117621 -0.015178 -0.299715 -0.136967 -0.25437 0.225336 -0.352707 0.192349 0.048901 -0.046865 0.105382 -0.022202 0.106438 0.199643 -0.108846 0.264726 -0.002941 -0.436992 0.013336 0.276198 -0.029652 0.033657 -0.106827 -0.239491 0.035151 -0.385871 -0.443304 -0.435598 0.245318 -0.086006 0.196879 -0.530388 0.160266 -0.204627 0.526265 0.363603 -0.51871 -0.012166 -0.408599 -0.388325 -0.545339 0.677153 0.468649 -0.448628 -0.251163 0.117503 0.135651 0.036734 -0.224536 0.093275 -0.932173 0.073036 -0.192732 -0.222135 -0.183272 0.356193 -0.378349 0.316098 0.072552 0.002692 0.223535 0.239151 -0.24054 -0.015613 -0.235392 0.440938
chemistry 0.059378 0.225098 -0.115601 -0.081081 -0.025801 -0.206342 -0.104634 -0.109621 -0.112977 0.189089 -0.130779 -0.231111 0.010961 -0.119747 0.075146 -0.139868 -0.274945 -0.085218 0.109827 -0.272201 -0.138054 0.105196 0.130762 0.059697 0.036886 0.045476 -0.044938 0.034042 0.053942 0.186797 -0.118396 0.077397 0.130474 0.022522 0.047063 0.143266 0.336198 0.045507 -0.052921 0.077106 -0.043723 -0.050685 0.074922 0.075218 0.099307 0.116666 0.092133 0.123085 -0.121965 -0.001568 0.114283 -0.068156 -0.072838 -0.039416 -0.041495 -0.165133 -0.026012 0.135091 0.108508 -0.28672 -0.047225 -0.16253 -0.342728 -0.143951 0.13971 0.010619 0.037497 -0.275114 0.066954 -0.017067 -0.02075 -0.118327 -0.030974 0.120778 0.174575 -0.077035 -0.003157 -0.092484 0.073453 3.0E-5 0.097979 0.14631 -0.157403 0.106551 -0.202849 0.180664 -0.052652 0.02254 -0.072995 -0.159823 0.058703 -0.021519 0.124309 0.107086 -0.026229 0.055317 -0.030523 -0.016653 0.114288 0.022274 0.16497 -0.175247 0.103511 0.018873 -0.047996 -0.097356 -0.196473 0.007304 0.043528 -0.143135 -0.069736 -0.037617 -0.113494 0.154985 0.072661 -0.015146 7.41E-4 0.047576 0.164244 0.124028 0.159537 0.161033 -0.203037 -0.174678 0.060947 0.151848 -0.085809 -0.181516 0.140301 -0.142106 -0.060852 -0.012737 -0.049896 0.2367 0.041805 -0.004568 0.044128 -0.002375 0.172829 0.023611 0.314023 -0.173987 -0.112942 -0.155865 0.006754 0.061551 -0.060504 0.341257 -0.005985 -0.013727 0.137395 -0.035692 -0.036684 0.007784 -0.038822 0.14479 0.1795 0.034452 0.17679 -0.132572 0.074232 -0.056064 0.027512 -0.087072 0.107553 0.061894 0.083651 0.1367 0.18979 0.04044 0.042485 -0.140603 0.068176 0.309328 0.034698 0.019709 0.121099 -0.265566 0.055545 0.164272 0.061651 0.121541 0.137513 -0.175966 0.090854 -0.05246 0.100482 -0.084035 0.084927 -0.011787 -0.088569 0.051625 -0.063033 -0.059423 0.009283 -0.095252 0.109466 -0.006683 0.011678 -0.126362
library 0.305532 0.148953 -0.371378 -0.068132 0.072516 -0.009868 0.159558 -0.241299 0.017911 -0.040063 0.19633 -0.040713 -0.032733 -0.091074 -0.016647 0.034792 -0.423914 0.048798 0.066669 -0.214872 -0.088154 0.144774 -0.120056 0.047259 0.01591 0.396696 -0.083034 -0.159857 -0.084625 -0.071858 -0.292065 0.150633 -0.174517 0.15031 0.019901 0.266407 -0.136272 -0.067599 0.109441 -0.164378 0.12828 -0.072216 -0.079542 0.051984 0.032279 -0.091222 0.078155 0.043554 -0.032556 0.094475 -0.051752 -0.102778 -0.030184 0.156818 -0.26925 -0.057756 0.061197 0.118048 -0.032333 -0.240269 0.052286 0.038002 -0.005237 0.018106 -0.015842 -0.176552 -0.09594 -0.144716 0.169519 0.045782 0.18294 -0.24376 -0.078537 0.1843 0.160331 0.132062 0.082633 -0.075313 0.015305 -0.131635 0.055388 0.312768 -0.250871 -0.03053 -0.118674 0.143386 -0.173045 0.084897 -0.2265 -0.294006 0.164937 -0.092125 0.23718 -0.099802 -0.150107 0.273064 0.03814 0.027367 -0.180381 -0.003414 0.017606 0.009344 -0.309817 -0.149478 0.028794 -0.024941 -0.219487 -0.024318 0.377453 0.043025 -0.059192 0.071738 -0.011806 -0.191584 0.051513 0.104636 0.035516 -0.063889 0.101876 0.115106 0.087233 0.126998 0.001586 0.048805 -0.141595 -0.148301 -0.046807 -0.204872 -0.189753 -0.079601 -0.055711 0.064207 0.096522 0.12967 -0.171729 0.030488 0.137435 -0.043381 0.018061 0.103861 0.094452 -0.054845 0.163679 0.111281 0.003495 -0.032648 0.037783 -0.097285 -0.128365 -0.122021 0.055176 -0.134156 0.043032 0.03138 0.30312 0.003521 0.005595 -0.016045 -0.074235 -0.029273 -0.030731 -0.055806 -0.049703 0.152289 0.017684 0.243419 0.209805 0.139798 -0.01891 0.199002 -0.247823 -0.025763 0.232014 0.173813 0.041523 -0.018467 0.058448 -0.054536 0.037145 0.088414 0.161525 0.116498 0.074695 0.119569 0.003137 -0.056169 0.093094 0.027549 0.072128 0.074328 0.169993 0.080575 0.08104 0.090981 0.15705 -0.178648 -0.023194 0.153456 0.300221 -0.095421
virtuoso -0.024689 0.013964 0.06344 0.086441 0.018042 -0.14059 -0.007688 -0.076664 0.162082 0.102322 0.013765 -0.048372 -0.126992 -0.014851 -0.028163 -0.048085 -0.09917 0.038244 -0.011714 0.089277 -0.028105 0.076196 -0.03665 0.106128 0.065799 0.095901 -0.017065 -0.023325 -0.012884 0.094791 -0.003537 -0.052563 -0.069582 0.094293 -0.002044 0.012377 0.100104 -0.001728 -0.039524 -0.016021 0.118547 0.065437 0.056552 -0.002817 0.048241 -0.011879 0.004984 9.28E-4 0.064193 0.019262 0.031603 0.078888 0.014394 0.044995 -0.131614 -0.031503 0.154069 -0.063605 -0.027204 -0.024657 0.048407 -0.035334 -0.020779 -0.091294 0.024956 -0.047148 -0.058001 -0.006632 0.146198 -0.012838 0.00301 -0.025307 0.058638 0.059428 0.05106 -0.031747 -0.039826 0.037254 -0.023119 -0.009215 -0.01249 0.152814 -0.004236 0.054628 0.037324 0.025781 0.065065 0.067722 -0.013066 0.004093 0.013828 -0.031393 0.01642 -0.092001 0.053323 -8.1E-4 -0.025948 0.005812 0.044379 0.036168 0.03923 -0.024015 -0.093998 -0.030173 0.03753 -0.004487 0.023663 0.054337 0.040071 -0.048081 -0.012388 -0.074018 -0.075588 -0.030324 -0.010982 -0.044737 -0.014756 0.066652 0.17235 0.060987 -0.009468 0.131922 0.036698 0.057104 0.003614 0.06509 0.016821 -0.065272 -0.009454 0.036876 0.006537 -0.010142 -0.038077 0.019203 0.012696 0.0083 0.055939 0.015402 0.029227 -0.0212 0.037843 -0.064893 -0.05328 -0.045074 0.043304 0.025294 0.058563 -0.053787 0.074901 -0.032135 0.001991 -0.130958 -0.073259 -0.032855 -0.028823 0.106343 0.052949 -0.010327 0.02221 -0.060215 -0.052536 -0.045417 0.003589 0.077253 -0.055791 0.138437 0.070442 0.028085 0.044968 0.077991 -0.027573 -0.056925 -0.014498 0.158177 0.013623 0.058075 0.012887 -0.027201 0.01243 0.052971 -0.112249 0.029546 0.019144 -0.006931 -0.020291 0.071449 -0.02039 -0.136793 -0.057538 -0.102082 0.005221 0.040675 -0.013224 0.089029 0.098225 0.012234 -0.032014 0.007742 0.086956 0.045119
psychiatry 0.009442 0.189503 -0.11183 -0.040024 -0.012194 -0.09629 0.103492 -0.20479 0.028269 0.019799 -0.035407 -0.020078 0.149271 -0.050502 0.082413 -0.049673 -0.131786 0.062758 0.031112 -0.150098 -0.058165 0.059714 0.111117 0.017128 0.028267 -0.118521 0.008576 -0.138903 0.071361 0.154061 -0.056828 0.088772 0.085904 -0.006799 0.028615 0.021855 0.057492 0.132762 -0.092742 -0.202199 0.073747 -0.118048 -0.046957 0.14911 0.005358 0.130562 0.281183 -0.02406 -0.129046 -0.017897 -0.093237 0.085507 0.165748 0.082145 -0.203199 -0.072849 -0.016203 -0.066246 0.099748 0.060345 0.057726 0.02326 -0.098225 -0.127628 0.041171 0.158759 -7.81E-4 -0.070598 0.021269 -0.056898 0.080604 -0.316824 0.104842 0.048322 0.18147 0.067302 0.169253 -0.163689 -0.070089 -0.083332 0.015194 0.144618 0.066997 0.115967 -0.066581 0.151376 -0.001355 -0.029946 -0.115483 -0.00194 0.108044 0.010616 0.126006 0.121784 0.018727 -0.057085 -0.056687 -0.151114 0.137994 0.064871 0.117254 -0.109783 0.085172 -0.070675 -0.035644 0.040663 -0.016777 0.017401 0.058637 -0.119628 0.16139 -0.033055 -0.035774 -1.19E-4 -0.025806 0.062939 0.075912 0.065006 0.080462 0.119947 0.044413 0.208845 -0.06204 -0.045731 0.03903 0.166409 -0.060957 -0.164877 -0.058648 -0.153473 -0.09931 0.16156 -0.040888 0.104279 0.157763 -0.01237 0.076044 0.120023 0.111474 -0.092104 0.212767 -0.10342 -0.02881 -0.100928 0.111832 0.195972 0.048523 0.054962 0.005352 -0.081265 0.128352 0.088207 0.031133 -0.10037 -0.078367 0.014949 0.023709 -0.012894 0.041165 -0.20483 0.075439 -0.117918 -0.044971 0.072196 0.095111 0.117523 0.049342 0.138988 0.133707 0.106447 0.023594 -0.078107 0.075589 0.079312 0.088241 -0.101377 0.015167 -0.119542 0.058322 0.024842 0.041243 -0.011207 0.041203 -7.07E-4 -0.128532 -0.08659 0.062037 -0.045372 -0.017566 -0.036347 0.008835 0.082124 0.008326 0.022292 0.086668 9.56E-4 -0.064146 0.152485 0.232044 -0.027452
change 0.018259 -0.101355 -0.183663 0.307075 0.383151 -0.11846 -0.197349 0.035688 -0.006342 0.407938 0.067897 0.204862 -0.226925 -0.342264 -0.023519 0.137187 0.091965 -0.385256 0.191313 0.061836 -0.292167 -0.295421 0.191335 0.278913 0.186045 0.006125 -0.0989 -0.011435 0.558913 0.337424 -0.059419 -0.423028 0.418458 -0.047592 0.109743 -0.137901 0.198926 0.197277 0.001405 0.023755 -0.194622 -0.076979 -0.272294 -0.456034 0.0617 -0.265991 -0.325153 0.15506 0.034562 -0.188413 0.256056 -0.142072 0.108173 -0.228986 0.201302 0.131515 0.0295 0.328634 -0.018835 -0.204087 0.348989 -0.143174 -0.299791 0.16151 -0.275428 -0.295404 0.012642 -0.374783 0.006 -0.125509 0.054197 0.155542 -0.100249 0.256739 -0.008035 -0.368695 0.045472 -0.091524 -0.171159 -0.06396 -0.042403 0.006951 -0.178137 0.147292 -0.019394 0.330717 6.5E-5 -0.019977 -0.077806 0.112843 0.195834 0.105681 0.115182 0.21905 -0.261863 0.168935 0.060171 0.237983 0.082513 -0.170778 0.055677 0.119537 0.253599 -0.140713 -0.381606 0.152007 -0.104444 -0.103124 0.057649 -0.083533 0.088267 0.157889 0.175602 -0.117562 0.075728 -0.245906 -0.11653 -0.104598 -0.112135 -0.057376 0.19803 0.520037 -0.294781 -0.275019 0.078236 0.081235 -0.100206 0.146543 0.144897 0.075125 -0.039699 0.099717 -0.20614 0.162153 0.019207 0.203394 0.086231 -0.225975 -0.25274 -0.223189 -0.193748 -0.19889 -0.208292 0.25172 -0.220067 -0.196373 -0.117257 0.211056 0.114778 -0.297443 -0.024489 -0.037132 -0.111484 0.054962 -0.213873 0.0035 0.162519 -0.071441 -0.023447 0.407675 0.065711 0.005205 0.268052 -0.206534 0.35075 -0.183212 0.377472 -0.048886 0.413499 -0.041484 -0.107989 -0.00679 0.108562 0.112805 -0.131592 -0.03048 0.134697 -5.25E-4 -0.226406 0.030127 0.087898 0.085885 -0.05501 0.214624 0.050277 -0.017195 -0.076987 0.199201 0.281949 0.227977 0.02985 -0.467558 -0.05698 0.123662 0.135667 -0.046132 0.219513 -0.082399 -0.041912 -0.034795
